-0.078253
1.492671
-0.540298
0.151664
-0.691816
0.225763
0.392502
-0.297098
-0.126795
-0.230080
0.126698
0.168931
-0.118462
0.030802
0.007265
-1.730302
0.022527
-0.101685
0.051253
0.019181
0.048464
-0.092758
-0.876872
0.387001
0.139642
0.341299
-0.002619
-0.408070
0.204967
0.011428
-0.311557
0.098274
-0.077058
-0.589413
-0.240212
-0.243711
-0.172601
-1.078280
-4.181781
0.379677
0.750942
0.557624
-0.063756
-1.128820
-0.203192
0.146966
0.185487
0.852128
-0.069500
0.225244
-0.673001
-0.270441
0.454256
0.330436
1.115378
0.056039
0.234092
-0.359477
-0.045558
-0.109856
0.016937
0.032101
0.822651
-0.033663
0.160974
-1.157956
0.358166
-0.118800
0.177800
-0.213899
-0.388375
-0.345906
0.065547
0.725822
0.328339
-0.497818
0.046283
0.314905
0.735634
-1.069402
0.328640
-0.110206
0.428827
-0.411657
-0.693098
0.275671
0.611886
0.950299
-0.002221
-0.362442
0.198159
0.280838
0.016974
0.325267
-0.612821
0.191737
0.973150
0.341381
0.791029
0.666164
0.250850
-0.248586
-0.300376
-0.202293
-0.156611
-0.253027
0.368051
-0.089330
-0.258978
-0.125426
-0.411202
-0.520623
-0.414687
0.259361
0.079430
0.365785
-0.092379
0.031875
-0.009371
0.432853
-0.281290
0.522581
-0.124357
0.289983
0.197991
-0.238813
0.323476
0.155966
