0.060367 0.341878 -0.093667 0.021726 -0.122515 -0.144386
0.165218 -0.457398 0.221534 0.026059 0.023340 0.155485
-0.272143 0.288611 0.189725 -0.019708 0.085799 0.135722
0.187195 0.261229 0.096014 -0.092756 0.110904 -0.069453
-0.028450 0.240509 -0.298286 -0.049297 -0.220765 -0.073992
-0.148124 0.343863 -0.392850 -0.045660 0.027934 -0.042010
0.307110 0.293907 -0.234197 -0.068528 -0.111905 0.031880
0.098707 0.446405 -0.407748 -0.071113 0.051840 0.048878
-0.257793 0.184462 0.384450 -0.046857 -0.094087 -0.028906
-0.346221 0.050958 -0.114683 -0.256378 -0.057199 -0.044447
0.258105 0.382251 -0.028312 -0.115890 0.030571 -0.047784
0.353908 0.352775 -0.173145 -0.047756 0.082808 0.040561
0.325519 -0.187159 -0.170005 -0.079967 -0.049185 0.005865
0.023098 0.433569 0.050426 0.047148 0.104017 0.040601
-0.040795 0.229298 0.119763 -0.131577 0.015138 0.091496
-0.018379 0.322207 -0.186050 0.236929 0.041997 0.051407
0.318513 -0.346049 -0.269353 0.279700 -0.091280 0.000496
-0.041700 0.257156 0.038681 0.053295 -0.091004 0.025053
-0.058410 0.159279 0.123154 0.122965 -0.071424 -0.023752
0.362430 -0.220602 0.327685 0.144938 -0.002156 -0.018987
-0.079723 0.144687 -0.370720 -0.413162 0.176215 -0.000767
0.290840 -0.053703 -0.302611 0.168795 -0.074651 0.049588
0.581273 0.183789 0.180274 0.263840 0.232183 -0.204520
0.461164 0.375617 -0.263169 -0.068518 0.047120 -0.007124
0.299396 -0.121147 -0.055033 -0.102544 0.124098 -0.019613
0.043657 -0.435291 0.029923 0.073026 0.002026 -0.018311
0.243769 -0.343686 0.049935 0.242983 -0.045210 0.174159
0.095990 -0.116584 0.172693 -0.255052 -0.342830 0.047368
0.335995 -0.106040 -0.209399 0.105933 0.007429 0.007549
-0.068248 -0.283227 -0.033513 0.110505 0.158683 -0.059966
-0.200466 -0.134838 0.287226 -0.111338 0.033274 0.191218
0.029520 0.246175 -0.036058 0.015227 -0.055971 -0.013485
-0.060165 -0.310198 -0.041459 0.051007 0.000382 0.054979
-0.018042 -0.167850 0.127877 0.608797 -0.012348 0.007382
0.205050 0.301306 -0.299743 0.219214 -0.022902 -0.090839
-0.284633 0.172045 0.000339 0.030161 -0.043923 -0.134919
0.113848 -0.235047 -0.155079 -0.038998 -0.035419 -0.075522
0.794746 0.171056 0.075834 -0.000269 -0.017443 -0.011610
-0.054874 0.079281 4.523085 0.037639 -0.014386 0.022420
0.143399 0.237768 0.033279 0.115356 -0.026496 -0.148818
0.158185 -0.357852 -0.030478 -0.246864 -0.016013 0.135825
-0.411602 -0.329255 0.327872 -0.034052 0.048211 0.072866
0.239763 0.006393 0.231134 0.047360 0.099812 0.154141
4.006338 0.806379 -0.046617 -0.012361 0.014698 -0.002589
-0.258940 -0.320191 -0.088874 -0.086162 -0.010654 -0.058671
-0.232336 -0.248285 -0.275282 -0.026894 0.084552 0.075697
0.184150 0.382785 -0.143557 0.326730 -0.033291 0.094938
0.364970 -0.307086 -0.301142 0.009828 0.073855 0.008474
-0.045380 0.050799 0.227634 0.151479 0.119843 0.129256
-0.154609 0.122566 0.041886 0.090306 -0.169892 -0.134708
-0.259541 0.011623 -0.203005 -0.095327 0.066884 0.065695
-0.043022 -0.247757 -0.380516 0.087186 0.074709 -0.004587
0.246003 -0.206179 0.379062 0.110255 -0.042916 0.090373
0.028810 -0.260314 -0.319564 0.143087 -0.089826 -0.075922
0.187527 0.038399 -0.282881 -0.044630 0.322434 -0.009229
-0.219322 -0.398893 -0.131020 -0.064201 -0.086008 -0.047846
-0.060266 0.409785 0.059853 -0.050024 -0.026916 -0.011043
0.169005 -0.267668 0.283179 0.111372 -0.123192 -0.151338
0.130973 -0.305925 0.169958 0.105391 -0.135019 -0.097601
-0.116928 -0.092952 0.423276 0.310227 0.020928 -0.011075
0.172590 0.313719 0.076160 0.065886 0.057616 -0.020626
0.051753 -0.263505 0.238127 0.038563 -0.038665 0.217422
0.099349 0.082850 -0.255581 0.043295 0.055097 0.000773
0.188513 -0.331081 -0.211125 -0.251437 0.142007 -0.150208
0.290479 0.058137 0.376421 0.213249 0.024904 -0.016751
0.352054 0.173732 0.105725 -0.043767 -0.068079 0.006698
0.104347 -0.357053 0.013638 0.040745 -0.132387 0.020394
0.337034 0.233041 0.114797 -0.227137 0.114737 -0.054698
0.328853 -0.177375 0.028026 0.264528 0.037289 -0.113986
0.176987 -0.317386 0.025363 -0.267896 0.117349 0.120913
-0.536499 0.038562 -0.109655 0.033129 0.011024 0.008420
-0.397739 -0.132951 0.171560 0.159260 0.049762 -0.010596
0.359528 0.264519 0.295935 -0.287428 -0.097504 -0.054007
0.050535 0.185038 -0.153273 0.135694 -0.066315 0.061055
-0.431980 -0.452543 0.116068 0.111612 -0.056060 -0.118063
-0.258737 0.218657 -0.339991 0.017507 0.127310 -0.025616
0.041122 0.206083 0.100283 -0.010651 0.163212 -0.003628
-0.073293 0.416035 -0.420802 0.212517 0.058131 0.005154
-0.354868 0.158129 -0.273572 -0.057409 0.031745 -0.048444
-0.344667 0.449309 -0.319639 0.039090 -0.034379 -0.016542
-0.048848 0.202535 -0.330223 -0.083182 -0.000170 -0.196766
0.224852 -0.079833 -0.364427 0.030430 -0.084606 -0.145934
-0.228553 -0.062500 -0.140049 -0.098312 -0.136861 0.021505
-0.303803 -0.153837 -0.125271 0.055472 0.116215 0.090942
0.162772 0.087375 -0.565852 0.012162 0.014743 0.008164
-0.041900 -0.155410 -0.019071 -0.101369 -0.101599 -0.102333
-0.233641 0.064163 0.010780 -0.091651 0.073659 0.160949
-0.137892 -0.232214 -0.025884 0.087554 -0.084234 -0.053731
0.256861 0.563910 0.119478 0.153977 -0.154398 -0.002375
-0.318359 -0.070443 0.313933 -0.135525 0.093284 -0.089877
-0.379762 -0.184924 -0.228744 -0.232044 0.059356 -0.109298
0.013804 0.090396 0.054810 0.236445 -0.004410 -0.123759
-0.103065 0.329987 0.387959 0.070088 -0.008607 0.132681
0.141392 -0.296201 0.069029 0.185118 -0.094817 -0.183523
0.022631 -0.112677 0.696096 -1.237162 0.066482 0.002778
-0.272127 -0.108933 -0.040500 0.030447 0.140706 -0.055211
-0.455307 -0.293718 0.230911 -0.215197 0.098460 -0.140384
-0.302450 -0.121767 -0.249960 -0.007430 -0.035560 -0.116816
0.447851 -0.124924 -0.114171 -0.032585 0.011239 -0.002413
0.218296 0.295746 0.204973 0.069047 0.023979 -0.022712
-0.019680 -0.095320 -0.531648 0.247379 0.070972 0.066897
-0.053194 -0.164021 -0.084142 0.249816 0.035796 -0.131540
-0.026234 -0.174748 -0.177253 -0.043802 0.067395 0.048514
0.109179 -0.235990 0.487636 0.069495 0.067243 -0.032461
0.099148 -0.035623 -0.140324 0.096547 0.155569 0.029801
0.279384 -0.071424 -0.302522 0.083902 -0.040139 -0.077134
-0.357423 0.142654 -0.194512 0.137364 0.018163 -0.014763
-0.006859 -0.315421 0.035122 0.012715 -0.014590 -0.005790
0.031477 0.130447 0.125180 -0.009349 -0.084634 -0.013826
-0.222238 -0.399718 0.202157 -0.066994 0.080000 0.001957
-0.313654 0.059816 -0.473877 -0.001131 -0.023360 0.035505
-0.088779 -0.020929 0.141429 0.038380 0.196280 0.056677
-0.061208 0.286674 -0.052978 -0.346172 -0.075903 0.109904
0.449962 -0.388889 -0.289628 0.083277 -0.003524 -0.027296
-0.119464 -0.477534 0.164290 0.228520 0.040002 0.175728
0.069944 -0.316412 0.023138 -0.057664 0.016173 -0.021343
-0.080281 0.210704 0.079901 0.169602 0.105034 -0.128226
0.003372 0.020579 0.231047 0.089920 0.100745 -0.091310
0.321702 0.085313 0.265227 0.003483 0.079480 -0.015424
-0.261675 0.192672 -0.041412 0.010277 -0.041501 0.082420
-0.021490 -0.279716 0.040183 0.006829 -0.098509 -0.060851
-0.187785 -0.308153 -0.326047 0.176242 0.035070 -0.042995
-0.351656 -0.279111 -0.025027 0.142957 0.205980 0.087181
0.070173 -0.173781 0.010642 0.034205 0.212614 -0.086262
0.204166 -0.432931 -0.313216 -0.108852 -0.068304 0.018411
0.279045 -0.036871 -0.116993 -0.188995 -0.051192 0.101967
-0.080070 0.186859 0.119527 -0.583133 0.107986 0.006170
0.156472 -0.315971 -0.042571 -0.401498 -0.017378 -0.174245
