0.006993 0.084848 0.038624 -0.079080 0.030179 -0.043916 -0.032488 -0.091997 0.016395 0.067461 -0.085964 -0.038729 0.052605 0.026056 0.033822 0.006769 -0.063411 -0.103772 0.009528 0.101353 0.012725 -0.033889 0.049752 -0.063450 -0.016192 0.106290 0.015610 0.045118 -0.011633 0.003927 0.002577 0.033740 0.083903 -0.045821 -0.028423 -0.065167 0.005529 -0.017449 -0.021485 -0.085520 -0.018924 -0.010711 -0.122517 0.014554 0.075838 -0.039773 -0.016853 -0.061804 0.076948 -0.033448 0.076791 0.004509 0.008058 0.054813 -0.024314 0.039660 0.028184 -0.004611 0.011662 0.053322 -0.089546 0.060909 -0.006557 0.004239 -0.092217 0.067231 -0.000427 0.064260 -0.045605 0.027863 0.154781 0.001359 0.066743 0.023554 0.043615 -0.101670 -0.010366 -0.014799 0.051794 -0.085299 -0.093003 0.105061 0.076279 0.056188 0.037933 0.043316 -0.025700 0.075583 -0.062713 -0.043972 -0.068148 0.034669 -0.056606 0.093508 0.062608 0.075728 0.047834 0.010569 0.103109 -0.082755 0.056366 0.028189 -0.078870 0.031907 -0.036725 0.024148 -0.086393 0.065124 -0.075394 -0.050900 0.218929 0.049211 -0.056428 0.011689 0.058036 0.025372 -0.091523 -0.089648 0.036046 0.035309 -0.057864 -0.034863 -0.002393 0.095450 -0.054259 0.053357 -0.055088 -0.047147
-0.085824 0.016256 -0.068695 -0.016610 0.012718 -0.044305 0.030779 0.057888 0.109363 -0.053200 0.141804 -0.042239 0.062876 0.100978 -0.083874 0.024054 0.102694 -0.076138 0.037511 -0.058776 0.051944 0.047478 -0.087779 0.097275 -0.063575 -0.073225 -0.002315 -0.064339 0.041114 0.219586 0.053708 0.059836 0.049050 0.023404 0.023212 -0.064077 0.002812 -0.091848 0.051091 0.239135 0.072364 0.073475 -0.105173 0.050775 -0.043429 0.136059 -0.067895 0.019247 -0.110491 -0.227859 0.104706 0.033971 0.040994 0.088687 0.059744 -0.070242 -0.103548 -0.009250 0.093642 0.071336 -0.110979 -0.004610 0.224804 -0.010134 -0.122654 0.004549 -0.009335 -0.101493 0.052594 0.067647 -0.099562 -0.542789 -0.027150 -0.150663 -0.025187 0.007778 -0.024286 0.066941 0.030482 -0.095471 -0.035459 0.065128 0.026706 0.053237 0.053641 -0.064692 -0.033055 0.063830 -0.011792 0.000419 -0.035533 -0.031726 -0.070664 0.099827 0.075699 -0.036473 -0.012219 0.097094 -0.027979 -0.057926 -0.123025 0.132528 0.009466 0.045334 0.034457 0.088711 0.011011 -0.045772 -0.104001 0.090830 -0.056242 0.068237 0.066980 0.052002 0.053509 -0.036185 -0.000611 -0.049737 0.041418 -0.087965 0.036503 0.007790 -0.004369 -0.046097 0.141491 -0.057342 -0.103021 -0.075726
0.005407 -0.062752 -0.064086 -0.124005 -0.019189 -0.024999 -0.016844 -0.010038 0.007329 -0.026300 -0.050094 0.038204 -0.073705 -0.049519 -0.056967 -0.076237 -0.047790 -0.083494 -0.068415 0.028550 -0.162050 0.066523 -0.055636 -0.040034 -0.015919 0.072021 0.111293 -0.154226 -0.023481 0.036191 -0.053446 0.011837 0.042699 0.031552 -0.109839 0.023716 0.049842 -0.149458 -0.055268 -0.090066 0.070214 0.098077 -0.047553 -0.001318 -0.052405 0.081141 -0.103013 0.053976 -0.068415 -0.102354 0.011810 -0.044959 0.109067 0.055493 0.003754 0.121668 -0.076968 0.036661 0.122739 0.103320 0.017249 0.055749 0.076882 0.027211 -0.122285 -0.074868 0.051207 0.004456 0.017147 0.079348 -0.174013 -0.003807 -0.038251 0.012537 0.104757 0.010810 -0.028466 0.028664 0.034308 -0.096826 -0.104675 0.003245 0.112591 -0.025898 -0.041979 0.037759 -0.118178 0.004942 -0.158143 -0.020587 0.150633 -0.004549 -0.045187 -0.023788 0.023083 0.098379 0.058122 -0.050557 0.096808 -0.088901 -0.040920 0.047243 0.053298 0.076417 0.021018 0.010735 -0.090988 0.077560 0.061354 0.041500 -0.108105 -0.042902 -0.035104 -0.006049 0.118138 0.063489 0.062259 0.040170 -0.045769 -0.090743 0.070983 -0.000959 0.104405 0.069052 0.127755 0.049114 0.012251 0.078404
-0.050553 0.115682 -0.130554 0.085826 -0.100269 0.253620 0.105542 -0.094411 -0.085412 -0.296524 0.454020 0.138093 0.058172 0.023505 -0.015414 0.045064 -0.054938 0.222349 -0.059995 0.006752 -0.008666 0.133169 -0.032343 0.083198 0.029947 0.020431 0.090598 -0.119462 0.662338 -0.037712 -0.162988 -0.007595 0.040498 -0.189064 0.306294 -0.029305 -0.025064 0.039659 -0.061719 0.271493 0.047538 -0.273746 0.243025 0.076315 -1.528909 0.059944 0.093774 0.113997 0.021265 -0.105625 0.057785 -0.007940 0.033586 0.037466 0.035142 -0.009871 0.026210 -0.043029 0.102245 -0.038903 -0.012401 -0.035614 0.168027 -0.019798 0.323066 -0.157335 0.063687 0.052064 0.201794 0.138065 -0.442776 -1.335833 0.091379 0.347416 -0.060092 -0.155513 0.126274 0.011277 -0.018267 -0.041109 0.001253 0.034478 0.054141 -1.250888 -0.053962 0.063492 0.084482 0.089372 0.041100 -0.164002 -0.040067 0.036611 0.171377 -0.015492 0.008324 -0.111544 0.053480 -0.100516 2.057403 0.609644 0.230661 -0.127524 0.029305 0.147309 0.166209 -0.020028 -0.089536 -0.220176 -0.104763 0.022030 -0.298367 -0.086646 0.017149 0.062162 0.081396 0.048401 -0.044850 0.226613 0.252755 -0.038151 -0.505856 -0.128963 0.007833 0.035128 0.029614 0.029246 0.107836 0.066746
0.024081 -0.063261 0.126646 -0.050882 -0.069775 -0.577982 0.177326 0.075173 -0.076561 -0.089317 -0.031304 -0.026585 -0.051430 -0.998908 0.096516 0.028670 -0.039526 0.365898 0.088124 -0.009257 0.016444 -0.056434 -0.030119 -0.045314 0.050381 0.051723 0.152565 0.071735 -0.078037 -0.114766 0.166915 -0.073289 -0.001101 0.000120 -0.028345 0.038415 -0.002009 0.049760 0.111218 -0.422374 0.122155 -0.344485 0.075437 0.094869 -0.051416 -1.078638 -0.265510 -2.078124 -0.103084 -0.024021 0.357526 -0.079616 -0.120547 -0.829642 -0.173601 0.051371 0.068445 -0.086826 -0.099921 0.083746 0.090820 0.047756 -0.119377 -0.075411 0.420710 0.059733 -3.272825 0.024651 0.073506 -0.113190 0.294415 -0.083594 0.005903 -1.775200 -0.036605 0.374454 0.044943 0.017060 0.059481 3.320922 -0.012246 -0.029776 -0.011038 0.295850 -0.349210 -0.404667 -0.115198 -0.104608 0.023483 0.060439 -0.060157 0.032627 -0.015564 -0.141034 -0.115956 -0.029617 -0.406115 0.010665 -10.727804 -2.997001 0.058178 0.318663 -0.074201 -0.045378 0.013103 -0.061324 -0.037958 1.455497 0.053583 0.079409 0.057692 -0.251044 -0.004152 0.036934 -0.103475 -0.018585 0.227618 0.122261 -0.037860 0.020764 0.098004 0.013707 -0.089500 -0.103603 -0.213450 0.101351 -0.018572 -0.211302
0.086006 -0.114661 0.108566 0.141408 0.072621 -0.029675 0.005193 0.000387 0.052604 -0.031189 0.107068 0.001366 -0.088840 -0.066918 0.037870 0.045520 -0.000124 -0.015482 0.070381 0.007752 -0.024727 -0.028744 0.036018 0.069867 -0.045349 0.062448 -0.035003 0.021154 0.028486 -0.475968 -0.072029 0.069515 -0.011324 0.002968 0.075589 -0.039177 0.057722 -0.006382 -0.034352 -0.057432 -0.069337 -0.030182 0.042896 0.056837 -0.051867 -0.000384 -0.024707 0.001271 0.038747 0.026491 -0.034379 0.004861 0.043675 -0.038743 -0.046680 -0.120083 -0.043357 -0.033625 0.041696 -0.013205 0.086814 0.007129 -0.066830 0.071199 0.102523 0.111138 -0.036551 0.009012 0.059998 -0.046689 0.046985 0.077314 -0.061556 0.119667 -0.029819 0.106541 0.069594 -0.035031 0.114205 -0.028650 0.105709 -0.089656 0.016820 -0.096993 -0.044888 -0.058381 -0.045085 -0.091714 0.114953 0.018700 -0.040119 0.179355 -0.047590 0.034730 -0.087337 0.101410 -0.080341 -0.072694 -0.040128 0.090742 -0.078272 -0.226057 -0.141487 -0.033159 -0.013629 -0.034706 -0.029210 0.028143 -0.041201 0.086260 0.029272 0.021800 0.022555 -0.083969 -0.095949 -0.038525 -0.016407 0.186017 -0.027377 0.023202 -0.004454 -0.158405 0.030216 0.014396 -0.247185 -0.070666 0.131649 -0.015829
0.136468 -0.334335 0.034223 0.078174 0.116055 0.070025 0.081868 0.073642 -0.057572 0.021102 0.003841 0.047622 0.038618 -0.037412 0.036745 -0.008607 0.060612 0.107307 -0.041581 0.037880 0.201262 -0.009594 0.219848 0.092885 -0.022526 -0.085047 0.196516 -0.055806 -0.051580 -0.083514 0.047067 0.004678 -0.057723 -0.135484 0.382054 0.055676 0.013782 2.874670 -0.197020 -0.019746 -0.024950 -0.091082 0.169331 -0.049810 -0.085768 -0.358551 -0.144008 0.020382 -0.057830 0.036221 0.070048 0.073657 0.052217 -0.087674 0.024538 -0.038147 0.076715 -0.032152 0.051839 0.006932 -0.015558 -0.024768 0.037068 -0.007118 0.062081 2.124781 -0.073097 -0.009509 0.042175 0.068040 0.054760 -0.075297 0.113807 -0.248682 -0.059123 0.087914 -0.029813 0.009202 0.011944 0.309169 -0.018076 0.007810 -0.931053 -0.041361 -0.021794 -0.000455 -0.577077 -1.391823 0.080952 -0.040809 -0.044836 -0.111868 0.074414 -0.076624 -0.040425 0.014399 -0.321145 -0.222956 -0.069560 -0.057206 0.163002 -0.074212 0.017935 -0.127951 0.178529 0.027853 0.049954 0.010816 0.165691 0.069916 0.010471 0.077419 0.010782 -0.016220 0.065158 -0.481464 0.109396 -0.102851 -0.092321 -0.119956 0.013542 -0.034112 -0.106782 -0.102140 0.045227 0.238251 -0.060904 0.054573
0.036685 0.096887 0.005730 0.023482 0.051103 -0.118294 0.035755 -0.012881 -0.033384 -0.088543 0.038581 -0.015033 -0.007236 0.049389 0.042250 -0.089451 0.066200 -0.093971 -0.056178 0.070105 -0.067486 -0.025894 -0.054820 0.068476 -0.058669 0.090377 -0.055534 -0.022613 0.090544 0.028336 0.092988 -0.115389 0.036332 0.088496 -0.034618 -0.087615 -0.064497 -0.022837 0.020258 -0.078175 0.101339 0.015628 0.012004 -0.040524 0.015658 0.017899 -0.013705 0.093028 0.054880 -0.038071 -0.034296 -0.015223 -0.070515 0.040128 0.057191 0.034562 -0.049460 -0.006487 0.057919 0.048162 -0.101952 -0.053323 -0.010181 -0.046078 0.084279 -0.107479 0.097773 0.037844 0.075827 0.138752 0.135138 -0.033950 0.049019 -0.026890 0.051010 0.041688 -0.000726 0.018226 -0.015151 -0.003181 0.016156 -0.066730 0.104840 0.060231 -0.017282 0.026376 0.125983 -0.007199 0.044985 0.011919 -0.054840 -0.064297 0.054475 -0.043068 -0.018791 -0.063876 0.073145 -0.055643 -0.037618 -0.075370 0.011249 0.002909 0.004345 -0.064817 0.009055 0.055302 0.013847 0.087130 -0.074018 -0.040025 0.179757 0.059510 -0.037259 -0.023338 -0.061794 -0.026710 -0.071727 0.003165 -0.039685 -0.084973 -0.010541 0.100217 0.057720 0.033208 -0.020305 0.019388 -0.009205 0.056438
0.085335 0.051026 0.027085 0.041759 0.104573 -0.053008 0.090872 0.049531 0.009311 0.037083 0.086086 -0.041207 -0.035147 -0.059171 0.106925 0.112307 -0.068820 0.054749 -0.036565 0.063975 0.013506 -0.022396 -0.071241 -0.045630 0.029624 -0.107438 -0.058826 0.005985 0.026355 0.059094 -0.095964 0.036521 0.056898 -0.092536 0.078198 0.094101 0.050825 0.033922 -0.003088 0.081910 -0.008275 -0.019589 -0.102101 -0.044061 0.038103 0.000338 -0.043643 -0.092792 -0.011952 0.045351 0.069746 -0.068305 -0.086898 -0.021961 0.030818 0.086601 -0.057727 -0.072085 -0.000745 0.005992 0.022875 -0.043108 0.126351 0.049935 0.076670 0.102318 -0.038411 0.018741 -0.137189 0.069627 -0.000448 -0.017017 0.018184 0.000628 0.067663 0.033543 0.044781 0.029063 -0.000201 -0.029622 0.000625 -0.027222 -0.047667 -0.057792 -0.107862 -0.139668 0.043307 -0.037028 -0.056252 -0.083194 0.037451 0.062137 0.045044 -0.052165 -0.031876 -0.141194 0.017295 0.047799 0.012927 0.058258 0.034560 0.042639 0.044078 -0.066998 0.063965 0.053080 0.148020 -0.099694 -0.032107 0.029169 -0.051132 -0.014121 0.026113 0.023290 -0.037397 0.035838 0.049156 0.079413 -0.041744 -0.041361 0.005539 -0.079466 -0.035068 -0.075906 0.089419 -0.072189 0.095040 -0.046339
-0.067470 -0.084753 0.071406 0.089353 -0.022915 -0.004856 -0.027119 -0.087670 0.190178 0.012222 -0.008875 -0.520499 -0.000772 0.141381 -0.011285 -0.020571 -0.111243 0.026259 0.088217 0.024751 -0.165135 -0.020083 0.357654 -0.027890 -0.058546 0.092067 -0.120379 0.169969 -0.094922 -0.120316 -0.155952 0.111834 -0.031861 0.014635 0.016428 0.087554 0.036387 0.451286 0.049658 0.172878 -0.084201 -0.158550 0.083829 0.377954 -0.030999 -0.716363 0.414218 -0.003111 -0.001006 -0.121740 -0.004406 -0.097453 -0.123614 -0.101867 -0.023540 -0.268846 0.025424 -0.052348 -0.027941 1.299662 -0.009616 0.022162 0.046697 -0.009548 -0.001133 -0.014208 -0.015414 0.548845 0.172396 -0.050740 0.214072 0.555420 -0.940585 -1.159869 -0.022947 -0.041137 0.000850 -0.051042 -0.066865 0.040152 -0.064851 0.010802 -0.387783 -0.038420 0.127126 -0.444988 -0.147089 -0.007669 0.123087 0.018006 -1.414635 0.080179 0.042172 -0.098736 1.113477 0.056151 -0.112004 -0.087038 -0.390367 0.087629 -0.036029 -0.022480 -0.046595 0.078039 -0.029134 0.062525 -0.488060 -0.073030 1.399676 0.054949 0.021261 0.043355 -0.100449 -0.155461 -0.121343 0.039425 0.023389 0.138289 -0.032306 0.062720 0.081599 -0.941997 -0.035486 -0.058830 -0.355031 0.087575 -0.024967 0.008220
0.094574 -0.021772 0.117067 0.082318 0.046237 -0.005471 0.001003 0.018353 -0.010585 -0.066130 -0.020557 0.051765 -0.012206 -0.034069 0.016127 0.077271 -0.081809 0.047664 -0.049679 -0.048224 0.090911 0.319216 -0.016521 0.077728 0.052402 0.057289 -0.035453 0.045632 0.026237 -0.026341 -0.011468 0.037675 -0.064890 0.014843 0.121056 0.111685 -0.013997 -0.046166 0.091229 -0.037592 -0.068233 -0.001720 -0.005234 0.090454 0.020792 0.057554 -0.071900 -0.071876 0.084857 -0.102941 -0.068496 0.010756 -0.019991 -0.115661 -0.008808 0.034497 -0.045899 -0.054188 -0.109757 -0.064852 -0.017646 -0.109517 0.049279 0.074995 -0.046167 0.147226 -0.002160 0.021663 -0.011615 -0.087849 -0.084718 0.091285 0.169895 0.004489 0.001504 -0.007317 0.083276 0.081412 0.060697 -0.008240 0.076094 0.030656 -0.074450 -0.000280 0.078741 -0.097087 -0.013922 0.034495 -0.019768 0.059550 -0.005439 -0.044104 -0.054465 0.038183 0.076948 0.033807 -0.078562 -0.010057 -0.325446 0.062343 0.082486 0.010949 -0.007637 -0.089427 0.045594 0.071823 -0.083300 -0.017131 0.026119 -0.167857 -0.113187 0.028181 0.023980 0.044891 0.045127 -0.054460 -0.055443 -0.060516 -0.091082 -0.019340 0.017438 0.020656 -0.022926 -0.042185 -0.027408 -0.051267 -0.062692 0.018605
-0.010500 -0.073936 0.121097 -0.032371 0.018865 0.083632 0.052718 -0.006149 0.017996 -0.016145 0.038479 -0.030316 -0.057783 0.041588 0.132734 -0.030596 -0.076219 -0.008685 -0.056435 -0.073273 0.043138 -0.000094 -0.015956 -0.016900 -0.040634 -0.068344 -0.132760 -0.061292 -0.018479 -0.065575 0.109843 0.092106 -0.103138 0.064868 0.059996 0.037033 -0.057641 0.086762 -0.034424 -0.037856 -0.105111 -0.133689 -0.059391 0.124553 -0.034527 -0.122247 0.021294 -0.031446 -0.051861 -0.147289 0.077673 -0.046708 -0.021447 -0.139192 -0.080755 -0.059977 0.003026 0.013540 -0.087097 -0.019928 0.047429 -0.017314 -0.127042 -0.070760 0.060342 0.048463 0.026315 0.012359 -0.001833 -0.033169 0.003564 -0.035480 -0.041419 -0.020597 -0.084875 0.091370 0.039748 0.081678 0.114691 0.150561 -0.040621 -0.019142 0.023272 0.099593 0.062823 -0.027376 0.027534 0.048781 0.155414 0.011895 -0.072221 0.165224 0.122872 0.040258 0.020281 0.012127 -0.070101 -0.003400 -0.077215 0.061198 -0.081996 0.002693 -0.183688 0.013412 -0.002737 -0.041563 0.033408 -0.106804 -0.000691 -0.046344 -0.035782 -0.017468 -0.011324 -0.019243 -0.125527 -0.089832 -0.045027 0.049174 0.067065 0.094248 -0.044786 -0.114450 0.003411 -0.045525 -0.201162 0.018775 0.018827 -0.053094
0.124215 0.116006 0.102266 -0.015534 0.029127 0.051742 -0.049079 0.141367 0.020824 -0.134245 0.019721 0.082129 0.017246 0.065216 -0.016837 0.082638 -0.022694 0.050761 0.061467 0.035684 0.038616 0.160059 -0.012879 0.071234 -0.071789 -0.045770 0.054716 0.021544 -0.038924 0.051817 -0.086066 -0.013679 0.058137 0.051590 0.112418 -0.014993 0.051427 0.528451 -0.202090 -0.093553 -0.014272 -0.143506 -0.026211 0.517383 0.041049 0.072660 -0.001157 -0.056274 -0.086097 -0.009226 0.034756 0.264482 -0.321113 0.014883 0.014736 -0.115641 0.028029 0.056698 0.032224 -0.036187 0.081376 0.082624 0.004794 -0.025596 -0.096863 0.071148 -0.071602 0.072908 -0.003311 0.046852 0.398242 -0.039963 0.039951 0.137964 -0.054901 0.162447 0.050720 0.027606 0.111281 -0.005445 0.093878 0.016947 0.004169 0.000626 0.261279 -0.026060 -0.050914 0.020142 0.072123 -0.055777 -0.029116 0.024512 -0.194735 0.030407 -0.073673 -0.000035 -0.171213 0.072988 -0.056154 -0.245683 0.002599 0.255410 0.439134 -0.118389 0.105958 0.043582 -0.114566 -0.029830 0.050117 -0.093144 1.058854 -0.075107 0.140462 -0.289609 -0.077083 0.034519 0.083888 -0.150773 -0.006197 0.022110 -0.098476 -0.084823 -0.034062 -0.032906 -0.099143 -0.006605 -0.084284 0.073499
0.083335 -0.062837 0.024822 -1.333787 0.035113 -0.044468 0.010799 0.004216 -0.061564 0.005239 0.030505 -0.093348 -0.103296 0.224488 0.092121 0.011953 0.174358 -0.061150 0.042394 0.086439 -0.188390 0.061672 0.152963 0.045863 0.043689 -0.042390 -0.024720 -0.233870 0.062013 0.087796 -0.041695 0.027313 -0.086335 -2.591791 -0.022478 0.057692 0.015449 -0.192351 0.212116 0.077068 -0.041685 0.078552 -0.311832 0.071785 0.982173 3.173662 -0.453757 -0.003241 -0.155187 0.201502 -0.106134 0.129721 0.046584 1.605692 0.169088 0.035371 0.434264 -0.003888 0.068637 0.069730 0.130164 -0.049797 19.229891 0.014115 -0.090351 -0.039829 0.016974 -0.038412 0.170177 0.152350 0.022787 -0.096287 -0.134991 1.393227 -0.012213 -0.130034 -0.477021 -0.034928 -0.005895 -0.068546 0.025611 -0.081508 3.548295 -0.008941 0.003486 0.111563 0.194879 0.054615 0.042031 -0.010616 0.085762 0.042227 -0.169520 -0.073972 -2.017650 0.070067 0.013977 0.627720 0.028809 0.021809 0.089408 -0.063180 0.427398 0.049525 -0.650609 0.032328 0.058703 0.049413 0.088972 -0.078335 -0.521060 -2.136531 -0.022274 -0.002727 0.032687 -0.021633 -0.707929 0.034853 -0.181014 0.091442 -0.037658 0.764416 -0.110962 -0.321959 -0.062820 0.005831 1.489268 0.150244
0.009293 0.079017 -0.067367 -0.010020 0.040233 -0.047481 -0.062886 0.037293 -0.064920 -0.022919 -0.071721 -0.072992 0.024723 -0.031163 -0.050151 -0.024525 0.008152 0.056495 -0.008649 -0.010777 0.059467 -0.076022 -0.083988 0.007178 0.011879 0.035361 -0.059080 -0.077709 -0.019250 -0.026940 -0.017592 0.000332 0.053341 0.039320 -0.064866 -0.035802 0.100624 -0.007978 -0.105092 0.026189 0.075040 -0.073694 -0.130056 -0.041309 -0.067025 -0.090284 -0.054473 0.044956 -0.008344 -0.104876 0.057728 -0.041374 0.001193 0.064649 0.032056 -0.041231 0.069980 0.031156 0.001222 -0.064276 -0.104134 0.056271 -0.118955 -0.019231 -0.021267 -0.020452 0.082458 -0.045354 0.036284 0.017919 -0.076000 -0.041184 0.031731 -0.079838 -0.009834 0.045947 -0.264719 -0.032167 0.032594 -0.067266 0.025115 -0.015878 0.007507 0.052203 0.003583 0.004592 0.034697 0.092742 0.055447 0.049320 -0.027337 -0.103030 -0.079388 0.020667 -0.013858 0.094334 0.060904 -0.071495 0.054502 -0.053520 -0.088731 -0.075874 0.021565 -0.027626 -0.006541 0.032534 -0.075717 0.052070 -0.099384 0.041008 0.193092 0.022498 -0.019864 0.085065 -0.000990 0.002125 -0.057328 -0.021923 0.019324 -0.030258 -0.026224 -0.007323 0.086223 -0.064865 -0.058462 -0.108445 -0.320294 0.037716
0.063409 -0.039037 0.024383 -0.022741 -0.014889 -0.000225 0.074743 -0.062380 0.083866 -0.072212 -0.059533 -0.001635 -0.097267 0.079407 -0.029641 0.039479 0.035452 0.080542 -0.029843 -0.053046 -0.002416 0.010572 0.007479 0.095953 -0.007779 -0.051944 -0.058375 -0.004422 0.017569 -0.040316 0.041140 -0.012150 -0.187011 -0.057643 -0.016552 -0.056480 0.022499 -0.080385 0.098881 0.153342 -0.113352 -0.089157 0.052957 0.014798 -0.084575 -0.154332 0.005059 0.013336 0.065155 -0.056334 0.041686 -0.011605 -0.078388 0.001273 -0.051485 0.020249 0.084714 -0.082999 -0.015446 0.062412 0.053431 -0.035247 0.094361 -0.021339 0.063941 0.026123 0.061085 0.035781 0.020422 -0.035240 -0.082173 -0.028531 0.002745 -0.049217 -0.088447 0.069993 0.074572 0.080348 0.079973 -0.014897 -0.004425 -0.029181 -0.086326 -0.124433 -0.007051 -0.038847 -0.096789 0.022288 0.039680 -0.062050 0.017888 0.000803 0.064491 -0.064028 -0.068326 -0.020524 -0.053011 -0.023077 0.041504 0.089474 -0.034761 0.019657 0.045664 -0.055410 -0.114391 0.001213 0.084284 0.015241 0.029342 -0.062735 -0.212763 -0.056779 0.050512 0.045700 -0.055217 -0.018254 0.028335 0.010662 0.090716 0.088281 0.066847 0.023511 -0.091458 0.028717 0.065001 -0.036753 0.106477 -0.065030
0.017205 0.015456 0.088780 0.120496 -0.046758 -0.003132 -0.084773 0.055761 0.087439 0.070917 0.067746 0.011796 -0.016226 0.105661 0.071822 -0.029427 0.233844 0.052685 0.045517 -0.133448 -0.003311 -0.063242 0.007182 0.033230 0.046017 -0.082578 -0.071965 -0.066707 -0.009529 -0.354824 -0.014946 0.046205 -0.100831 0.054106 0.060445 -0.074927 -0.050307 -0.102919 -0.109507 0.003250 -0.088072 0.026230 -0.073591 -0.045891 -0.090335 0.002578 0.013428 0.027822 -0.293951 0.146551 -0.079755 -0.144348 0.011546 -0.361521 0.043072 -0.103484 0.105334 -0.025669 0.048621 -0.007066 0.119509 -0.070008 -0.051713 -0.027157 0.103366 0.000459 -0.015577 0.013637 0.069410 0.025244 -0.202431 -0.074878 0.091857 -0.041662 0.028537 0.004936 0.093746 0.065587 -0.086930 0.045308 0.069481 0.037495 -0.013127 0.059923 0.087839 0.064155 0.295975 -0.031926 0.150983 -0.070210 -0.170293 0.153144 0.230210 0.041572 -0.103606 0.054976 0.212735 -0.015466 -0.069548 0.108078 0.054466 -0.257010 -0.094023 0.066560 -0.041888 -0.091039 0.009002 0.025492 -0.019717 -0.028607 -0.043126 -0.007787 -0.093261 0.023359 0.030389 -0.008915 0.009191 0.043883 -0.022527 0.060433 -0.064031 -0.104598 -0.065988 -0.055125 -0.106353 -0.083360 0.056980 -0.055527
-0.087893 -0.067138 0.009807 0.007481 -0.094800 -0.079016 0.013918 -0.017668 0.016241 0.008141 -0.006114 0.458042 0.047352 0.009177 0.003796 -0.137348 0.064440 -0.016283 -0.099801 0.063009 1.506262 0.061852 0.090655 -0.033493 0.238685 -0.087862 0.004303 0.123522 0.076006 -0.237763 -0.082131 0.075836 0.211535 -0.101814 0.059549 -0.022110 -0.040135 -0.001460 -0.184988 0.088354 -0.023327 0.053819 -0.021958 0.095152 0.558656 0.021673 0.087760 0.116098 -0.014713 -0.026751 0.100222 0.040886 0.087841 2.046335 -0.013792 -0.079554 0.056199 -0.852514 -0.014752 -2.044832 -0.067558 0.028567 1.523376 0.135592 -0.968096 0.046480 0.078703 0.033834 0.087500 -0.018798 -0.034835 0.115124 -0.200868 0.135018 0.051183 0.227128 -0.032521 0.158489 -0.076648 -0.067165 0.002158 0.027282 0.009747 0.118098 -0.124279 -0.011425 0.103906 -0.014387 0.053096 -0.149261 0.100849 -0.001425 -0.065091 -0.034338 -0.368520 0.124088 0.025499 -0.027691 0.176992 0.198836 0.697140 -0.058641 -0.225407 0.042246 -0.015064 0.029035 1.020354 -0.301684 -0.126146 -0.125386 -0.107143 -0.937990 -0.082674 0.053567 0.053685 -0.005072 -0.023655 0.112072 -0.566291 -0.085330 -0.491586 -0.060075 0.089076 0.093384 0.539964 -0.014711 -0.410624 0.007354
0.100710 -0.103124 0.046097 0.063594 0.035053 -0.094934 -0.064085 0.079448 0.005298 -0.024873 0.103213 -0.018043 0.075110 0.026059 0.101426 0.032417 0.040617 0.036054 -0.057389 -0.019832 0.004734 -0.036365 0.019286 -0.076729 0.068459 -0.070176 -0.019865 -0.005890 0.078211 0.037966 0.057642 0.030547 0.013930 -0.028388 -0.007105 -0.035630 -0.005440 -0.000206 -0.032677 0.042490 -0.097858 -0.022262 -0.037518 0.148411 0.020510 -0.006127 -0.078173 0.058041 0.082216 0.113160 -0.057160 0.122021 -0.060155 -0.072736 -0.082987 -0.010483 -0.052294 -0.064729 -0.106532 -0.024801 0.034930 -0.026489 0.008786 -0.045474 0.038576 -0.034263 -0.005823 0.084056 0.037002 0.035246 0.036206 -0.057357 0.005266 0.013694 -0.121094 0.012870 0.063854 -0.013985 0.102269 0.060903 -0.016697 -0.086764 -0.056321 -0.011692 -0.003691 -0.053899 -0.004723 0.000420 -0.093120 0.024721 0.030486 0.082565 -0.077146 -0.057049 -0.079941 -0.031299 0.057716 -0.011963 -0.103997 0.000805 -0.040379 -0.065175 -0.066595 0.028181 0.084335 -0.021342 -0.009043 0.154725 -0.021081 0.006426 -0.090794 0.026738 0.005804 0.001429 -0.010230 0.040226 0.046522 -0.304599 -0.040689 -0.049784 -0.088196 -0.048929 -0.070908 0.063980 0.076898 0.017027 -0.119968 -0.031031
-0.092313 0.084886 -0.135360 0.020732 0.030423 -0.083842 -0.005282 -0.043426 -0.010199 -0.016651 0.036164 -0.043019 0.081347 0.047783 -0.039135 -0.062300 0.078174 -0.045763 -0.043681 0.115145 0.101658 -0.007703 -0.077907 0.051899 0.032302 0.058679 -0.086111 0.023580 0.172540 -0.041055 -0.001118 -0.066797 -0.070432 0.063634 0.091677 -0.084506 -0.072003 0.187779 0.175697 0.119508 -0.024801 0.064510 0.004312 0.010384 -0.077058 0.231713 -0.061741 -0.018698 -0.128298 -0.024714 0.071740 0.029552 0.068762 -0.028359 0.030780 0.064723 -0.097311 -0.054300 -0.041120 -0.022451 0.009949 0.037732 -0.240509 -0.068716 -0.055123 -0.223297 0.114696 0.006654 0.055798 -0.042222 0.088845 -0.096390 0.306892 0.043946 -0.063366 0.032759 -0.008547 0.010123 0.042671 -0.083593 -0.118601 -0.058020 0.068980 -0.022977 0.000260 0.099467 0.016777 -0.051437 -0.018178 0.016688 -0.037391 0.007696 -0.012405 -0.011584 -0.046394 -0.000725 0.039809 -0.046492 0.245361 0.022133 0.040218 -0.026280 -0.113687 -0.074862 0.002522 -0.052200 -0.000384 0.024685 -0.071609 -0.047182 0.111668 0.066468 -0.056238 0.023666 0.000330 0.046574 -0.058871 -0.109752 -0.290812 0.073498 -0.024360 0.082538 0.067056 -0.016284 0.060706 -0.829953 0.320639 0.003440
-0.034910 0.054495 0.011261 -0.017267 -0.008917 0.001772 0.003892 -0.081086 0.046980 -0.025523 -0.010065 -0.016063 -0.009952 0.038472 0.038008 0.031588 0.060953 0.042490 0.032314 0.011767 0.046778 0.046300 -0.100667 -0.096003 0.023738 -0.305066 0.032505 -0.213936 0.009753 0.124363 -0.071930 -0.026270 0.090546 -0.009521 0.007419 -0.070643 0.130698 -0.004444 -0.073143 -0.040933 0.113186 0.016327 -0.078392 -0.114564 0.012224 0.136062 -0.006651 -0.006507 -0.219356 0.020416 -0.065885 0.025615 0.057895 -0.055614 -0.062612 -0.056370 -0.106794 -0.087670 -0.062454 0.030636 -0.062138 0.031957 -0.076249 0.029615 -0.088413 -0.089315 0.076883 -0.101961 0.060382 0.093257 0.001046 -0.000180 -0.119746 -0.067450 0.039325 -0.098928 -0.019629 0.035128 -0.103511 -0.024303 -0.080515 0.023479 -0.049402 0.038320 -0.021162 0.207145 -0.074960 0.012586 -0.002491 -0.039284 0.094258 -0.029776 -0.053274 -0.073781 0.174330 -0.030383 -0.065754 0.116369 0.083658 -0.035669 -0.014383 0.078750 0.200113 -0.046268 0.069485 0.080453 -0.005929 0.050588 -0.027789 -0.041939 0.043946 -0.027371 0.140871 0.019386 0.007247 -0.334252 -0.000122 -0.050803 0.034520 -0.014360 -0.031298 -0.036259 0.087923 0.040716 -0.034958 0.114307 -0.100803 0.021359
-0.119894 0.027673 -0.021281 0.049393 -0.044090 0.046955 0.388862 0.061536 -0.030181 -0.118362 0.037853 0.131345 -0.000224 -0.051120 0.036528 -0.030455 -0.058668 -0.019339 0.078609 0.077426 -0.021433 0.068426 0.018854 0.181844 -0.045103 0.002721 0.172786 -0.099095 0.095748 0.006206 -0.019289 0.103775 0.072217 -0.293498 0.033383 -0.232255 0.011228 -0.006272 0.030210 -0.038995 0.242315 0.036461 0.125473 0.572462 -0.020374 -0.006512 0.091677 -0.037952 0.125796 -0.006236 -0.056095 0.001420 0.060506 -0.031798 0.399997 -0.075969 0.115607 0.055135 -0.027394 -0.131041 0.050075 -0.018328 0.073161 0.199917 0.188528 0.092476 -0.054204 -0.015147 -0.067566 0.188889 -0.193756 -0.179070 0.061175 0.421155 -0.048117 -0.035799 0.031782 0.016530 0.176368 -0.015663 0.007321 0.064444 -0.066155 -1.042324 -0.038714 0.020785 0.062514 0.072507 0.270493 -0.003038 -0.411560 0.007825 0.029657 -0.003831 0.024848 -0.068613 0.056567 -0.008007 -0.067062 1.261693 0.001295 -0.168500 0.010077 0.074757 0.111409 -0.075589 0.158753 0.033441 0.062674 -0.084305 -0.055495 -0.049497 -0.056160 0.084175 -0.002822 0.027128 0.030947 0.034742 0.024646 0.001732 -0.001593 -0.027180 -0.143279 0.016512 0.036511 0.052656 -0.118024 0.182772
-0.156622 -0.027725 -0.271460 0.076144 -0.106044 -0.014652 0.090917 -0.057444 -0.069270 0.054641 0.058926 -0.029707 -0.062375 0.018641 0.091632 0.018372 -0.006508 0.095215 -0.116648 -0.246792 -0.107373 0.029542 -0.031078 -0.051152 0.011165 0.074248 0.126273 -0.180307 0.046559 -0.143852 0.039473 0.300910 -0.071487 -0.701354 -0.080003 -0.052406 -0.054906 0.124420 0.029643 0.180738 0.026066 -0.023299 0.138060 0.213567 -0.073814 0.077840 -0.123552 0.002613 0.037096 0.186254 0.055896 -0.113350 0.086117 0.015615 0.505768 0.045026 0.027768 0.073085 -0.101176 0.057085 0.029044 0.010446 -0.061903 0.021310 -0.202833 0.004714 0.023172 -0.075522 0.017615 -0.069075 0.126536 -0.043643 0.044094 -0.038571 0.070423 -0.060137 -0.012608 0.010173 0.326721 -0.046268 0.075849 -0.016993 0.057213 -0.143035 -0.079178 0.365806 0.416579 0.051354 -0.007263 -0.044425 0.157349 -0.028275 0.061606 0.047987 0.923513 -0.067783 -0.045257 -0.099028 0.146480 0.129153 0.082235 -0.244053 -0.409689 0.020587 -0.040897 -0.084572 -0.029911 -0.055579 -0.071878 0.016336 0.028430 -0.050910 -0.897413 -0.105981 0.044513 0.048804 -0.103941 0.029984 -0.020489 0.016511 -0.381345 0.001054 0.036992 0.048926 -0.049895 -0.160854 0.087347 -0.089677
-0.198632 -0.028495 -0.109823 0.064767 -0.154180 0.018099 0.028918 -1.318684 -0.067382 -0.062495 -0.071214 -0.020327 0.082915 -0.142112 -0.098316 -0.098541 -0.015945 -0.094829 0.008375 0.032930 -0.095782 -0.082819 0.210238 -0.107195 0.041016 0.107122 -0.047758 0.009362 -0.011567 0.071512 -0.001197 -0.298074 0.051618 0.046022 0.055206 -0.026510 -0.057988 -0.167842 0.252573 0.066181 0.083340 -0.199173 0.066180 -0.058183 0.096547 0.039563 0.051229 -0.039914 0.047828 -0.060399 -0.177573 -0.130192 0.110303 0.177601 0.074957 0.093792 -0.090061 -0.002820 -0.174517 0.004660 -0.055440 -0.033262 -0.040631 -0.034151 0.014983 -0.052858 -0.029856 0.063416 0.069320 0.057381 -0.237124 0.053833 -0.033223 -0.103918 0.016468 -0.053686 -0.094567 -0.331044 -0.071711 -0.085775 -0.127388 -0.153114 -0.048308 0.029844 -0.174343 -0.029722 0.103127 0.060138 -0.105483 -0.044308 0.079485 -0.020372 0.058230 0.116269 0.229955 0.062613 -0.527467 -0.014533 0.020140 0.015440 -0.145951 0.657292 -0.203255 0.052835 -0.076748 -0.072006 -0.072088 0.047200 0.066621 -0.067565 -0.165826 -0.076491 -0.254605 0.073412 0.078547 0.039680 -0.047968 0.009702 -0.002612 0.069759 0.013800 0.005299 0.034654 0.222484 0.020412 0.215347 -0.834280 -0.100497
0.032763 -0.091326 0.051425 0.070381 0.034729 -0.053505 -0.017011 0.037260 0.171404 -0.056335 0.181871 0.130747 -0.078362 0.137350 0.106695 -0.003986 -0.164392 0.062732 -0.316396 -0.119270 -0.034985 -0.328664 0.098234 0.015233 0.104428 -0.084755 -0.198882 -0.288872 0.017676 -0.238464 -0.014385 0.119465 -0.103545 -0.080391 0.053177 0.002201 0.021157 0.022892 -0.064074 0.048543 -0.119816 0.015639 -0.000588 0.208237 -0.033547 0.097876 0.037082 0.055187 0.102121 0.235836 -0.036910 -0.168611 -0.000189 0.222708 0.018806 -0.036385 0.041976 -0.143869 0.184890 0.060270 -0.029755 -0.030660 0.016956 0.197617 -0.103596 0.079330 -0.079909 0.118708 -0.185263 -0.032484 0.288997 0.038031 0.039755 0.079168 -0.139544 0.036740 0.091697 -0.035692 0.057064 -0.008442 0.094416 0.069435 0.048558 -0.026034 0.104269 0.006113 0.114724 -0.092221 0.158504 0.422487 -0.222023 0.098265 -0.002084 -0.083033 0.012441 -0.034825 -0.005906 -0.005554 -0.020225 0.139488 0.048955 -0.158154 -0.038860 0.017363 0.000909 0.024939 0.066567 -0.080819 0.108521 0.048657 0.034879 0.008157 0.077686 0.149145 0.147656 -0.058804 -0.014502 0.138147 -0.112243 -0.010087 -0.011204 -0.002533 0.045914 -0.056422 0.422471 0.004817 0.094995 -0.062918
-0.022522 -0.028035 -0.094139 -0.206332 0.051857 -0.137270 -0.045883 -0.028385 -0.107427 -0.066132 -0.047414 0.050670 -0.005017 -0.084397 0.060328 -0.026310 0.034068 -0.143558 -0.064078 -0.048944 0.025212 -0.064346 -0.111241 -0.057451 0.076639 -0.009714 0.005485 0.075421 -0.053841 0.039076 0.040071 0.069266 -0.019308 -0.007257 0.021472 0.075940 0.136284 -0.052917 -0.186166 -0.007488 0.148339 -0.070311 -0.045312 -0.058827 0.020927 0.024878 -0.117187 0.026663 -0.093968 -0.001215 -0.003145 0.065595 -0.171506 0.094860 0.002733 -0.035840 -0.045791 -0.066460 0.074386 -0.075123 -0.030434 -0.028545 0.034815 0.111603 0.028429 -0.000819 0.106895 -0.123707 -0.024063 0.449645 -0.526851 0.010147 -0.206163 0.594508 0.041210 -0.062195 -0.116826 -0.032408 0.065015 0.200909 0.355403 0.023078 0.102934 0.044737 0.062723 0.036153 -0.060056 -0.023733 -0.027809 -0.076397 0.027487 0.176088 0.014957 -0.514816 0.036007 -0.008906 -0.002103 0.065117 0.030210 -0.006905 -0.061565 0.061041 0.039521 0.096369 0.089062 0.015820 -0.330977 0.078626 -0.030084 0.029784 0.023225 -0.059810 0.256529 0.027110 0.030714 -0.049541 0.071085 0.022597 0.061857 -0.121578 -0.023869 0.129449 0.040232 -0.021698 -0.319641 -0.081039 -0.166368 0.054568
-0.033890 -0.045264 0.002748 0.018988 -0.051196 -0.061791 -0.041372 0.027560 0.033045 -0.025080 -0.014319 0.057240 0.069220 0.027850 0.008969 -0.094923 -0.068829 0.012540 -0.035529 0.155826 0.091428 0.008819 -0.020909 -0.046276 -0.053318 0.149524 0.041147 -0.012353 -0.012233 -0.033841 -0.036707 -0.080774 -0.032802 0.073498 0.071240 0.009520 0.047533 -0.077505 -0.119350 -0.022976 0.077481 -0.036879 0.060225 0.088934 0.054233 -0.041743 -0.059513 0.039069 -0.060447 -0.063071 -0.071966 -0.069711 -0.077679 0.078718 0.023958 0.076593 0.010257 0.018418 0.025092 -0.039381 -0.021457 0.067118 -0.011089 0.006712 0.008290 0.018180 0.203857 -0.126378 0.080926 -0.030584 0.113032 0.042957 0.039462 0.003157 -0.051976 0.001709 -0.002230 -0.037860 0.069196 0.067626 0.054130 -0.049539 0.071372 -0.013798 0.048179 -0.060649 0.062314 0.099549 -0.044164 -0.155273 -0.030417 0.017198 0.019936 0.082389 0.040219 0.109770 0.052950 -0.020131 0.016660 -0.107417 -0.007749 -0.016825 -0.054479 0.001853 0.032301 0.039346 -0.244144 0.056728 -0.108929 0.088060 0.144243 -0.113736 0.057698 -0.055091 0.042598 0.201555 -0.090229 0.011888 -0.036726 0.003832 0.117771 0.018664 -0.020239 0.152527 -0.042156 -0.123895 0.007143 -0.013394
0.082676 0.005828 0.004443 -0.127790 0.004051 0.049376 0.099573 0.014176 -0.113079 0.014988 -0.044740 -0.040602 0.097698 -0.089722 -0.070607 -0.083500 0.087205 0.002608 -0.100352 -0.003328 -0.055011 0.017255 0.040657 -0.004848 0.007236 -0.231698 0.061755 0.093349 -0.017792 -0.229009 0.014712 0.028892 0.015108 0.047748 -0.050088 -0.030378 0.176422 -0.024339 0.036024 -0.039389 0.181798 0.025743 -0.117905 -0.074226 0.073833 -0.031786 0.052219 -0.019046 -0.067758 -0.007352 -0.005010 0.108831 0.043467 -0.029571 -0.054977 -0.008408 0.010159 0.050121 -0.057417 0.011912 0.040094 0.065676 0.061491 0.052456 -0.001042 -0.050827 -0.011512 -0.037270 0.034821 0.103352 0.071141 -0.014107 -0.049470 0.006058 0.107428 -0.064524 0.022501 -0.048762 -0.026338 0.046900 -0.062402 0.037135 -0.009327 0.088382 0.008976 -0.081740 -0.084065 -0.038099 -0.040157 0.023877 0.032202 -0.231599 -0.103157 0.022345 0.086854 -0.079681 0.030311 0.077964 0.008660 -0.110203 -0.080861 0.158991 0.126352 0.010537 0.022653 -0.022649 0.046428 -0.010420 0.021943 -0.080819 -0.055878 -0.043345 0.123764 0.012584 0.003029 -0.352164 0.057130 -0.089591 -0.036646 -0.012879 0.039541 0.087019 0.073407 -0.064749 -0.030600 -0.079769 -0.082548 -0.064283
-0.110946 0.049648 -0.067131 -0.068779 0.102258 -0.019844 -0.061717 -0.051894 -0.315641 -0.053080 0.012465 -0.048933 0.295310 0.012462 0.004834 -0.024183 0.074955 -0.011259 -0.104192 0.109309 -0.031597 1.043000 0.044839 -0.293329 0.098167 0.048276 0.045158 0.122946 0.150513 -0.063303 0.090416 -0.218588 0.064447 -0.244789 0.031460 -0.038361 0.522624 0.061913 -0.302036 -0.199056 -0.008492 -0.094839 -0.037591 0.133391 0.035314 0.032566 -0.036442 0.112013 -0.057150 -0.174682 0.090278 0.060449 -0.078910 -0.023645 -0.509573 0.026573 -0.094796 0.151575 0.002242 -0.201004 -0.079084 -0.062381 0.027937 0.005036 -0.032519 -0.002275 0.030149 -0.046216 0.001314 0.063687 -0.015369 0.168994 -0.062474 -0.767057 -0.075360 -0.072988 0.011029 0.004926 -0.776582 0.125976 -0.211604 0.174582 0.041939 -0.075767 0.101703 0.046563 -0.099305 -0.076772 -0.005499 0.000672 -0.047063 -0.586430 -0.017164 -0.053222 0.117544 -0.066086 -0.132438 0.056915 -0.068783 0.027607 0.005715 0.141397 1.071227 0.023253 0.171285 0.155378 -0.263525 0.084731 -0.028610 -0.047566 0.287196 0.141169 0.088129 -0.011154 0.064633 0.003949 -0.031860 -0.044231 0.057075 -2.604394 0.324433 0.065140 0.047763 -0.037876 0.016644 0.208783 -0.545582 -0.055893
-0.067560 0.128684 -0.269172 -0.120684 0.028193 0.001290 -0.043504 -0.004485 -0.099737 -0.026150 -0.013933 0.032853 0.117678 -0.256018 -0.071036 0.022243 0.085720 -0.022212 -0.015287 0.191462 -0.410426 -0.035586 0.087418 -0.016769 0.322598 0.035421 0.125357 0.080961 -0.061102 0.231246 -0.032890 0.047125 0.019475 -0.025164 -0.101025 -0.103358 0.143830 -0.029269 0.006615 0.048631 0.021345 0.067921 0.023629 -0.057504 0.057273 0.045332 0.023796 0.656765 -0.014365 -0.144173 -0.037601 0.156432 0.070341 0.265953 0.047219 0.146912 -0.052985 -0.029608 0.125277 -0.046817 0.041671 0.200513 0.094009 0.036025 -0.141817 -0.037024 0.702327 0.138420 0.047494 -0.043164 -0.225634 0.057150 0.073329 0.491370 0.109416 0.035255 -0.074053 0.031690 0.049546 -0.141955 -0.094793 -0.034226 0.004224 0.015542 -0.052885 0.015704 0.384019 -0.068085 -0.207522 -0.070635 0.118522 -0.157065 -0.070371 0.072736 0.077325 0.074175 0.101065 0.022449 0.012474 -0.119496 -0.074430 0.220255 0.234614 -0.002804 -0.046423 0.051375 0.051522 -0.047054 0.038106 -0.027475 -0.042590 0.041532 0.084891 0.420987 0.059476 0.111782 -0.545835 -0.095432 -0.096484 -0.083123 -0.036445 0.148341 -0.037184 0.087715 0.120746 0.030944 -0.078673 0.085879
0.007889 0.031375 0.019116 0.007279 0.444999 0.224977 -0.033611 0.322457 0.084394 0.060495 -0.053408 0.030866 0.036545 0.088693 0.123766 0.114573 0.003827 -0.051425 0.069381 -0.126349 0.030542 -0.023853 0.005484 -0.013946 0.044960 0.123221 -0.081116 -0.068038 0.084092 -0.057239 -0.058401 0.162588 -0.066859 0.089516 0.393521 -0.066418 -0.092543 0.005096 0.002724 -0.034035 -0.148654 -0.119422 0.066503 0.006351 -0.057331 -0.087665 1.109719 -0.015751 -0.002014 0.036891 -0.084646 0.016596 -0.046125 -0.088929 -0.119607 -0.049419 0.048477 -0.027516 -0.128212 0.027219 0.037878 0.047290 -0.020304 -0.033796 0.052423 -0.044238 -0.057764 -0.024484 -0.010789 -0.318340 -0.034588 0.019410 -0.012826 0.024450 -0.107197 0.092590 0.025681 0.053269 -0.015346 0.310705 0.003393 0.034774 0.015366 -0.039386 0.038493 -0.571433 -0.159251 -0.022803 -0.015981 -0.025036 -0.140661 0.077540 0.011750 -0.125644 -0.228867 0.260109 -0.105229 0.104877 0.038557 0.037219 -0.067174 0.616845 -0.193412 0.042848 0.026767 0.030645 0.209444 -0.115705 0.061750 -0.025166 0.151813 0.007213 0.030958 -0.113942 0.003707 -0.006400 0.196557 0.056233 -0.122705 0.031051 0.004931 0.022977 -0.099625 -0.309133 -0.130039 -0.079445 0.053484 -0.071319
0.072509 -0.015606 0.079009 -0.029400 0.114875 0.096190 0.027057 -0.001847 0.051852 0.125584 0.138636 -0.002738 -0.056135 0.150865 -0.097883 0.076937 -0.147218 0.063877 -0.026315 -0.088283 -0.058151 0.089586 0.126811 0.033903 -0.069947 -0.079574 -0.008165 -0.004658 -0.083316 -0.256894 0.055003 0.194808 -0.047892 -0.002396 -0.077346 0.012610 -0.121146 -0.008930 -0.049706 0.000905 -0.151563 -0.085737 0.012691 0.349952 -0.063827 -0.148370 0.137350 -0.104622 0.111160 0.041509 -0.031494 -0.073429 -0.040181 -0.344623 0.018102 -0.040755 0.014683 0.036193 0.011730 -0.019298 0.071047 -0.119906 -0.066090 -0.043774 0.059121 0.021800 0.025963 0.096154 0.040572 -0.051842 0.078705 -0.013496 0.084034 0.133694 -0.016843 -0.008388 0.048350 0.014019 0.035379 0.017555 -0.042457 0.040659 -0.064905 0.032757 0.028870 0.044799 -0.064399 -0.054864 0.041614 0.063638 -0.092811 0.151784 0.059654 -0.074930 0.047887 -0.020008 0.015007 -0.064070 -0.185978 0.134978 0.042463 -0.098369 -0.183325 -0.002524 0.075537 -0.041017 0.077533 -0.088913 -0.000815 -0.045794 -0.067421 -0.003096 -0.003132 -0.149562 0.002567 0.029271 0.100939 0.062150 0.035862 -0.005332 -0.128082 -0.002851 -0.063104 -0.060295 -0.223543 0.047088 0.065742 0.050645
0.063664 -0.042919 -0.023185 -0.120141 -0.067020 -0.053624 0.098837 0.322067 0.109909 -0.115391 -0.065096 0.011884 0.033622 -0.073511 -0.232309 -0.091864 0.144710 0.000668 -0.316719 0.036844 0.070465 0.068692 -0.014244 -0.074129 0.075532 -0.452641 0.123892 0.089580 -0.035338 0.210545 0.014334 -0.083860 0.132239 0.267215 0.015520 -0.032440 0.569373 0.043219 0.944665 -0.269016 0.267745 0.016511 -0.037463 -0.057149 0.109507 0.110547 -0.334204 0.090298 -0.103278 -0.033204 0.044943 0.029616 0.063129 0.041120 -0.025414 0.113863 -0.119949 -0.017873 0.066190 0.012965 -0.067883 -0.014496 -0.029872 -0.011429 -0.198795 -0.119545 0.031991 -0.055468 0.086172 0.039973 0.039992 0.181981 -0.054595 -0.237821 -0.038913 0.023754 -0.153035 0.049499 -0.047655 -0.127216 0.159357 0.070492 0.083379 -0.043241 0.177258 0.013770 -0.033847 -0.060056 -0.040936 0.003366 -0.118244 -0.037781 -0.123648 0.036654 -0.275696 0.089315 -0.075295 -0.028985 0.053238 -1.138688 -0.087128 0.391711 1.155659 0.010999 -0.050870 0.078036 0.059466 0.010125 0.012380 -0.078868 0.063117 0.021682 0.087875 0.030095 -0.020502 -0.264778 -0.126466 -0.120171 -0.076396 -0.060416 0.073660 0.038292 0.105548 0.113876 0.079826 -0.029159 -0.050509 0.064205
-0.093544 0.007957 -0.147541 -0.036642 0.061586 -0.074783 0.091116 0.001029 0.024410 -0.138303 0.025488 -0.004420 0.049501 -0.062443 -0.103491 -0.075065 0.171851 -0.048771 -0.053057 -0.016162 -0.378712 0.411694 -0.024099 -0.015880 0.128313 0.035229 0.168544 -0.642561 0.078963 -0.003268 -0.556310 -0.188375 0.067664 -0.935500 0.048457 0.034522 -0.013858 -0.204287 -0.454642 -0.052020 0.090150 -0.077868 0.048903 0.012740 -0.136088 0.796116 0.007512 -0.058130 0.015183 0.156418 -0.322565 0.080556 -0.128570 0.743714 -0.157846 0.020872 -0.067560 -0.069544 -0.029288 0.089432 -0.080962 0.084801 0.653766 0.023823 0.054234 -0.072543 -0.079736 -0.128751 -0.098270 -0.182498 0.013648 -0.329151 -0.297904 1.578256 -0.076149 0.019673 0.001930 0.002712 0.436478 0.077663 0.041918 0.062189 -0.052305 -0.039562 0.270714 -0.014284 -0.161570 0.055911 -0.084224 -0.745643 0.066232 0.098798 0.082330 -0.033107 0.081274 0.102311 -0.103829 0.042379 -0.028963 0.046269 1.797151 0.421266 -1.813061 0.030681 0.031258 -0.024605 0.269020 0.046409 -0.074661 -0.066462 0.200986 0.002005 0.108945 0.035101 0.035057 -0.080022 -0.111056 -0.290499 -0.253492 0.033020 0.145121 0.420859 -0.004109 -0.185793 -0.069760 -0.316563 -0.042923 0.100612
0.099396 -0.014063 -0.036482 0.025649 0.024100 0.109398 0.100165 0.074789 0.030626 -0.080676 0.077668 -0.049415 0.007736 -0.062089 0.016141 0.092639 -0.074969 -0.057198 -0.043187 0.069078 -0.037231 -0.083936 0.061568 0.065917 0.027106 0.198327 -0.054166 -0.184068 -0.051703 0.106420 -0.063003 0.159060 -0.051903 0.012767 -0.046692 0.061115 -0.049583 0.042318 0.016013 0.099806 -0.061553 -0.042710 -0.000094 0.012870 -0.032853 -0.072120 0.057779 -0.094253 0.021310 -0.050714 0.006662 0.003641 -0.024416 -0.039284 0.105176 0.045522 0.094051 -0.038305 -0.058336 -0.005699 -0.013896 0.035098 -0.031500 -0.076371 0.095490 0.099178 -0.075327 0.104733 -0.070278 -0.032032 -0.235568 0.018444 0.011411 0.064515 -0.040794 0.064185 0.100606 -0.026365 0.078557 0.086537 0.033595 -0.073860 -0.111391 -0.000874 -0.018752 0.016538 -0.000481 0.038740 0.081636 0.113658 -0.027155 0.085301 0.237943 -0.101961 -0.052439 0.054183 0.000391 -0.189155 0.040341 0.109195 -0.059921 0.264007 0.022471 -0.000064 -0.028754 -0.098830 0.010191 0.023863 -0.014226 0.035144 -0.044972 -0.102379 -0.093511 -0.072014 0.020670 0.042216 0.057943 0.002183 -0.019462 -0.072472 0.047111 0.047344 -0.052834 -0.054822 0.007059 -0.062179 -0.062630 0.033021
0.044659 0.111299 -0.100792 -0.114121 -0.080311 -0.004752 0.074540 -0.049916 0.047592 0.045368 -0.024881 -0.000819 -0.034587 -0.054997 -0.030633 0.004279 0.044684 -0.040413 0.013922 0.070268 0.079354 0.061908 -0.022876 0.031742 -0.005977 0.178350 -0.030088 0.038687 -0.063700 0.077079 -0.005471 -0.080147 -0.032943 0.019034 -0.010140 -0.054115 0.023923 0.148829 -0.060858 0.010345 0.134812 0.106487 -0.120632 -0.142323 -0.010239 0.105299 0.036158 0.029352 -0.113852 -0.106927 0.010454 0.024844 0.099830 0.058942 0.018647 0.103206 -0.127677 -0.041504 0.091512 0.052326 0.002527 0.100807 -0.050249 -0.013473 0.017194 -0.016627 -0.016024 0.013166 -0.013930 -0.003751 -0.135255 0.094197 0.061501 -0.103246 0.092246 -0.088176 0.004873 -0.089816 -0.050048 -0.011596 0.034247 0.044822 -0.059918 0.049778 -0.035026 -0.066469 -0.073695 0.007186 -0.100286 -0.088058 0.142746 -0.020100 -0.157783 0.081557 -0.068421 -0.045606 0.091179 0.021280 0.012487 -0.009380 -0.035590 0.093461 0.036841 0.068206 0.013551 -0.054624 -0.037240 -0.052693 -0.015865 0.092799 0.008332 0.018305 0.134214 0.096625 0.110706 -0.023802 -0.079295 0.003326 0.009386 -0.092746 -0.035921 0.024468 0.076576 -0.032526 0.138885 -0.063128 -0.077815 0.030337
-0.002491 -0.056065 0.089195 0.143867 -0.023608 0.110032 0.052432 0.021061 0.125969 -0.003782 0.116923 -0.028944 0.047275 0.114599 0.089894 -0.011664 0.000722 0.111398 -0.030366 -0.090321 0.030666 0.250615 -0.019047 0.108558 0.008953 0.003693 -0.063197 -0.035535 0.088693 -0.531855 -0.064821 0.083462 -0.083908 0.030378 -0.070413 -0.001420 0.014098 0.041668 -0.093790 0.049023 -0.061688 -0.131618 -0.091679 0.035959 -0.083061 -0.109382 -0.017276 -0.015166 0.080490 -0.038548 0.058283 -0.108673 0.024988 -0.285578 0.006415 -0.108275 -0.033721 -0.009857 -0.044589 0.008875 0.105831 -0.117043 0.034199 -0.086664 -0.005965 0.085397 -0.092906 0.047262 0.023318 -0.102024 0.122202 -0.005149 0.095630 0.006459 -0.004858 -0.009954 0.146930 -0.025728 0.001928 0.106079 0.098353 -0.024222 0.006348 -0.047006 -0.002088 0.079544 0.028221 0.048065 0.113289 0.085063 -0.035766 0.100113 0.221057 -0.016218 -0.073804 0.050978 -0.018961 0.005161 -0.110210 0.093606 -0.073793 0.073578 0.137212 0.052195 0.151944 0.023502 -0.004527 -0.072006 0.045011 -0.051792 0.051246 0.032011 0.234444 -0.122418 -0.045345 -0.002730 0.100685 0.083478 0.020272 0.050286 -0.132340 -0.146320 0.036366 -0.060896 -0.454805 0.082987 0.034991 -0.099337
-0.353129 0.105697 -0.099179 -0.129212 -0.200492 -0.015059 0.098680 -0.062400 -0.063684 -0.001638 -0.039456 -0.043586 0.065255 -0.727137 -0.303794 -0.085833 0.065106 -0.007719 0.057570 -0.109263 -0.103855 0.080836 -0.317554 -0.025705 0.074730 0.056919 0.187580 0.011004 -0.076888 0.523506 -0.017437 0.049352 0.050898 -0.033338 -0.192038 0.053976 -0.047635 -0.389939 0.070978 -0.046978 -0.068786 3.556787 -0.099653 -0.364999 0.097949 0.397755 -0.092580 0.153019 -0.059890 0.194433 -0.013066 0.187943 -0.011345 1.256599 -0.003374 0.618187 -0.284595 -0.072787 0.077298 0.341507 -0.094403 0.114607 0.106491 -0.004579 -0.098039 -3.431633 0.137423 -0.119447 -0.003632 -0.030532 -0.053942 0.068465 -0.123294 -0.020617 0.686616 -0.032667 -0.061252 -0.034667 0.349257 -0.095853 -0.073183 -0.036953 1.170695 -0.034018 -1.083705 0.091639 0.410718 0.135182 0.014470 -0.035954 0.509350 0.101370 -0.102080 0.072728 -0.057725 0.120731 0.752725 0.090920 -0.033241 0.008292 -0.117525 -0.099336 -0.354979 -0.080332 -0.096155 -0.036405 0.346278 0.124943 -0.112095 -0.024562 0.026898 -0.251505 -0.037565 -0.028648 0.011852 -0.019812 -0.049503 -0.158627 -0.070005 0.264557 -0.041782 0.126128 0.085814 0.168008 0.169440 -0.159516 0.030020 0.093125
-0.103482 0.052684 -0.075052 -0.102265 -0.061823 -0.108894 -0.031009 -0.022341 0.037563 -0.042872 -0.040303 -0.014302 0.028281 -0.509164 -0.144499 -0.027554 0.005280 -0.109999 0.013446 0.085189 0.006866 -0.002706 0.032166 0.027725 -0.001380 0.083529 0.077756 0.071302 -0.008366 0.327576 0.048758 0.009742 0.326761 -0.034585 0.000208 -0.005151 0.096435 -0.266073 -0.066301 0.057382 -0.019832 0.261175 -0.005207 -0.485647 -0.014642 -0.016172 0.194516 0.055879 -0.096628 0.006919 -0.043159 0.015118 0.061296 0.174514 -0.018060 0.148150 0.035583 0.059430 0.012440 -0.054412 -0.011455 -0.024300 -0.000072 -0.019359 -0.041316 0.021460 0.129179 -0.044117 0.091718 0.086704 -0.169832 0.036867 -0.102976 0.158412 -0.055058 -0.068840 -0.159102 0.051028 -0.106442 -0.007293 -0.004907 -0.069288 0.127823 -0.014410 -0.136050 -0.079397 0.020278 0.078861 -0.112652 0.047384 0.051114 -0.101456 -0.124296 0.038588 0.096308 -0.058448 0.066001 0.065294 0.016910 -0.101990 -0.003454 0.202730 0.105014 -0.054462 0.015225 -0.069412 0.005427 0.078724 -0.027192 0.088354 0.040459 -0.060882 0.061553 0.016283 0.080350 0.057323 -0.144442 0.029241 -0.002609 -0.056197 0.025461 0.153281 0.127831 0.055303 0.084625 0.041511 -0.055846 -0.054251
0.105619 0.046930 -0.029956 -0.111266 -0.019498 -0.057885 -0.017865 -0.007856 0.003325 0.094932 -0.097601 -0.011986 0.005322 -0.147796 -0.162837 0.013792 -0.041644 -0.101733 0.003268 -0.001270 -0.119685 0.270967 -0.024848 -0.113317 0.017859 0.062094 -0.088597 0.202092 -0.014156 0.171249 -0.139988 -0.080315 0.095658 0.438437 -0.070896 -0.077251 0.437767 -0.175354 -0.694562 0.093340 0.147458 -0.154069 0.669842 -0.137179 0.016321 -0.121123 -0.980073 -0.030023 0.021354 0.044051 -0.004479 -0.013370 0.050953 -0.638106 0.058010 0.093516 -2.844197 -0.152922 0.171268 -0.031801 -0.071491 0.026576 -1.608291 0.039249 0.310217 -0.001592 0.160708 0.326428 0.003697 0.171495 -0.359780 0.104613 0.056537 -0.107857 -0.148210 -0.122151 0.331027 -0.193816 -0.481954 0.023260 -0.109198 -0.113010 -0.014302 -0.022438 -0.070305 0.195449 0.077345 0.087943 -0.062188 -0.095634 0.063108 0.028730 -0.004101 0.163880 -0.034967 0.013691 0.151016 -0.043978 0.094297 0.026711 -0.253955 0.003398 -0.165327 -0.004915 0.009802 0.030926 -0.067947 0.049581 -0.080088 0.046402 -0.330460 0.592581 0.018490 0.063099 0.013675 0.043526 0.059107 -0.038412 0.164922 0.049653 1.496366 -0.007654 0.057016 -0.074502 0.058713 0.070811 -0.048290 -0.401266
-0.048557 0.086620 -0.118277 -0.066478 -0.035257 -0.176420 0.011629 -0.002229 -0.016382 0.021058 0.029650 0.017687 0.373640 -0.002467 0.020848 0.041147 0.369397 -0.001758 -0.025920 0.196530 -0.087080 0.171595 -0.129787 0.042497 0.256651 0.102291 0.031162 0.161257 0.050236 -0.271031 -0.073276 0.298238 0.050294 -0.009761 0.067478 -0.115350 0.102158 -0.833452 -0.406354 -0.035012 0.040899 0.165757 -0.085367 -0.426353 -0.187740 -0.041653 0.005697 0.081051 -0.148945 -1.347331 0.293265 -0.053895 -0.003691 0.127588 -0.105794 0.028963 -0.042059 -0.047883 0.696572 0.005898 -0.020806 -0.048313 0.077550 0.088989 -0.119696 0.351269 -0.802343 0.054264 0.017101 -0.014158 -0.304058 -0.090687 -0.035911 -0.362816 0.093144 -0.014518 0.039488 0.145409 -1.592125 -0.311797 0.396809 0.148708 -0.005284 0.023667 -0.072878 0.035582 -1.118232 -0.022665 0.221597 -0.145549 -0.008178 -0.166500 -0.042360 0.050967 -0.000754 -0.096996 0.101360 -0.022327 -0.003520 -0.043950 0.010260 -0.134223 0.219700 -0.013372 0.618337 -0.026990 -0.395789 -0.082543 -0.073905 0.044847 0.027170 -0.003053 -0.048287 0.124519 0.044719 -0.069748 0.116957 -0.108848 0.107106 -0.282908 0.070115 -0.054974 0.003913 -0.037432 0.146671 0.322838 -0.038969 0.126454
0.072140 0.041134 -0.022753 0.006139 -0.034575 0.063779 0.055037 -0.072507 0.070737 -0.029115 0.035833 0.029540 -0.015581 -0.045817 0.068189 0.001315 0.052137 0.018417 0.056153 0.070847 0.070110 -0.116195 0.112307 -0.063392 0.028460 -0.135459 -0.053083 0.091651 0.013931 -0.101663 0.030359 0.042084 0.017462 0.193714 0.098628 -0.035774 0.012542 0.029066 0.086658 -0.031570 0.039970 0.053969 -0.018083 0.084852 0.044155 -0.076177 0.087309 0.047709 -0.042855 0.053528 -0.044423 0.055348 -0.003712 -0.033672 -0.024498 -0.101675 0.031592 0.009151 0.045458 -0.083956 0.066296 -0.040875 -0.022173 0.020182 0.007414 0.101440 0.028311 0.061057 0.027660 -0.013940 0.060125 -0.104005 0.151898 0.061177 0.054739 -0.027935 -0.032090 -0.028174 0.073836 -0.040295 -0.048951 0.065898 -0.042420 0.066198 0.038727 -0.021753 0.029333 -0.073054 -0.001509 -0.020196 0.027824 -0.092210 -0.015125 -0.026664 0.022189 -0.009298 -0.109299 0.000982 -0.048508 0.023334 0.091874 -0.299263 -0.032410 0.038317 0.013617 -0.023483 0.077111 -0.034588 0.005351 -0.092669 -0.022299 -0.035414 -0.074365 0.000204 -0.059328 -0.137602 0.104610 0.253889 -0.094760 0.088609 0.005702 -0.055230 -0.074905 -0.002138 0.003468 0.017681 0.037948 -0.077900
0.031671 0.041227 0.017467 -0.030408 -0.071635 0.027129 -0.033740 -0.014062 -0.027340 -0.187521 0.005034 -0.004400 0.204847 -0.125838 0.001474 -0.168001 -0.058690 0.014339 -0.016190 0.135914 0.037456 0.005951 0.098276 -0.076436 0.059583 0.075686 -0.062605 -0.061840 0.100654 0.050206 -0.046760 -0.483346 -0.037898 0.495509 0.058527 -0.084518 0.139344 0.124516 -0.081371 0.010936 0.152463 -0.030985 -0.025872 0.131348 0.008751 -0.087880 -0.058744 0.037483 -0.143378 0.070822 -0.061118 0.081183 0.036330 -0.004335 0.049472 -0.070665 -0.558531 0.123928 0.111843 0.105319 0.090869 0.174528 -0.081080 0.035322 0.071820 0.076865 0.066347 0.084971 0.058807 0.238787 -0.040592 0.050280 0.112407 -0.075589 -0.024465 -0.069397 -0.010018 -0.103745 0.014776 0.062919 -0.301509 0.003622 -0.113264 0.144186 0.045464 -0.097148 -0.104594 0.094573 0.006792 0.020357 -0.042690 0.055767 -0.128049 0.070736 0.055727 0.008591 -0.122903 -0.089305 0.018665 0.059082 -0.080139 0.115557 0.130315 -0.019996 0.002493 0.247826 -1.214682 -0.036342 0.139080 0.082991 0.060950 0.053931 0.017780 0.063522 -0.035203 -0.026213 -0.051277 -0.003332 0.005537 0.304129 0.425528 0.016010 -0.013726 0.067194 -0.244332 0.231376 -0.072438 0.170979
0.000623 0.035773 -0.055465 -0.002737 0.019483 0.024112 0.038702 -0.073969 0.045750 -0.011196 0.012777 0.060914 -0.045379 0.077606 -0.088858 -0.039568 -0.043107 0.020548 -0.051425 0.016934 0.031563 0.041156 -0.091807 0.062002 0.046404 -0.039184 0.029313 0.060376 0.051627 -0.015487 0.020467 -0.085649 0.027106 -0.040222 -0.042688 -0.005381 -0.006135 -0.045808 -0.005462 -0.004274 0.015522 0.032891 -0.061641 -0.071674 0.088839 -0.032272 0.002004 0.007872 -0.050313 -0.054609 -0.015885 0.036298 -0.056228 0.027504 0.016158 -0.049094 0.034184 -0.013770 0.052960 -0.055677 -0.001126 0.058127 -0.090283 -0.023658 0.076392 0.030651 0.008233 -0.042564 0.015739 0.030531 0.034697 -0.001379 0.098466 -0.074225 -0.014566 0.020401 -0.079855 0.016433 0.005445 -0.084293 0.023312 0.049441 0.063238 0.065171 0.093534 0.052927 -0.023144 0.109940 -0.053647 0.044282 -0.029647 -0.048224 -0.099375 0.084527 0.087904 0.016575 -0.073493 0.016547 0.084270 0.006901 -0.033839 -0.005661 0.029750 0.090321 0.004744 -0.091106 -0.069303 -0.183728 -0.118733 -0.009051 -0.019806 0.073257 0.075837 0.015010 -0.058058 0.079137 0.182829 -0.219534 0.031337 -0.046648 -0.060984 0.100177 0.025510 -0.062629 -0.020918 -0.194954 -0.014535 -0.026176
0.015040 -0.039743 0.011162 0.050405 0.073236 -0.027233 0.070297 -0.080034 -0.011090 -0.089002 -0.111399 -0.052174 -0.051376 0.105633 0.020677 -0.094041 0.053914 -0.096175 -0.073813 0.042399 -0.051087 0.084864 0.007113 -0.101461 0.027689 -0.052504 0.132289 0.049747 0.056013 -0.117388 -0.085749 -0.060984 -0.037945 0.062978 -0.068758 0.024167 0.114240 -0.108427 -0.034062 0.054221 0.079866 0.047242 -0.087004 0.005138 0.015021 0.072630 -0.037614 -0.051755 -0.045890 0.026112 0.087294 0.033549 -0.022656 -0.060776 0.059581 0.035016 -0.055575 -0.037709 0.100677 -0.018560 0.063577 -0.003805 0.069110 0.089916 -0.124163 -0.004197 -0.034087 -0.103228 -0.074142 0.039851 -0.148691 -0.035286 -0.071657 -0.193999 -0.006087 -0.096439 -0.104491 0.061126 -0.027199 -0.016888 -0.090444 -0.107058 0.100761 0.082431 -0.104386 -0.015281 0.332791 -0.064782 -0.109723 0.055402 0.126189 -0.078823 0.260741 0.060064 0.048154 0.027032 -0.063338 -0.049961 0.067513 -0.009451 -0.016717 0.155770 0.086131 0.094486 0.006419 -0.037769 -0.056136 0.090510 -0.036746 -0.014624 0.010734 0.099499 0.115506 0.056596 0.058348 0.018158 0.008117 -0.032750 0.123900 -0.090430 0.086676 0.081848 0.056459 -0.054929 -0.013532 -0.022846 -0.031103 0.091696
0.010066 0.031156 -0.009312 -0.088168 -0.065166 0.009130 -0.054091 0.037110 -0.014497 -0.024842 -0.087175 0.064146 -0.003348 -0.070325 0.036354 0.015221 0.094506 -0.035075 -0.146918 -0.051745 -0.068642 0.061294 -0.061657 0.183432 0.052247 -0.032431 0.072443 0.095656 0.078851 -0.062769 0.010204 0.043222 -0.063150 0.249224 0.068506 0.064358 -0.019929 -0.072561 0.031570 0.038945 -0.003823 0.054428 0.043307 -0.019155 0.006003 -0.059034 -0.112805 -0.028515 -0.139178 -0.110919 0.056335 0.057137 0.035924 0.105582 -0.072354 -0.008785 -0.111776 0.047669 0.054527 0.068133 0.028703 -0.043775 0.090358 0.056557 0.021617 -0.070828 -0.082885 0.050893 0.045509 0.086317 -0.087101 -0.035062 0.025343 -0.094325 0.089315 0.014633 0.043392 -0.050752 0.052482 0.026516 -0.002022 0.005016 0.059500 0.144780 -0.044170 -0.036759 -0.027002 0.057641 -0.104940 -0.116119 0.120672 -0.062868 0.000348 -0.038912 0.033145 -0.019764 -0.044936 0.036198 -0.013620 0.038283 0.025750 0.036099 -0.004064 0.048437 -0.027075 0.011695 -0.040766 0.071917 -0.036962 0.090185 0.000576 -0.063739 0.010406 0.030509 0.009067 -0.078725 0.019582 -0.058859 0.009714 0.002869 0.003452 -0.020420 0.113723 0.019818 0.161002 0.047855 -0.030040 0.113388
0.026071 -0.020842 0.003329 -0.123796 0.042198 -0.062545 -0.027400 -0.081147 -0.014067 0.062555 -0.070948 -0.059148 0.022293 -0.085929 0.047347 0.001568 -0.006202 -0.007576 -0.058639 -0.013061 0.066424 0.058270 -0.054402 0.028899 -0.062139 -0.268468 -0.025037 0.088226 -0.044062 0.055830 0.102402 -0.077778 0.017155 0.269905 0.077985 -0.026779 0.088083 -0.158243 -0.104377 -0.042262 0.091041 -0.076382 -0.032972 -0.104381 0.028805 0.074387 -0.014450 0.064673 -0.020245 -0.055810 0.109385 0.107872 -0.061166 0.108603 -0.049242 0.007355 0.030187 0.036419 0.091680 -0.047894 0.024923 0.066812 0.045741 -0.070109 -0.073923 0.008047 0.019107 0.038711 0.030741 0.070176 -0.060580 -0.043806 -0.092171 -0.112470 0.061676 -0.084663 0.054855 -0.022648 -0.110114 -0.125590 -0.022102 0.069339 -0.065940 0.025771 -0.013273 -0.094792 -0.050946 0.030151 -0.066593 -0.131385 0.156970 -0.112987 -0.082840 0.097809 0.024412 0.065619 -0.009571 0.136228 0.009121 -0.074800 0.043802 0.317341 0.333790 0.086448 0.044798 0.093515 -0.067472 -0.018646 -0.057541 0.014516 0.018771 0.042454 0.084773 0.122340 -0.046611 -0.375722 0.020822 -0.088475 -0.001295 -0.053803 0.001786 0.004678 0.053072 0.007003 0.141388 0.033867 -0.030364 0.029689
0.112435 -0.085735 0.123456 -0.050499 0.039448 -0.062342 -0.060673 0.075317 -0.010825 0.030136 -0.018319 0.022135 -0.007470 -0.010871 0.101141 0.067860 0.058337 -0.031697 0.059643 -0.023671 -0.058927 -0.029696 -0.037106 0.058158 -0.048946 -0.037506 -0.031141 0.092139 -0.026564 -0.088133 -0.002896 0.081982 -0.040831 0.041822 -0.051836 0.023172 -0.072389 0.066744 -0.012028 0.006137 -0.102071 0.071033 0.045518 0.175366 0.050153 -0.119864 -0.013654 0.070154 0.053066 -0.033579 -0.114359 -0.087966 -0.049651 0.072310 -0.047759 0.026850 -0.045463 -0.043960 -0.004685 -0.075002 0.045504 0.032796 0.131499 -0.086921 0.002484 -0.002252 -0.067529 0.082993 -0.092253 0.074473 -0.088942 0.022743 -0.015741 0.068966 0.021441 -0.010430 -0.009868 0.085043 0.059055 0.064369 -0.038230 0.015050 0.022578 0.010061 -0.091055 -0.105946 -0.094261 -0.123531 0.036685 -0.060708 0.055479 0.010504 0.043017 -0.034083 -0.037092 -0.108175 0.021111 -0.071925 -0.038117 -0.047353 0.090819 -0.044561 0.034695 0.004491 -0.040845 -0.102536 0.083339 -0.075690 0.069066 -0.003191 -0.087051 -0.012126 -0.062630 0.057240 -0.077502 -0.061786 0.129345 0.050919 0.009992 0.006623 0.065670 -0.080861 -0.050065 0.021803 0.056490 0.090979 -0.057818 0.057678
0.213172 -0.083451 0.013634 0.025778 0.722922 0.101277 0.113692 -0.022152 0.103181 -0.032398 0.102215 0.001905 -0.283756 4.701193 -0.029242 0.018389 -0.051917 1.120745 0.011902 -0.068028 -0.006026 -0.006543 -0.036022 0.004440 0.025525 -7.465167 0.066281 -0.032434 -0.022973 -0.116910 -0.150189 3.620315 -0.224339 -0.019461 0.158530 0.055335 -0.661962 0.069707 -0.036637 0.040035 0.044421 -0.445219 0.075179 0.797012 0.036410 -0.000693 0.054781 -0.073042 0.035064 0.125280 -0.086533 0.006774 -0.772533 -0.058164 0.057016 -0.103502 0.045829 0.076311 -0.125408 0.145310 -0.008164 -0.068988 0.028461 0.134327 0.149671 0.008730 0.012206 -0.178912 0.019905 -0.054710 0.458396 0.079052 -0.060115 -0.042820 0.442876 0.060444 0.010794 -0.062652 0.029683 0.132287 0.074932 -0.109201 0.005971 0.037434 -0.017116 0.015296 0.024579 -0.040380 0.078229 -0.035433 -0.079564 0.792372 0.064607 0.062429 0.031578 -0.090892 0.006855 -0.005682 -0.003470 -0.002492 -0.015284 -0.170545 -0.081686 -0.024979 -0.031665 -0.059905 0.100099 -0.080479 -0.040930 -0.057852 -0.154237 -0.152009 0.046248 -0.090094 -0.113879 -0.158304 -0.088457 0.613522 -0.043994 -0.004875 -0.100215 0.006636 -0.029536 -0.004152 -0.157465 0.016018 0.025167 -0.075644
0.007831 0.009575 -0.045760 -0.039522 0.104391 0.018364 -0.103572 -0.073545 -0.256787 0.835383 -0.193143 -0.003249 0.307537 -0.192449 0.351166 0.057907 -0.032470 0.069357 -0.067482 0.055310 0.062698 -0.015168 -0.005658 -0.049881 -0.110025 0.093601 -0.000339 0.086826 -0.021317 0.234774 0.068199 0.040785 -0.043768 0.172902 0.176552 0.094309 0.027189 -0.075388 -0.076800 -0.250372 0.055285 -0.049706 0.052503 -1.409682 0.062921 0.086167 0.139608 -0.040144 0.062227 0.013140 0.502881 0.035324 0.029183 0.127414 0.218648 0.327541 -0.157340 0.028568 -0.036413 0.152994 -0.070103 -0.093857 0.021278 0.036728 -0.123826 0.104982 -0.086975 -0.520636 -0.057979 -0.018376 -0.059822 0.142196 -0.071791 -0.089275 0.036958 0.108087 -0.040202 -0.079009 -0.384814 0.006233 -0.045294 -0.078156 -0.013396 -0.206111 0.084262 0.048110 -0.349589 -0.003575 -0.162776 0.037450 0.188495 0.077084 -0.036578 -0.004946 -0.007696 0.093171 -0.097284 0.046122 0.025112 -1.315279 0.036056 0.113642 0.400510 -0.070850 0.257486 0.013960 -0.208481 -0.122683 0.072379 -0.039872 0.072640 0.094589 -0.088098 0.040111 -0.130054 -0.079560 0.009846 0.092829 -0.029679 0.068767 0.076196 0.147866 -0.098926 0.000110 0.094843 -0.011984 -0.026517 -0.007444
0.099100 -0.117239 -0.042903 -0.304748 0.046302 -0.025555 -0.002842 -0.018436 1.675764 0.062064 0.058782 0.005450 -0.124229 -0.032446 0.122988 -0.016874 0.010554 -0.032839 -0.012554 0.018993 -0.069745 -0.433268 0.077726 -0.054331 0.051729 0.055154 -0.113023 -0.154805 -0.034879 -0.111885 -0.245187 -0.044642 -0.016652 0.272570 -0.009051 0.019565 0.007120 0.252168 -0.062209 -1.336414 -1.012932 0.110370 0.021280 0.201063 0.015379 -0.127370 -0.005898 -0.042534 0.136821 0.383176 0.067402 -0.801658 -0.011028 -0.139982 0.045497 0.020693 0.022627 0.034078 -0.059132 0.953530 0.242398 2.131864 0.171314 -0.112693 -0.165978 0.009435 0.046379 -0.005144 -0.051095 0.162349 0.013579 0.501925 -0.047804 -0.198907 -0.046094 -0.092884 0.058190 -0.097426 -0.008835 0.063671 0.280677 0.028289 -0.095539 -0.064831 -0.130084 0.073015 -0.077085 -0.078637 -0.044513 0.336593 -0.022149 0.508425 -0.005818 0.036229 0.672611 0.019042 0.011702 0.081685 -0.289533 0.042395 0.020646 -0.007961 -0.814706 0.010498 -0.006933 -0.406879 0.001378 -0.014231 0.050529 -0.014914 0.068073 -0.303611 0.031712 0.056565 -0.004719 0.016691 0.017343 1.543544 -0.067124 -0.013191 0.012549 0.270582 0.307153 -0.058483 -0.000699 -0.068810 0.116330 0.053765
-0.119719 0.032291 0.027095 -0.080073 0.102546 0.014351 0.003274 -0.157803 0.070629 -0.026720 -0.046085 -0.107316 0.000461 1.724703 -0.108320 -0.085933 0.123089 0.003985 -0.031497 0.010369 -0.124316 -0.048101 0.019837 -0.097063 -0.041245 0.195698 0.151742 0.131268 0.005774 0.309244 0.036619 0.143149 -0.020490 0.021494 -0.118475 -0.002935 0.117698 -0.169403 -0.090562 -0.022166 0.225690 0.139686 0.059437 -0.164819 -0.024474 0.019611 -0.030875 -0.004709 -0.019994 -0.056845 0.016463 -0.037871 0.096944 0.073016 0.052840 0.122528 0.022319 0.142583 0.118987 0.071496 0.041197 0.108988 0.077389 0.041246 -0.019296 0.043374 0.102475 -0.044497 -0.034777 0.035406 -0.334518 0.024840 -0.104888 -0.190928 -0.025011 0.084584 -0.043439 -0.124989 -0.046581 -0.072094 -0.171543 -0.003202 0.126439 -0.051521 -0.194089 -0.007924 -0.026452 0.055896 -0.010383 0.053365 0.098576 -0.253357 0.052046 0.129122 0.040602 0.060173 0.131784 -0.031181 0.307941 -0.024692 0.042560 0.060727 -0.185799 -0.046141 -0.089594 0.076297 -0.032514 0.167073 -0.099641 0.083799 -0.329987 0.031786 -0.127628 0.123539 0.288539 0.083925 0.047772 0.018715 0.012428 -0.073693 0.132311 0.049883 0.139995 -0.036710 0.223189 0.070591 -0.291194 0.018453
0.117802 -0.004844 0.002322 0.104693 0.084798 0.066374 -0.033131 -0.059948 -0.071204 -0.028245 0.053661 0.040100 -0.066002 -0.054796 0.008351 0.104263 -0.048217 0.055346 0.047985 -0.081965 0.018029 -0.002521 -0.126140 0.039799 0.029067 0.006099 -0.036233 -0.033130 -0.106215 0.039511 -0.105165 -0.050840 0.032863 0.173834 -0.006191 -0.022322 0.081881 -0.058587 0.041505 -0.012199 0.024662 0.009821 0.017368 0.053270 -0.076896 0.063029 0.046396 0.036804 -0.041553 0.064357 0.019419 0.060291 0.035628 0.012164 0.072213 0.026353 0.001956 -0.101630 -0.069428 0.056227 0.091183 -0.060101 0.116779 -0.073965 -0.015040 -0.031786 0.002565 -0.052166 -0.090340 -0.001679 -0.044101 0.051048 0.024488 0.006006 0.009763 0.001158 -0.008833 0.045771 -0.067008 -0.006212 -0.007157 0.038312 0.043774 -0.099672 0.056671 -0.073807 -0.078997 -0.114414 0.089442 0.036822 0.064209 -0.064035 -0.042936 0.022395 -0.045681 0.018232 -0.081168 -0.020371 -0.110671 0.078525 -0.054199 0.059773 -0.040031 0.016414 -0.104896 -0.108125 0.016081 -0.074784 0.067801 -0.016337 -0.068847 -0.130957 -0.050162 -0.026489 0.057128 -0.085686 0.199511 -0.052301 0.040019 -0.058507 0.003990 0.038766 0.036226 -0.018527 0.156123 0.020112 -0.066940 0.011580
-0.181872 0.041292 -0.027225 0.065957 0.065196 0.001467 0.008927 -0.067685 0.089690 0.020126 0.092178 0.019740 0.052228 0.016339 -0.018638 -0.054428 -0.128863 -0.034648 0.036917 -0.072054 -0.010387 0.041253 0.093618 -0.045989 -0.103049 -0.021791 -0.047832 0.040443 0.001422 -0.117788 -0.044747 0.099531 -0.061937 -0.054604 0.053433 -0.016648 -0.029447 -0.025934 -0.022089 -0.044061 0.010896 0.019612 -0.001071 0.063804 -0.072575 -0.072302 0.099625 0.064815 -0.034321 -0.051148 0.049465 -0.033838 -0.034598 -0.005010 0.043644 -0.092037 -0.007310 -0.054756 0.048855 -0.030733 0.003951 -0.027924 0.141028 -0.002376 0.057805 -0.034978 -0.096480 -0.154089 0.003409 -0.031774 0.014454 -0.057668 0.029642 0.071678 -0.020738 -0.067445 -0.030338 0.005625 0.034165 0.042614 0.052758 0.060737 -0.049799 -0.112001 0.069370 0.007862 -0.034797 -0.098627 -0.039214 -0.025562 0.050378 0.083334 -0.041304 0.031758 0.018168 -0.094472 0.058667 0.059338 -0.092120 -0.026469 -0.137016 -0.093989 0.050229 0.044605 -0.044511 -0.082625 0.013384 -0.042252 0.061254 -0.071660 -0.051569 0.045306 -0.005054 0.029215 0.029048 -0.049923 0.064590 -0.057863 0.039329 -0.065228 0.014408 -0.122232 0.056773 0.039075 -0.011618 -0.027642 -0.012317 0.006144
-0.013343 -0.027399 0.043035 -0.067665 -0.021346 0.021209 -0.058222 0.014517 0.037916 -0.031342 0.012599 -0.005383 -0.053246 -0.090687 -0.036197 -0.025414 -0.068537 -0.039786 0.060598 0.005928 -0.035254 0.096470 -0.074521 -0.049908 -0.056671 0.027604 -0.006821 0.048404 0.024384 0.102768 0.003646 -0.012071 -0.053111 0.046168 -0.000831 0.054105 0.091798 -0.015449 -0.039936 -0.051825 0.074827 -0.029232 -0.070708 -0.055603 -0.015458 0.011049 -0.026896 -0.028478 -0.151693 -0.098701 0.019151 0.080936 0.073196 -0.055962 -0.032980 0.070254 -0.071133 0.061385 0.024892 0.140301 0.064816 0.064459 -0.002972 0.056981 -0.072248 -0.000915 -0.034634 0.014969 0.058279 -0.083011 0.045182 0.140165 -0.016957 0.018893 -0.026766 0.017944 0.000263 0.051284 -0.041724 0.032769 -0.028301 -0.031061 0.053305 0.114534 0.113387 0.061481 0.052357 0.054855 0.007188 0.081712 0.133547 -0.107361 -0.077812 -0.053410 0.050955 0.153996 0.032809 0.166890 -0.041089 -0.004737 -0.068737 0.091009 0.150971 0.084197 -0.033664 -0.074678 0.040616 -0.046587 0.038050 -0.040483 0.075725 -0.054134 -0.003886 0.108594 0.015490 -0.035747 -0.068438 -0.059574 0.102862 -0.000017 -0.026395 -0.045020 -0.018412 0.036904 0.090778 0.052327 -0.053924 0.001254
-0.082612 0.040222 -0.034599 0.012166 0.004742 -0.011400 -0.024011 0.051185 0.011585 0.082931 -0.051313 0.070286 -0.068135 0.009686 -0.024905 0.041357 0.034668 0.076591 0.069245 0.065388 0.049270 -0.223854 -0.038289 0.030913 -0.090174 0.011563 0.026275 -0.064664 0.008267 -0.080049 -0.016622 -0.076681 -0.043447 -0.059171 0.009355 0.036281 -0.058973 0.039966 -0.158545 0.016183 0.050176 0.163909 0.142827 0.052055 -0.020339 -0.009449 0.009306 0.007413 0.021910 0.028470 -0.155021 0.001423 0.054173 0.036247 -0.062930 0.075781 0.094455 -0.053750 0.049811 0.002718 0.003259 -0.005423 0.271108 -0.017369 -0.024832 0.025987 0.036592 0.047440 -0.029173 0.032626 -0.077113 -0.005511 -0.034705 -0.029163 -0.090279 -0.021002 0.056115 0.072212 0.024361 0.018146 0.050901 -0.075745 -0.041994 -0.041385 -0.363509 -0.042301 -0.072776 0.068317 0.085614 -0.112150 0.045442 -0.020082 -0.051763 -0.022308 0.042662 -0.012991 0.248861 -0.167292 0.044881 0.046084 0.004964 -0.085510 -0.163535 0.105132 -0.032335 -0.097588 0.016595 -0.072510 -0.055666 0.059215 -0.099862 -0.130148 -0.058651 0.006799 -0.079275 0.078029 0.005679 0.166011 0.023126 0.072873 0.041601 -0.042903 -0.035745 0.019422 -0.033490 -0.054671 0.067870 -0.074885
-0.084677 -0.066417 -0.033556 -0.028314 0.200528 0.007187 -0.094236 -0.097145 -0.003730 0.167368 -0.090018 -0.045346 0.059005 -0.072221 -0.106682 0.016465 0.127168 0.008673 0.075674 -0.083942 0.062041 -0.014171 -0.438884 0.007425 0.051539 -0.022082 -0.330759 -0.098993 0.011987 1.093838 0.329823 -0.111582 0.085639 -0.026057 -0.392048 0.086174 0.059861 -0.040723 -0.041110 -0.045801 0.037505 -0.190654 -0.207096 0.036967 -0.071219 -0.110179 0.056616 0.102756 -0.127158 1.089338 -0.044894 -0.004764 0.013728 0.066958 -0.050478 0.018756 -0.066574 -0.050700 -0.224608 0.033713 0.048699 -0.203268 -2.626759 -0.025243 -0.233529 -0.008101 -0.000814 -0.186038 -0.091804 -0.100214 0.083631 0.058660 -0.424726 -0.036663 0.208417 -0.155084 0.040726 -0.087431 -0.006670 -0.070574 -0.085509 0.078557 0.020763 -0.014480 0.188330 -0.638348 0.037133 0.025444 0.175481 -0.238068 -0.063990 0.326592 -0.043160 -0.492167 0.031955 -0.077795 0.040463 0.304437 -0.003346 -0.080069 -0.201142 0.369906 -1.575172 0.033350 -0.552061 -0.005465 -0.039031 0.099672 -0.059469 0.049906 0.157086 1.788790 0.243516 0.086179 -0.083788 -0.029190 0.029051 0.104612 -0.113030 0.063680 0.015995 0.127184 0.036772 0.018737 -0.332893 0.002813 0.053239 -0.028645
0.028948 0.002589 0.005079 0.036370 0.064093 -0.098338 -0.080275 0.006373 0.059547 0.092189 -0.075158 -0.101645 0.027043 -0.120023 0.002947 -0.030172 0.065403 0.050737 -0.051248 -0.075717 -0.041827 -0.011677 -0.116279 -0.105803 0.036376 -0.141872 0.088226 0.090309 -0.116120 0.062242 0.035658 -0.021021 0.070170 0.043394 -0.067250 0.022706 0.084076 -0.088339 0.044177 0.062448 0.055261 0.088932 0.035764 -0.057320 0.005553 -0.063379 -0.057477 0.080509 0.028473 -0.009394 -0.040317 -0.063596 -0.035329 0.166631 0.023538 -0.018521 -0.115283 -0.029949 0.057281 -0.004339 -0.015731 -0.005791 0.043735 0.025581 -0.030120 -0.105105 0.102174 -0.078506 0.084147 0.087963 -0.349105 -0.057232 -0.097424 -0.110318 0.052882 0.007279 -0.036751 -0.045283 -0.041102 -0.125595 -0.016959 -0.024768 0.053227 -0.024125 -0.068252 0.050882 -0.023011 -0.060227 -0.015993 -0.084051 0.010533 -0.137925 -0.059862 0.016532 -0.033260 -0.017123 0.000562 0.094200 -0.007747 -0.101450 -0.057905 0.066429 0.067392 0.003458 -0.054155 -0.068484 -0.067815 -0.014400 0.005352 -0.004918 -0.032195 0.029117 0.120236 0.093147 0.071740 -0.114899 -0.003006 -0.065869 -0.027898 -0.082719 -0.014738 0.143603 -0.011828 0.061419 0.041328 -0.051529 0.025606 0.010711
-0.033833 -0.002265 0.030374 0.054615 0.102084 0.062330 -0.015847 0.089871 0.018518 0.021997 -0.039597 0.027394 -0.029848 -0.051330 0.033464 0.017799 0.073978 -0.004239 0.083969 -0.018921 -0.045598 -0.084218 0.087628 0.100240 -0.035352 -0.143638 0.031384 0.006935 0.000117 -0.049922 -0.016086 -0.029951 -0.020155 -0.056954 -0.065123 0.056736 -0.019494 -0.043751 -0.010496 0.075891 0.036201 0.003653 0.037788 -0.055391 -0.086536 0.052069 -0.026512 -0.037890 -0.010525 -0.025930 0.055121 -0.063848 0.032287 -0.038879 0.105371 0.047075 0.038330 -0.008156 -0.043838 -0.050708 -0.008860 0.058335 0.150020 0.054020 -0.080116 0.047086 0.048574 0.053380 -0.096662 -0.031013 -0.035319 -0.116774 -0.021616 0.100116 -0.051508 -0.035962 0.119941 0.000807 0.042072 -0.064934 0.063252 -0.016440 -0.130789 -0.073509 -0.055324 -0.073534 0.005347 -0.011751 -0.009060 0.034118 0.061181 -0.017495 0.078422 -0.000895 -0.060964 -0.055536 -0.015803 0.020976 -0.050375 0.060864 0.037353 0.075018 0.127484 0.033666 0.033577 -0.052248 -0.013504 -0.091544 0.073969 -0.010174 -0.048712 0.014628 -0.056742 0.033403 0.073810 0.022276 0.078993 0.037677 0.051721 -0.052900 -0.060332 0.000269 0.047939 -0.350336 0.027681 0.123079 0.046921 -0.018010
-0.044131 -0.022550 -0.086045 -0.039198 -0.004802 -0.127052 0.306313 -0.064133 -0.041746 -0.044749 -0.073307 -0.054479 -0.029300 0.065842 0.023797 0.048577 0.101967 -0.060071 -0.035594 -0.183000 0.024977 -0.065563 0.021011 0.373703 -0.100377 -0.036628 0.067007 -0.068507 0.007760 -0.075595 -0.043968 -0.021276 0.019890 0.024237 0.064248 -0.075214 0.056566 0.599057 0.164060 0.098750 0.386371 -0.082071 -0.108952 0.065922 -0.063452 0.000220 -0.090006 0.085676 -0.167360 0.064422 -0.024073 -0.086863 -0.073644 0.204356 0.011987 -0.093748 0.371374 -0.232253 -0.103074 -0.764881 -0.046535 -0.033628 2.886569 -0.059064 -0.063318 0.001754 -0.038136 0.065046 0.007482 -0.027427 1.034161 -0.098349 -0.053090 0.036713 -0.091916 -0.056057 0.043192 0.396941 0.215654 0.061734 0.378623 0.057943 0.316987 0.062395 -0.025956 -0.017758 0.048578 0.072631 0.074780 0.081923 -0.168478 0.089165 -0.136010 0.077812 0.077069 0.015006 -0.044079 0.006076 -0.041665 -0.023461 0.375912 0.044234 0.027531 -1.424434 -0.016225 -0.123539 0.797979 -0.100527 -0.118080 0.015866 -0.067558 -0.137275 -0.088804 0.032461 -0.008721 -0.005759 0.031545 -0.085534 -0.181948 0.104090 -0.125414 -0.020888 -0.067322 0.022016 0.047504 0.053014 -0.117896 -0.006924
0.027454 -0.066119 0.071656 0.068285 -0.041140 -0.046072 0.120313 0.053754 0.043336 -0.155335 -0.018948 -0.032288 -0.042197 0.076052 -0.039265 0.069892 -0.081246 -0.002136 -0.044354 -0.070501 -0.062602 -0.060264 0.070204 0.025544 -0.007766 -0.098061 -0.023535 0.073025 -0.071327 0.028301 -0.096849 0.008120 0.030614 0.064289 0.041313 -0.002855 0.069662 -0.007100 0.048288 -0.063853 -0.044360 0.024447 0.069910 -0.032300 0.014725 -0.002349 0.087734 -0.006839 -0.042687 0.025347 -0.036010 -0.078974 0.005310 -0.020948 0.041176 -0.029850 0.013774 -0.055800 0.045421 -0.044734 -0.002822 -0.030042 -0.005451 0.011430 -0.072245 -0.031866 -0.027752 0.040151 -0.350488 0.032871 -0.083389 0.065612 0.056003 -0.060849 -0.061006 -0.013351 0.057471 -0.027776 -0.032281 0.100099 -0.010333 0.088319 -0.054890 -0.090321 0.004350 -0.053921 -0.016476 0.042395 -0.036019 0.065004 0.017201 0.067612 -0.034559 -0.010622 -0.055027 -0.009871 -0.078426 0.068479 -0.076010 0.001235 0.089275 -0.001531 0.035422 -0.012041 0.041479 0.005364 0.052216 -0.091679 -0.000818 -0.112368 -0.049732 0.026290 0.035518 -0.013279 -0.037196 -0.012636 -0.046476 -0.052901 0.100762 0.091703 -0.021585 -0.018047 -0.091712 -0.043996 0.026467 -0.051871 -0.215724 0.058932
0.099177 -0.229806 -0.055466 0.079163 0.038626 0.064454 -0.013151 0.032874 0.031647 -0.083283 -0.066605 0.094975 -0.072934 -0.041918 -0.042351 0.000457 0.066535 0.172402 0.013973 -0.071815 -0.029331 0.033657 0.000274 0.087142 0.020040 -0.194210 0.010264 -0.079978 -0.043404 0.041064 -0.045463 0.097530 -0.126323 0.022698 0.089891 0.140323 -0.061863 -0.209371 0.144823 0.058181 -0.231264 0.003719 -0.035131 -0.061990 0.004747 -0.014456 0.068790 -0.050087 -0.063917 -0.019096 0.019651 0.051176 0.054500 -0.056575 0.036480 -0.068700 0.073913 -0.052528 -0.000477 0.046232 0.118484 -0.015602 -0.013016 0.032123 0.058830 0.058323 -0.000100 0.125970 -0.056845 0.290824 -0.058942 0.037675 0.090518 -0.025561 -0.108765 0.019611 -0.032451 0.040989 -0.028585 0.034928 0.096548 0.009066 0.065360 -0.021130 0.049567 -0.093627 0.004532 -0.288526 0.063939 0.050454 -0.062780 -0.022870 0.077196 -0.105668 0.005584 -0.094286 -0.001369 0.019139 0.031274 0.046398 0.184688 0.043993 0.038374 0.011468 0.052573 -0.096713 -0.047266 0.016451 0.071426 -0.021144 -0.005337 0.052206 0.000011 -0.102776 0.068425 -0.096180 -0.512937 0.059842 -0.054827 -0.066052 -0.044193 -0.006825 0.031891 -0.007680 0.072633 0.027398 0.071681 -0.033607
0.024415 -0.051281 0.152837 0.158677 0.031271 0.001464 -0.095185 0.106653 0.111693 0.037913 0.098432 -0.006046 0.024066 0.108296 0.112580 -0.008956 0.045558 -0.058228 0.044561 0.014095 0.068862 0.015661 0.067865 0.030206 0.051861 0.081568 -0.029171 0.000714 -0.084584 -0.180212 -0.072040 0.149709 -0.162543 -0.042582 -0.057564 -0.022542 -0.034709 0.192157 -0.096702 0.036706 -0.037484 -0.156371 0.068099 -0.019684 -0.018686 -0.124616 -0.040182 -0.121314 0.116124 0.027693 0.007185 -0.042211 -0.122762 -0.125609 -0.115919 -0.120512 0.099293 -0.034192 0.042914 0.058430 0.069580 0.050867 -0.092442 0.047810 0.067873 0.134100 0.021375 0.012558 -0.118011 -0.165320 0.150859 0.057871 0.006185 -0.022286 -0.147767 -0.041454 0.044172 0.146921 0.065210 0.018236 0.049251 0.058764 0.029968 -0.077476 -0.027642 -0.063428 0.056870 -0.082272 0.079612 0.000806 -0.138173 0.042977 0.002496 0.004913 -0.020174 -0.049231 -0.115966 -0.007830 0.042693 0.071368 0.029432 0.007837 -0.055402 0.008040 -0.011380 0.028284 -0.112403 -0.089695 0.061072 -0.053351 0.047254 -0.041500 0.048896 0.025819 -0.122389 0.040586 0.023412 0.038672 0.022547 -0.002022 -0.114668 -0.144997 0.015743 0.060241 -0.156893 -0.083090 0.053048 -0.076077
-0.016569 0.045375 -0.032881 0.075181 -0.081120 -0.035749 0.023138 -0.029918 -0.049034 0.044760 0.108041 0.089890 0.074871 -0.029971 0.055230 0.031819 -0.004377 0.011472 -0.041834 -0.005267 0.022203 0.025310 0.040746 0.067532 -0.036329 0.040906 0.057682 0.047849 -0.023858 -0.059615 0.034164 0.103281 -0.099064 0.011235 0.020174 0.126041 -0.052114 -0.038529 -0.078705 0.031814 -0.094557 0.043224 -0.080074 0.016469 -0.013487 -0.051272 0.083705 0.029128 0.086046 0.004196 -0.068098 -0.040460 -0.011473 -0.066409 0.128089 -0.033086 0.029484 -0.068293 -0.082806 -0.114841 -0.086226 -0.001837 0.119987 -0.025990 0.064772 0.027113 -0.085777 -0.071856 -0.086227 0.018023 -0.026096 -0.030575 0.062579 0.118441 -0.046475 0.026068 0.032882 0.102562 -0.061351 -0.083969 0.060273 -0.004146 0.038504 -0.053143 -0.038637 -0.056349 -0.042231 -0.141566 0.039442 0.000558 0.011148 -0.017424 -0.066103 0.032115 -0.009582 -0.013172 0.083951 -0.058410 -0.090981 0.065675 -0.060352 -0.008609 -0.169126 0.057857 -0.013341 0.020072 0.014367 -0.033956 -0.006874 -0.338846 -0.306251 -0.002520 0.037143 0.033784 0.032746 -0.089334 0.073197 0.026253 0.086578 0.074611 -0.068007 0.027535 0.034647 -0.100926 0.076706 0.023120 0.039616 0.048799
-0.020508 -0.004680 -0.126879 0.027188 0.053652 0.008042 -0.086162 -0.015050 -0.094964 0.004822 0.009366 0.026406 0.043113 -0.074419 -0.059018 -0.095318 0.024377 -0.090486 -0.021717 0.017731 0.044398 0.070452 -0.118185 -0.081059 -0.042611 0.042881 0.126530 -0.055854 0.013803 0.454373 -0.033212 0.008012 0.326095 0.106425 -0.104614 0.016705 0.113708 -0.140637 -0.036583 -0.028307 0.136874 0.248357 -0.014419 -0.077600 -0.008185 0.061165 0.020845 0.083602 -0.161706 -0.095962 0.066909 0.066674 0.119855 0.154024 -0.049077 0.176618 -0.013417 -0.042332 0.107478 0.056320 -0.021916 0.042274 -0.044136 0.018641 -0.151467 0.007974 0.003255 -0.127961 0.035183 -0.011036 -0.043858 0.085954 -0.014291 -0.006994 0.132486 -0.110977 -0.002681 0.011076 -0.094397 -0.022980 -0.034797 0.054535 0.033611 0.087681 -0.111709 -0.032266 0.037067 0.054897 -0.048038 0.044226 0.230150 -0.048908 -0.019011 0.015954 0.097171 -0.061740 -0.048938 0.050677 0.126100 -0.081919 0.013862 -0.034146 0.051284 -0.052769 -0.004303 -0.049562 0.075767 0.080278 -0.054332 0.053686 -0.046191 0.007579 0.116140 0.174662 0.073663 0.062034 -0.085655 -0.040746 -0.019317 -0.081127 0.087056 0.179710 0.006050 -0.004057 0.037929 0.004482 -0.023695 0.083976
-0.085821 0.105060 -0.007873 -0.027267 -0.041493 0.109394 -0.051504 -0.003244 -0.152696 -0.032149 -0.053373 0.025357 0.050936 -0.011902 -0.105075 -0.034188 0.039639 0.014876 -0.052235 0.055692 -0.050624 -0.028666 0.043127 0.040081 -0.030205 0.086738 0.113463 -0.110086 -0.062065 -0.052859 -0.057054 0.000588 -0.021399 -0.037038 -0.056503 -0.002240 -0.060999 -0.084974 0.080068 -0.060861 0.093178 0.024564 -0.038695 -0.036343 -0.024632 0.064382 -0.073076 0.001715 -0.078429 0.006627 -0.012099 -0.033408 0.013019 -0.051724 -0.087350 -0.047062 -0.015354 0.064162 0.034372 -0.012997 0.020787 -0.065018 -0.183340 -0.119543 -0.071420 -0.001368 0.015702 -0.004463 0.080915 0.055350 -0.038399 -0.034243 0.038262 0.079110 -0.031067 -0.066863 -0.030287 -0.034972 -0.053170 0.063643 0.021801 0.049777 0.011922 0.005201 0.016998 0.105996 -0.092116 0.049563 -0.088858 -0.002648 0.094549 0.101550 0.158609 -0.061079 -0.179173 0.027556 0.009475 0.061414 0.108011 -0.093776 0.112578 0.081741 -0.020053 0.074568 0.033162 -0.010848 -0.010604 -0.076447 0.067799 0.014171 0.174364 -0.107559 0.100528 -0.136812 -0.030402 0.079412 -0.081845 -0.103424 -0.061098 -0.016136 -0.057402 0.014349 0.008230 0.037073 -0.019571 0.019831 0.123394 -0.066014
-1.003647 -0.570680 -0.075554 -0.251565 0.334530 0.034987 -0.044690 -0.001153 0.043043 -0.420465 -0.150524 -0.621481 -0.067689 -0.062501 0.061532 0.082970 0.016669 0.105068 0.250058 -0.048460 0.680284 -0.044867 0.118590 0.824606 -0.081167 0.002038 -0.051515 0.155587 -0.112305 0.088362 -0.160383 0.072742 -0.189558 0.093697 -0.664180 0.053790 -0.045437 0.709717 0.000772 -0.150874 0.009804 0.496324 0.050111 1.211709 0.084279 -0.040143 0.425514 0.032223 -0.101300 -0.067981 0.642525 -0.024540 0.057510 -0.156191 0.059938 -0.001940 0.036906 0.044328 -0.027323 -0.113839 0.040248 -0.380539 -0.263156 -0.051423 -0.560028 -0.071166 -0.363431 -0.590315 0.019854 0.190840 0.043665 0.152321 0.052088 -0.050899 0.518090 0.081711 0.005379 0.016134 -0.024823 0.200014 0.016387 0.073673 -0.014017 -0.027421 -4.407852 -0.081445 0.182030 -0.023551 0.060251 0.142866 -0.009784 -0.303389 0.076822 -0.106287 -0.231151 -0.689982 -0.006888 -0.089305 -0.063589 0.009894 0.047091 -0.013392 -0.060566 -0.450588 0.295508 -0.146197 -0.034326 0.055091 -0.029634 -0.027757 -3.831400 -0.069959 -0.166395 0.956705 -0.025764 0.028536 -0.003910 -0.329100 0.222379 0.061259 -0.070079 -0.029734 -0.045507 -0.139207 0.043062 0.033118 -0.310613 -0.181358
0.092400 -0.087486 0.628076 0.014047 0.074223 0.021420 0.050937 0.018781 0.071031 0.033862 -0.023911 0.008943 -0.053837 0.085490 0.076647 0.185759 -0.083661 -0.060185 0.071058 0.169728 0.049714 -0.086190 0.137117 0.035390 0.045263 0.102404 -0.109248 -0.177112 0.065432 -0.213399 -0.028867 0.136618 -0.025271 0.176695 0.028083 -0.056443 -0.064862 0.060343 -0.135654 0.034333 0.002042 -0.019180 0.004272 -0.012024 -0.049300 -0.072665 0.022732 -1.239719 0.106452 0.056849 -0.098811 -0.102755 -0.120421 -0.097531 -0.616819 -0.062199 -0.019458 0.075807 -0.104727 0.011011 0.010862 0.032159 -0.165384 0.006149 0.207350 0.040304 -0.019037 -0.017363 -0.067437 0.563424 0.183169 -0.005639 0.083196 -0.245271 -0.001381 0.028652 -0.022085 0.063706 0.005867 0.092342 0.043638 -0.076458 -0.065724 -0.225394 0.112456 0.044999 0.024769 0.026807 -0.015927 -0.007731 0.002092 0.116003 -0.027341 -0.165472 0.053203 -0.040367 -0.015562 -0.109118 -0.123751 0.124403 0.082797 0.466217 0.063806 0.161001 -0.013312 -0.037641 0.052944 -0.063888 0.098772 0.030949 -0.067208 0.390639 -0.103888 -0.118639 -0.004623 -0.081919 0.116395 0.099422 0.025529 0.029124 0.138983 -0.008582 0.108076 -0.113800 -0.442692 -0.139874 0.126621 0.264054
-0.035533 -0.033997 0.125766 0.068681 -0.242391 0.084690 0.100658 0.001075 -0.021274 -0.089970 -0.008418 0.008953 0.079926 -0.033938 -0.042704 -0.156258 0.127770 -0.017342 0.063772 -0.008618 -0.076519 0.018556 0.071283 0.079298 -0.076436 -0.094768 0.034509 0.029368 -0.072904 -0.102423 0.045148 0.017485 0.012559 0.007473 0.009148 0.004581 0.073597 0.241045 -0.039062 0.095887 -0.026121 0.139103 0.258389 0.126597 -0.125380 -0.233145 -0.071541 -0.122064 0.036369 -0.006653 -0.076161 -0.166335 0.080689 0.061193 -0.133672 0.053409 0.123446 -0.032582 0.003063 -0.006002 -0.012939 -0.074953 0.064554 -0.053073 -0.007375 0.183363 -0.004532 -0.081574 0.033375 -0.044000 0.159305 0.046672 0.282755 0.078208 -0.035582 -0.045826 -0.054272 -0.172167 -0.008682 -0.098807 0.035041 -0.059385 -0.034722 0.271486 -0.173115 0.008614 0.091241 0.051197 0.184860 -0.120813 -0.081958 0.044421 -0.013531 -0.048863 0.018736 0.077351 0.038138 -0.102476 -0.088737 0.077734 -0.009433 -0.038152 -0.018298 0.074961 -0.004621 0.053853 -0.059364 0.032797 0.023661 -0.082494 0.063839 -0.066470 -0.056146 -0.077259 0.034943 0.006112 0.065004 -0.077480 0.210284 0.031259 -0.007990 -0.100265 -0.214896 0.409793 0.072247 -0.049771 -0.196187 -0.050456
0.076512 -0.136109 -0.057735 -0.071335 0.013073 -0.080388 0.189226 -0.042876 0.237639 -0.018623 -0.035720 0.031555 -0.098404 0.030706 -0.060353 0.083732 0.002903 -0.156565 -0.045085 -0.143493 0.139606 0.078247 0.111029 0.129900 -0.038104 -0.055303 -0.016829 -0.259921 0.049339 -0.033007 0.007437 0.054061 0.006881 -0.199898 -0.416603 0.013355 0.066210 0.106399 0.103968 0.096410 0.048952 0.003514 -0.163174 0.101888 0.034211 -0.004894 -0.111757 -0.091867 -0.024111 -0.040489 -0.041605 0.207817 0.038260 -0.041904 0.040624 -0.052613 0.394460 -0.066871 0.011332 0.463028 0.172091 -0.119160 0.286998 0.053417 0.043597 0.033413 -0.109782 -0.122052 -0.110040 -0.032048 0.006018 -0.043840 0.015663 0.053082 -0.067159 -0.015122 -0.784216 -0.156399 -0.006078 0.051855 0.079779 -0.074432 -0.052410 -0.123110 0.088599 -0.837470 0.090373 -0.174368 0.060814 0.035085 0.001581 -0.043286 -0.012083 -0.108608 0.171003 0.143720 0.029855 -0.058709 -0.125112 0.107529 -0.101768 -0.013139 -0.033168 -0.034636 0.529616 -0.035106 0.031670 -1.007637 0.003386 0.317367 -0.351751 -0.084219 0.103866 0.183204 -0.097079 0.024961 0.041749 -0.087810 0.311060 -0.092742 0.011377 -0.095895 0.109573 -0.219926 -0.069654 -0.016342 0.323003 -0.342688
0.126372 -0.027998 0.084318 0.081401 -0.050513 0.022502 -0.034015 -0.003891 0.104808 -0.059483 -0.027427 -0.060714 -0.017500 0.131917 0.120172 0.090610 0.031300 0.078639 0.078476 -0.061459 -0.029828 -0.081255 0.013034 0.086140 -0.084621 0.050589 -0.029653 0.045055 0.042458 -0.275670 0.027901 0.121798 -0.061248 0.062403 0.060372 0.025698 -0.079472 0.053507 0.037297 0.053899 0.008131 -0.106725 0.035689 0.057144 -0.065103 -0.124849 0.070260 -0.088299 0.080077 -0.027644 0.019667 -0.119312 -0.070066 -0.166503 0.053057 -0.056072 0.093816 -0.002447 0.032368 -0.040642 -0.033258 -0.098243 0.205991 -0.084506 0.100712 0.110807 -0.070403 0.098682 0.018857 -0.115928 0.026750 -0.092130 0.002295 0.012381 -0.026285 0.057700 0.333252 0.065548 -0.046590 -0.030767 0.064527 -0.104480 0.015808 0.065745 0.021665 -0.038407 0.356677 -0.015375 0.049107 0.114682 -0.161490 0.149534 0.035357 -0.041803 -0.041989 0.068675 -0.103620 -0.106556 -0.037346 0.071821 -0.009247 -0.090708 -0.318115 0.005016 0.012564 -0.014480 -0.143751 0.044644 -0.036818 0.061860 -0.051072 -0.149435 -0.039818 -0.112168 -0.006884 -0.083350 -0.007586 0.000787 0.083539 -0.043952 -0.089570 -0.057583 -0.130679 -0.009755 -0.107986 -0.036612 0.057965 -0.124300
0.059691 -0.009130 0.032445 0.485149 0.039060 0.052788 -0.249609 -0.056856 -0.012118 0.127931 0.027354 -0.191788 0.083673 -0.008622 0.006094 -0.090263 -0.001414 -0.039142 -0.033348 -0.032719 -0.068477 0.013903 0.002241 -0.402484 0.037383 0.067459 -0.036359 0.042173 -0.108831 0.016946 0.165626 -0.039442 -0.050445 0.476709 -0.055804 0.008551 -0.066876 -0.082461 0.553250 -0.221780 0.023798 -0.026573 -0.026047 -0.737617 -0.308268 -0.039542 -0.114873 -0.027892 0.035644 -0.011386 0.067188 -0.023322 -0.001646 -0.024847 -0.240458 0.083215 -0.000894 0.001636 0.092895 0.257677 0.037357 -0.031527 -0.030038 -0.064293 -0.305219 0.021705 0.086180 -0.107221 -0.164300 0.011051 0.091227 0.285477 0.046551 -0.028165 0.125432 0.070334 0.079840 -0.190224 -0.057672 0.112371 -0.049402 -0.021616 -0.052608 0.023651 0.152565 -0.086995 -0.039857 -0.056897 -0.166387 0.088238 -0.036698 0.015985 0.046256 0.013796 -0.099840 0.031538 0.066400 0.095862 0.030659 -0.449082 -0.030632 0.110798 0.149951 0.035353 -0.170082 -0.006759 0.064528 0.112604 -0.037397 0.102721 0.070901 0.068723 0.019280 0.021612 0.063042 0.012547 -0.033917 0.008931 0.039732 0.007422 0.077584 -0.016207 -0.223118 0.022172 0.068415 -0.068428 0.277658 0.096232
-0.047592 -0.049016 -0.060639 -0.089000 0.041128 0.010674 0.033544 -0.072587 -0.096983 0.250986 -0.040289 -0.119337 0.094153 -0.072712 -0.091123 -0.013738 0.150655 -0.064502 -0.030705 0.061406 0.044631 -0.013229 0.008011 -0.095106 -0.047890 -0.172154 0.080829 -0.009766 -0.048187 0.160186 0.026361 -0.127518 0.005185 0.124428 -0.017139 -0.065551 0.128022 0.006671 -0.066451 -0.028531 -0.018491 0.060844 -0.085223 -0.119151 -0.015505 0.125898 -0.070420 0.062893 -0.138367 -0.156957 0.043962 -0.007539 -0.013044 0.189654 0.089461 -0.030709 0.013419 0.091046 0.095804 0.057719 -0.021612 0.057118 -0.046511 0.090579 -0.035238 -0.082620 -0.066597 -0.026282 0.077385 0.075673 0.017372 -0.034721 -0.047498 -0.142309 0.061710 -0.095674 -0.069190 -0.038842 0.013853 -0.101408 0.019819 0.064788 0.070872 0.069910 0.049817 -0.128261 -0.084868 0.000166 -0.126917 -0.119966 -0.001175 -0.130065 -0.072120 0.056108 0.036794 0.018317 -0.066530 0.042901 0.014670 -0.031124 0.041863 0.338233 0.384172 -0.081763 0.002025 0.087473 0.090108 0.015413 0.059909 0.016215 -0.025008 -0.095650 0.071610 0.010218 0.012157 -0.076276 -0.086285 -0.076757 0.011239 0.050895 0.063801 -0.050493 -0.011465 -0.007960 0.104645 0.045744 -0.004611 -0.001398
0.038806 -0.047739 0.086371 -0.485754 0.005732 -0.024412 -0.089163 0.101720 0.176405 -0.013803 0.046740 0.111868 -0.088375 0.018123 0.014027 -0.003318 -0.089721 0.066911 0.127604 -0.019400 0.075876 0.027279 -0.004401 -0.513784 -0.066569 0.061746 -0.016279 -0.339457 0.031733 -0.583053 0.046587 0.075911 0.001409 -0.063637 -0.038530 0.074425 -0.068087 0.677583 -0.247232 0.098143 -0.002223 -0.092885 0.064212 1.611859 0.003387 -0.589824 -0.008839 -0.011383 0.084365 0.067519 -0.049184 -0.379560 0.023729 -0.168184 -0.162104 -1.383431 0.111543 -0.004509 -0.019172 0.122874 -0.149834 0.033100 0.004943 0.018442 0.050831 0.039429 0.034943 0.226698 0.037901 -0.046503 0.147869 -0.045449 -0.533734 -0.268408 -0.064331 0.023714 0.143373 0.015365 0.027592 0.236852 0.022416 -0.071866 0.004527 -0.028154 0.103834 0.058134 -0.088466 0.045325 0.175678 0.049791 -0.073393 0.042859 0.180850 0.027957 0.059502 0.130938 0.015333 0.284822 -0.041258 0.375648 0.052564 -0.344605 -0.219889 0.061538 -0.006065 0.071940 -0.294621 0.028120 0.091609 -0.064542 0.066640 0.043061 -0.121019 -0.124779 -0.081162 -0.020250 0.314163 0.385207 0.001945 0.048306 0.214265 -0.085858 -0.003604 -0.050858 -0.253352 -0.020423 0.534497 -0.064868
-0.076551 -0.008042 -0.070143 -0.000558 -0.034034 0.045910 -0.051205 -0.038028 0.028222 -0.001840 0.073432 -0.047065 -0.127145 0.017114 -0.057754 -0.062738 -0.068093 0.008366 -0.045308 -0.045600 -0.062152 0.033389 0.000812 -0.012509 -0.055386 0.004512 -0.001480 0.062390 -0.079584 -0.019653 -0.095239 0.011389 -0.112120 -0.035566 -0.063513 0.072914 -0.046274 0.083671 -0.987990 0.046160 -0.107847 0.062649 0.017638 0.045279 -0.041916 0.071394 -0.023351 -0.002366 -0.015609 0.127684 0.015013 -0.042663 -0.085020 0.046516 -0.047036 0.022219 0.028616 -0.014915 -0.031095 -0.073071 0.052202 0.072991 0.229276 -0.088273 0.072899 -0.012273 -0.017313 -0.042601 0.026670 0.052700 -0.019157 0.019793 -0.002162 -0.012017 0.008344 0.021629 0.084828 -0.172109 -0.063490 0.052941 0.009970 -0.164991 0.050103 0.082154 0.024900 -0.081608 0.063901 -0.035146 -0.027212 -0.068306 -0.086543 0.013319 0.077635 -0.048922 0.195553 0.074162 0.072109 -0.030048 0.000961 0.000056 0.015083 -0.012397 -0.023296 -0.062055 0.105099 -0.110995 0.077164 0.026775 0.067363 -0.039177 -0.218217 0.032349 0.034806 -0.006482 0.033125 -0.097616 0.029300 0.036262 -0.069526 0.000671 0.038106 -0.048801 0.029645 -0.109502 -0.049974 0.048252 0.054526 0.016055
-0.105508 0.101374 -0.048383 -0.073602 0.032056 0.002740 0.040406 -0.038533 0.025469 -0.087169 -0.124463 -0.051282 0.061412 0.419222 -0.009628 -0.007849 0.085963 -0.021150 -0.099351 0.065322 -0.071393 -0.064761 -0.067551 0.051920 0.024613 0.062051 0.014786 0.112609 -0.040706 0.088989 0.052971 -0.001383 -0.058934 0.003127 0.002502 -0.059817 0.028070 0.007479 -0.061999 -0.064101 0.168253 0.054801 -0.081725 -0.110635 0.055943 0.037675 -0.027338 -0.027753 -0.073473 -0.151050 0.015433 0.057192 -0.011840 0.050725 -0.100760 -0.031514 0.020835 -0.015445 0.048170 -0.052859 0.041260 0.055024 -0.078470 -0.051239 -0.112281 0.033623 -0.033163 -0.064586 0.109711 0.017645 0.019051 0.090417 0.060743 -0.021235 0.073947 -0.053589 -0.112875 -0.069299 0.030355 0.004025 -0.050674 0.023731 0.083722 0.079896 0.002704 0.068739 0.045580 0.055913 -0.108020 -0.035565 0.056003 -0.120238 0.014054 0.120390 -0.005982 0.083428 0.073007 0.117576 0.094666 -0.051285 -0.032151 -0.198413 0.111808 0.049373 0.030382 -0.075184 -0.059083 0.037273 0.016059 -0.055191 0.064909 -0.003310 0.128213 0.121899 0.052622 -0.017743 -0.052277 -0.122685 0.088119 -0.034429 0.002074 0.084197 0.102587 -0.058243 0.157120 -0.039603 0.004719 0.080267
-0.043541 -0.024526 -0.060112 -0.079216 0.059439 -0.000760 0.019678 0.074222 0.005476 0.178616 0.007831 -0.088251 0.001125 -0.094396 -0.105332 0.059420 0.066719 -0.001301 0.033540 -0.033858 -0.043880 -0.051312 -0.031489 0.054461 0.016077 -0.042784 0.069877 0.035847 -0.051817 0.065966 -0.003387 -0.106781 0.020522 -0.007160 -0.059964 -0.024537 -0.030958 0.007969 0.029574 -0.074687 0.059632 -0.040046 -0.055809 -0.033478 0.124565 0.086514 -0.067370 -0.014094 0.016426 -0.057635 -0.052240 0.148098 0.022303 -0.050619 -0.092047 -0.001821 0.029691 -0.004120 0.054715 0.052154 -0.023949 0.009442 -0.034766 -0.051011 0.005597 -0.111036 -0.025234 -0.052400 0.016272 0.012251 0.044513 0.007326 -0.116054 0.003028 0.072813 0.019629 0.056838 0.017470 -0.044083 0.067449 -0.016525 0.038757 0.025025 0.081082 0.005931 0.030466 -0.060372 -0.007555 0.017445 -0.078305 -0.016082 -0.067779 0.059437 0.047007 0.012684 -0.004564 0.010269 0.010823 0.075925 -0.036035 -0.085355 0.022884 -0.042862 0.045967 -0.038182 -0.037545 -0.003418 -0.008097 0.017492 0.210605 0.120908 -0.039620 0.036044 0.091484 0.083461 -0.022647 -0.047151 0.001168 -0.078170 0.025645 0.026570 0.043736 0.008587 0.054179 -0.085392 -0.007802 -0.122852 -0.045464
0.034438 0.002962 0.014265 -0.017780 -0.019575 -0.085091 -0.024642 0.004209 -0.037689 0.115620 0.033981 -0.022763 -0.040363 -0.097219 0.030283 -0.071558 -0.080564 0.026418 -0.034287 0.046401 0.079349 0.081062 0.026337 -0.078719 0.058948 -0.133219 -0.026594 0.067092 0.054845 0.205197 -0.018797 -0.078557 0.007892 0.128743 0.012608 -0.047918 0.113058 -0.141561 -0.080610 0.040473 0.087559 0.066539 -0.135243 -0.102098 -0.006922 0.077669 -0.021297 0.012631 -0.096398 -0.012326 0.018602 0.137046 0.048938 0.206288 -0.016136 0.129543 -0.062890 0.054815 0.025945 -0.065605 -0.062140 0.088916 0.053495 -0.054233 0.010429 0.040894 -0.025212 -0.051930 -0.014042 0.117208 -0.048111 0.024345 0.022072 -0.193588 0.039356 -0.022393 0.001994 -0.067758 -0.092738 -0.040947 -0.091311 0.053430 0.047946 -0.000718 0.124883 -0.098353 0.044382 0.021286 -0.008878 -0.112430 0.123701 -0.099304 -0.093494 0.038694 -0.021717 -0.112720 0.072132 0.121586 0.087911 -0.026223 0.080401 0.195131 0.142354 0.085991 -0.063084 0.072537 0.046476 -0.021792 0.025720 -0.042451 0.020092 0.125924 0.136081 0.009873 0.022532 -0.038105 0.015347 -0.500690 0.002752 0.059831 -0.022172 0.081674 -0.034177 -0.022721 0.120081 -0.057094 -0.056816 0.007020
0.312288 -0.108901 0.192772 0.089445 -0.064650 0.742979 0.063024 -1.513148 -0.126146 0.398348 0.088672 -0.009271 -0.059150 0.280942 0.030074 0.030773 0.041374 -0.047272 0.061439 -0.017690 0.101115 0.080263 0.094796 0.965718 -0.100907 -0.090159 0.024439 -0.363185 0.081992 0.641147 -0.011694 2.592591 -0.056978 -0.441439 0.852875 -0.027885 -0.215273 0.153520 -0.726532 0.037750 0.069228 -0.191453 -0.090102 0.166089 0.037785 0.084386 1.365311 0.071513 -0.016183 -0.009569 0.011466 0.277677 -0.296627 0.041947 0.438900 -0.072450 0.426941 -0.076612 -0.139424 -0.019065 -0.016323 -0.266130 -0.032884 0.065183 0.019146 0.149728 -0.106428 0.058128 -0.579845 0.110006 1.793835 -0.020347 0.019360 0.157524 -0.072104 0.090395 -0.011381 -0.985527 0.087732 0.209225 0.105568 -0.023920 0.039317 -0.051771 -0.274165 -0.064593 -0.037741 -0.018793 -0.010238 0.048480 -0.099874 0.184033 -0.143827 -0.252393 -0.211892 -0.078335 -0.259866 -0.101124 0.033753 0.076270 -0.000400 -0.096516 -0.074738 -0.215454 -0.011791 0.018095 0.062940 -1.800089 -0.068554 -0.100617 0.169326 -3.056447 0.142092 -0.328764 -1.110854 -0.030190 0.006401 0.101007 0.038192 1.132601 -4.694820 -0.107251 -0.056874 0.021685 0.091988 0.048131 -0.969444 -0.052911
-0.038055 -0.008073 0.027272 0.057516 0.020022 0.005976 0.004340 0.100074 -0.031106 0.094472 -0.017938 0.006404 0.011266 0.035189 0.070402 0.087297 -0.109241 0.029322 -0.047808 -0.053456 0.000592 0.042925 0.044072 -0.011107 -0.065568 -0.054452 -0.109215 -0.011259 -0.043758 -0.256553 -0.051115 0.101787 -0.072601 -0.079321 -0.012532 -0.023600 -0.137425 0.053064 0.087205 -0.029811 -0.036993 -0.053732 0.024540 0.045604 -0.096629 -0.074247 0.081004 -0.016959 0.114894 0.036999 0.024098 -0.026432 -0.083292 -0.053132 0.015442 -0.171714 -0.023694 -0.040141 -0.007139 -0.069225 0.020955 -0.067119 0.010300 -0.056559 0.101263 0.074949 0.058401 0.100133 0.063109 0.038953 0.092572 -0.042135 -0.014990 0.086154 -0.008956 0.017401 0.076099 0.012052 -0.037510 0.003123 0.097244 -0.007677 -0.085344 0.029653 -0.039855 -0.081949 -0.023972 -0.051619 0.140188 0.013404 -0.103997 0.156128 0.049504 -0.007860 0.059431 0.013242 0.000234 -0.017237 -0.097670 0.040068 -0.054997 -0.183159 -0.193499 -0.004605 0.056001 0.009181 0.054435 -0.048855 -0.068160 -0.088111 0.083612 -0.017654 -0.043823 0.046435 -0.119691 -0.058160 -0.060604 0.060887 0.009689 -0.034169 -0.006032 -0.112566 -0.112203 -0.044218 -0.171408 -0.083656 0.118311 -0.005347
0.076387 -0.032922 -0.003392 0.094405 -0.042362 -0.047812 -0.026575 0.107138 -0.005438 0.019022 0.011623 0.051489 0.011463 0.054159 0.043564 0.004684 -0.096082 0.076576 -0.018472 -0.021670 -0.093365 -0.049406 -0.015407 -0.041093 -0.103975 -0.166630 0.055614 0.028161 0.032680 -0.002985 0.069955 0.060576 -0.060818 -0.081611 -0.054765 0.002480 0.003497 -0.030455 0.028161 0.081951 -0.031331 -0.097705 0.259199 0.061758 0.056313 0.019287 -0.023099 0.020351 0.021820 -0.000810 -0.051597 0.058214 0.005390 -0.042663 0.000356 -0.021368 -0.059945 -0.033796 0.066566 0.017832 0.010922 -0.018696 0.075205 -0.054867 -0.046475 -0.023542 -0.064900 -0.000007 -0.011196 0.059830 -0.006490 0.000654 0.016526 -0.012929 0.023015 -0.062405 0.067018 0.000303 0.050153 0.028583 0.100069 -0.035928 -0.095972 -0.011721 0.067252 -0.058206 -0.164103 -0.134138 -0.007718 0.000881 0.074492 0.006546 0.036021 -0.091189 -0.175199 -0.062901 0.020173 -0.021959 -0.125211 0.089994 -0.145919 0.002021 0.052214 -0.095763 0.071503 -0.126801 0.089140 -0.048024 0.105823 -0.034616 -0.083764 0.010577 0.036897 0.037035 0.028764 -1.677134 0.104467 0.016068 0.137121 -0.028014 -0.000654 -0.074489 -0.007969 -0.196759 -0.006785 0.025207 0.036438 0.010135
0.034880 0.052465 0.083114 -0.024888 -0.012769 0.088191 0.107574 0.052000 0.005294 0.085690 -0.034787 -0.006481 0.052052 0.067518 0.075281 -0.015317 0.657525 -0.005154 0.028588 -0.161554 0.872560 0.074930 -0.155691 0.310270 -0.082645 0.082352 -0.006258 -0.028523 -0.042099 0.099616 -0.100113 0.080963 -0.017409 -0.104797 0.082873 0.083581 0.026536 0.163817 -0.520714 0.100081 -0.070077 -0.077156 0.039544 0.295120 0.046642 0.100228 0.024807 0.035387 -0.216451 -0.046269 -0.069570 0.041612 0.069225 0.015023 0.036594 -0.036983 -0.078405 -0.121175 -0.158638 -0.834573 0.034961 -0.015605 0.850856 0.321580 -0.129761 0.035548 -0.006250 -0.205061 -0.046403 0.088190 0.383689 -0.043457 -0.169964 0.414560 -0.192732 0.039205 0.000319 0.144954 0.026709 -0.072002 0.575634 0.182762 -0.031961 -0.072597 0.081132 -0.005354 -0.012381 0.064932 -0.062287 0.062464 0.139339 -0.436065 -0.175122 -0.113356 -0.532580 0.004299 0.010777 0.033546 -0.000512 0.022115 0.310039 0.052562 0.108312 -0.386107 0.175507 -0.064372 0.098177 0.069751 0.069711 -0.034514 -0.016734 -0.160935 0.079272 0.030907 0.009465 0.049705 -0.012753 -0.606582 -0.187537 -0.016352 0.082712 0.053635 0.014069 -0.033409 0.340623 -0.032073 0.070676 -0.161961
