-0.094147 -0.060178 0.040349 -0.070003 0.053484 0.060321 0.117165 -0.125726 0.046843 -0.088894 0.063807 -0.076262 -0.011513 0.116918 -0.019239 0.050771 0.052005 0.076853 0.023665 0.008089 -0.042291 0.078225 -0.064638 0.029868 -0.099442 -0.034248 -0.082773 -0.071243 -0.032849 -0.006918 -0.075876 0.002402 -0.026922 0.027584 -0.025146 0.041719 -0.051709 -0.007569 0.034136 -0.032672 -0.012421 0.142258 -0.064293 0.007314 0.007759 0.076852 -0.034718 0.089274 -0.011892 -0.011854 0.058594 0.101965 -0.029748 -0.010486 0.055196 0.157918 -0.073011 0.045787 0.039774 0.090565 0.075685 0.003394 -0.087114 0.089553 0.088350 -0.034394 0.113401 -0.106807 0.011255 -0.061689 0.037713 -0.098034 0.032924 -0.030267 0.046429 0.045021 0.008456 0.096408 -0.065586 -0.037914 0.103339 0.053651 -0.123410 0.022785 0.023524 0.021983 -0.092626 0.035447 -0.032332 0.119662 0.098049 -0.091004 0.064832 -0.020472 0.067709 -0.045276 0.053213 -0.012388 0.087531 0.064946 -0.043775 -0.055992 0.097481 -0.055165 -0.015124 0.045544 0.069187 0.091943 -0.052515 -0.075055 -0.045650 -0.004549 -0.082736 0.025864 0.060138 0.015870 -0.040829 -0.039597 -0.035049 -0.071916 0.008536 0.009512 -0.100545 0.066970 0.082565 0.021052 0.027106 0.045652
0.019138 0.005020 -0.037590 0.474893 -0.023484 -0.222957 -0.013930 0.026878 -0.033715 0.153912 0.061707 -0.015138 0.057242 0.091263 -0.014554 -0.025962 -0.267565 -0.004078 0.000803 0.013726 -0.038114 0.222746 -1.204710 0.110229 0.009466 -0.132406 -0.232116 -0.083563 0.327806 -0.051030 -0.119252 -0.200369 0.060692 -0.516586 0.085061 0.002446 -0.049359 -0.013311 0.065822 -0.051514 -0.295775 -0.061582 0.194374 -0.217628 -0.091365 -0.007391 1.566740 0.097224 0.351299 -0.191959 -0.339921 -0.089915 0.136331 0.084741 0.103050 -0.098063 -0.096910 -0.169297 0.029502 0.036819 0.101013 0.058733 -0.279755 -0.058461 0.021155 -0.072188 0.175239 -0.055773 0.159282 0.015824 -0.058575 0.634494 0.136275 -0.121970 1.142284 -0.053755 -0.082749 0.020197 -0.891585 -0.021827 -0.060927 1.901160 -0.018992 0.053964 0.449634 -0.057182 -0.046997 -0.020893 0.074725 -0.120323 0.108150 0.065068 -0.009422 -0.031133 -0.232303 -0.062528 -0.101330 0.063995 -0.018438 -0.119764 0.030037 0.197785 -0.026395 -0.085071 0.083027 -0.015819 0.458358 0.057138 -0.033082 -0.047065 -0.105726 0.093333 0.237178 0.453122 -0.201079 0.007035 0.022645 0.131830 -0.015567 -0.100952 0.053099 0.038896 0.101214 -0.178771 0.226919 0.104058 0.007171 0.915515
0.100534 0.013581 -0.089200 -0.477649 0.071271 -0.040768 0.037583 0.072457 0.030403 0.086926 -0.008075 0.081847 0.330904 0.032388 0.039275 -0.107299 -0.076694 0.072136 -0.008723 0.008178 -0.000141 -0.064406 -0.012971 -0.141429 0.015484 -0.012811 0.053423 -0.054710 0.476454 -0.057274 -0.002794 0.007318 0.010354 -0.015340 0.017043 -0.052683 -0.046619 -0.050911 0.135428 -0.193757 -0.055463 -0.067103 -0.044719 0.087969 -0.091303 -0.001431 -0.088599 -0.183034 0.073004 -0.070101 0.060380 -0.124265 -0.026520 -0.024844 -0.062122 0.001273 -0.132941 -0.050577 0.015181 -0.109611 0.059145 -0.003595 0.009033 -0.088514 -0.074143 0.075942 -0.021866 -0.028622 0.050110 0.078948 0.038814 -0.021489 -0.060430 0.071065 0.046271 -0.023762 -0.031816 0.019238 0.173921 -0.063837 -0.102656 0.059505 0.123966 -0.167085 -0.058967 -0.002440 0.011382 -0.075600 0.042596 0.034868 -0.063107 -0.026003 -0.075352 -0.020522 0.059304 0.029000 -0.108101 -0.072887 0.057512 -0.087621 -0.003400 0.067471 -0.082465 -0.107147 0.015128 0.167557 -0.022734 -0.011227 -0.089940 -0.007938 0.043169 0.036142 0.018021 -0.103663 -0.158461 -0.062924 0.013086 0.039704 0.075887 -0.123413 -0.381554 -0.023774 -0.034563 -0.012958 -0.156447 0.077590 0.253954 -0.112226
0.002991 0.215133 0.041843 1.058573 -0.044068 -0.002450 0.099595 0.101376 0.011864 -0.246345 0.070691 -0.427362 -0.202933 -0.066058 0.101679 0.102450 0.625382 -0.471261 0.016264 0.092967 0.054658 0.020425 -0.062929 0.218784 -0.072648 -0.149472 0.022459 -0.390888 0.444766 0.099267 -0.056821 -0.070900 0.048134 0.027937 -0.054962 0.106670 -0.063724 0.022231 0.022435 -0.082465 0.261977 -0.025989 0.512590 0.081547 -0.071062 0.021095 0.089007 -0.003081 -0.077195 0.052545 -0.165158 0.002742 0.161203 -0.073791 0.076080 -0.016039 -0.005613 0.011704 -0.020630 0.627152 -0.000204 -0.063526 -0.122965 0.049329 0.021815 0.058912 -0.096682 -0.081213 0.065469 0.158262 -0.095587 0.304354 0.055580 -0.058099 0.226881 -0.056479 -0.023188 0.057146 -0.187262 0.014237 0.060309 0.445893 0.086270 -0.174748 -0.108014 -0.085052 0.058902 0.094132 -0.092870 -0.096203 0.113595 0.039704 0.083942 0.035133 -0.260875 -0.013791 0.026106 0.073627 -0.003000 -0.038592 0.040259 -0.003624 0.054827 0.054285 -0.055222 -0.405980 0.039437 0.118005 0.150353 -0.297222 0.009076 -0.036043 -0.025041 0.066111 0.121538 -0.065863 0.020808 0.050128 0.017657 0.196173 0.694816 -0.055684 -0.005477 -0.031348 0.013202 -0.106261 -0.041382 0.327154
0.035396 0.063176 0.096151 0.024934 0.013045 -0.009020 0.069771 -0.076472 0.052597 0.058846 0.100715 0.055756 0.027908 -0.015144 -0.075000 -0.000619 -0.008605 0.057038 -0.015458 0.052876 0.059624 0.019103 -0.090143 0.054905 0.002633 -0.040031 -0.030262 0.071255 -0.081994 -0.053721 -0.057596 0.081416 -0.028014 0.089549 -0.000514 0.022688 0.075049 -0.005590 0.102772 0.114310 0.019045 0.079321 -0.167086 0.074087 -0.038264 0.030095 0.115974 0.034767 0.079628 -0.039054 -0.058100 0.059905 0.046096 0.099277 -0.053048 -0.008542 -0.069596 0.088760 -0.000651 0.061005 0.047044 0.072898 0.028231 0.130069 0.013226 -0.067149 0.003701 -0.047583 -0.025425 -0.008511 -0.059199 -0.022060 0.057567 0.013916 -0.211499 -0.074303 -0.037155 -0.001162 -0.031052 -0.084851 -0.023212 -0.056197 0.000577 0.044206 -0.071948 0.006669 0.013889 0.086850 -0.054609 0.030055 0.074604 -0.148224 0.061431 0.089252 -0.070537 -0.074634 -0.005714 0.149517 -0.046600 -0.049009 0.016705 0.006903 0.090108 -0.034236 -0.001718 -0.019900 0.089376 0.097431 0.007683 -0.237169 -0.061414 0.015566 0.060301 0.038629 -0.038866 0.013080 0.069399 0.017732 0.053180 0.045275 0.109527 -0.042869 -0.053821 0.022421 0.023163 -0.054438 0.012208 -0.058037
-0.009607 -0.088679 0.212682 -1.310020 0.906048 0.111422 -0.022228 -0.058463 0.566285 0.019997 0.046129 -0.099600 -0.018397 0.010135 -0.040434 0.457635 -0.578601 0.016512 0.027810 -0.002869 -0.002062 0.061912 -0.053274 -0.311598 0.973942 0.030716 0.048628 0.448323 0.099034 -0.519764 -0.066244 0.439697 -0.432881 -0.016895 -0.732604 -0.087252 0.618357 -0.174400 -0.340530 -0.211023 -0.752534 -0.044450 0.061435 -0.029388 -0.182854 2.617954 -0.026589 0.015918 0.557240 -0.113027 0.235860 0.295802 0.687156 0.094826 -0.066145 0.087742 -0.201385 0.786525 0.156744 0.299363 0.110621 0.104284 0.502533 0.495229 -0.327948 -0.005772 -0.074207 0.186732 0.003893 -0.212410 -0.046104 -1.389925 0.371413 0.117742 0.658599 0.077574 -0.103726 -0.081186 0.115754 0.077614 0.077383 -0.189966 -0.071234 0.027195 0.012158 0.240648 -0.010905 0.476509 0.040126 0.707514 -0.057733 -2.076533 0.002876 0.101168 -0.025681 -0.098515 -0.245609 0.046216 0.099436 -1.743098 -0.990538 -0.053174 0.291026 0.855424 -0.020889 1.705474 0.015401 -0.296277 -0.037406 -0.036351 0.015350 0.016731 0.142278 -0.026845 0.064232 -0.161186 0.701115 0.180871 0.041497 0.095578 -0.773340 0.034016 -0.109679 -0.046010 0.066352 -0.125384 0.313360 0.019183
-0.057999 0.066397 -0.066342 0.084549 -0.016244 0.041100 -0.059124 0.056602 -0.060247 -0.074244 -0.008558 0.089995 0.105495 0.063721 -0.019731 -0.098922 -0.006668 0.041614 -0.097911 -0.044028 -0.081299 -0.057380 -0.095088 -0.020713 -0.028402 0.047395 0.109664 0.010273 0.122191 -0.092957 -0.060021 0.050823 -0.096057 0.027741 0.081663 -0.066875 0.005066 -0.015929 -0.083040 -0.032139 0.005508 0.020232 0.014123 -0.034006 -0.102040 -0.022467 -0.001762 -0.061755 0.010749 -0.034453 -0.035860 -0.025073 -0.019903 -0.031525 0.067490 -0.002823 0.019474 -0.034422 0.030963 0.004306 0.008595 -0.012813 0.014836 -0.082375 0.013163 0.091718 0.023588 -0.058884 -0.034834 -0.109157 -0.040960 0.082674 -0.047521 0.071815 -0.071141 0.005054 0.081035 -0.006978 -0.003874 0.005211 -0.098086 -0.008993 0.072695 -0.007350 0.019699 0.084159 0.149235 0.025276 0.071061 0.000052 -0.069788 0.027881 -0.070312 -0.034987 -0.046326 0.075902 -0.094512 -0.007732 0.026980 0.028385 -0.004890 0.086671 0.033855 -0.039903 -0.054797 -0.018794 0.047370 -0.086638 0.076574 -0.027434 0.091965 -0.053835 0.026811 -0.062130 0.033339 0.002238 -0.042628 -0.063956 0.106008 0.086569 -0.005241 0.081518 -0.039397 -0.040928 0.012479 -0.068597 0.078236 -0.118921
-0.057727 0.024594 -0.017113 0.008507 -0.015064 -0.071984 0.034641 0.056438 0.046076 0.056062 0.090027 0.001923 -0.005623 0.035248 -0.054400 0.066658 -0.022324 0.020680 -0.036930 0.034370 0.004704 -0.015039 0.070187 0.016919 -0.066745 -0.018329 -0.039811 -0.065260 -0.047919 0.101126 -0.054564 -0.096334 0.019922 -0.012912 0.016982 -0.050513 0.034873 -0.033154 -0.042630 0.055567 -0.043102 0.037955 0.024650 -0.018168 -0.019878 0.099452 0.009591 -0.061287 0.055428 -0.013166 0.056060 -0.036449 0.090556 -0.039591 0.020327 0.168452 -0.060430 0.019614 0.014958 0.064921 0.112377 -0.055762 -0.033496 0.146613 -0.042398 -0.062404 -0.081021 -0.035679 0.105379 -0.036371 0.049504 -0.066846 0.031210 -0.043397 0.101278 -0.059163 -0.033872 -0.002289 -0.089035 -0.079275 -0.038028 0.005805 -0.107632 0.038293 0.001090 0.001665 0.007846 0.074967 -0.075219 0.165992 0.016430 -0.120809 -0.022275 0.028561 -0.094171 0.088994 -0.009231 0.122250 0.096455 0.008981 -0.105534 -0.004368 0.108152 0.003159 -0.007685 0.033983 -0.029294 0.051208 -0.026732 0.026437 -0.020566 -0.152098 -0.084159 0.023131 0.035912 0.048933 -0.028294 0.059323 -0.109073 -0.036051 -0.037607 0.068369 -0.035463 -0.032139 -0.049197 -0.081772 0.030577 0.075782
0.094832 0.083671 0.018029 -0.939009 0.149937 0.099288 -0.002681 0.081803 -0.108348 -0.247485 -0.140263 0.091145 0.231870 -0.017397 0.111502 -0.053947 0.097588 -1.003333 0.026859 0.096366 -0.040158 -1.119279 0.392156 -0.586104 0.083852 0.000733 0.055456 0.211348 0.053513 -0.061671 -0.918758 0.072578 0.169155 0.007033 -0.440530 -0.068692 -0.052295 -0.458513 -0.084504 -0.122216 0.228782 -0.109105 0.022257 0.137427 -0.036779 -0.014315 -0.053405 -0.115438 -0.007804 -0.206155 -0.514607 0.055233 -0.085509 -0.057704 0.114423 0.021002 0.106997 -0.003014 0.003056 -0.123282 -0.051059 -0.025194 0.041933 0.266904 0.062657 0.060874 -0.357000 0.088430 0.366012 -0.265038 0.027285 -0.594550 -0.002826 -0.193711 0.191894 0.096911 0.178699 -0.019435 0.518232 -0.007568 -0.051672 0.605048 0.228528 -0.968067 0.775403 -0.069538 0.055499 -0.038140 -0.018504 0.035441 0.036567 0.102090 -0.032064 -0.059363 -0.022529 0.470369 0.035061 -0.075370 0.109676 -0.009731 -0.055455 -0.025501 -0.030201 -0.029939 -0.049618 -0.436835 0.032977 0.017401 0.018894 -0.298231 0.023662 0.003297 0.017567 0.586160 -0.028228 0.168619 -0.013147 -0.283528 0.019743 -0.105559 0.136483 0.031116 -0.243416 0.020167 -0.581252 1.431437 0.023376 -0.062719
0.029805 -0.213065 0.009483 0.554946 -0.918306 -0.065639 -0.007590 0.052415 0.010807 0.004287 0.088325 -0.295999 -0.098235 0.058178 0.058587 -0.069575 -0.020427 0.042928 0.000136 0.052871 0.064188 -0.122230 -0.058249 -0.138863 0.059638 0.009908 0.035235 0.157997 0.026741 0.018091 -0.073087 0.024723 -0.026935 -0.032025 0.103881 0.063557 -0.083953 0.030558 -0.044380 0.614566 0.171234 -0.054635 0.030419 -0.104314 0.070158 0.273669 0.347816 -0.035463 -0.137128 -0.093203 0.145681 -0.033240 0.160767 0.084660 -0.097677 -0.047590 -0.004478 0.069276 -0.019510 0.055066 0.076383 0.019963 -0.189633 -0.031110 0.024047 -0.064134 -0.359975 -0.027606 0.037292 -0.027437 -0.238487 -0.083030 0.501656 -0.119394 -0.283264 -0.025409 -0.098264 0.132716 -0.226429 -0.014394 0.140176 -0.003965 -0.050790 0.212740 -0.047934 -0.024012 -0.004344 0.075678 -0.032178 0.037110 0.083290 -0.067602 -0.023214 0.012647 -0.287239 0.019551 0.038003 0.070934 0.052559 0.103144 0.034734 -0.050944 0.059419 0.097177 0.022554 -0.180274 0.072773 0.115036 0.170988 0.001230 -0.015641 -0.028079 -0.011613 -0.745439 0.110863 -0.071901 0.296197 0.060039 0.099223 0.094976 1.062413 -0.593289 0.020213 -0.105113 0.092315 -0.345543 -0.038991 0.160056
-0.048765 0.018547 0.058802 -0.101691 0.019856 0.060865 1.436452 0.008067 -0.048002 -0.041521 -0.323423 -0.049281 1.840303 -0.033420 -0.052601 -0.065568 -0.079978 -0.029243 -0.034507 0.005775 -0.071932 -0.072645 -0.143318 -0.117463 0.060142 0.074247 0.077274 0.063872 0.108363 0.034604 -0.003504 0.020522 -0.114819 0.014145 -0.166522 -0.063717 0.055226 0.447730 -0.076152 -0.083395 -0.009140 0.046303 0.011618 0.024077 -0.058923 0.129602 0.212559 0.020334 0.002077 -0.046773 0.025219 -0.177820 0.005217 0.129136 -0.056973 -0.238662 0.025448 -0.040242 -0.089919 -0.050569 0.026194 0.039002 0.001068 0.062798 -0.061446 0.057721 -0.235055 0.102426 -0.095612 -0.035429 -0.155065 0.115658 -0.090776 0.052378 0.063339 -0.019291 0.052007 -0.067369 0.125770 0.033693 0.080705 -0.091504 0.083760 -0.049703 0.075608 -0.029326 0.060834 -0.005693 0.124578 0.079651 0.435337 0.005872 0.041384 0.285750 0.093908 0.031510 -0.068701 0.038063 -0.077765 -0.040916 -0.007721 0.092340 -0.101575 -0.114812 0.018586 -0.051104 -0.003215 0.010734 0.002114 0.878109 0.016134 0.256176 0.073253 0.050356 -0.018681 0.150374 0.254405 0.023272 -0.038256 -0.109718 -0.244871 0.109125 -0.039925 -0.019502 -0.026015 0.087534 0.070311 -0.008302
-0.123737 0.182664 -0.027717 -0.056420 -0.880178 0.031727 22.826582 0.028334 -0.069338 0.140951 3.404479 -0.062298 -0.530222 -0.087944 -0.070829 -0.085946 -0.012302 1.060766 -0.064165 3.123218 0.032911 -0.110137 -0.219305 -0.084611 0.105702 -2.763416 -14.824381 -0.027142 0.150940 -0.122140 0.857553 0.099494 -0.045376 -1.956994 0.090976 -0.179087 0.066759 -0.028779 -0.084864 -0.003155 0.052426 0.030079 0.043533 -0.210388 0.003784 0.071820 0.078069 -0.050140 0.091407 -0.054745 -2.688336 -0.019322 -3.643526 -0.043015 -0.000513 -0.174424 -0.055211 -0.071880 0.026048 0.197340 -0.006555 -0.046677 0.029273 -0.144482 -0.046971 -6.275821 -0.601302 -4.682500 -0.041704 -3.829433 -0.031198 -0.005088 -0.069301 0.170300 -6.560445 -0.159356 0.008463 -0.088524 -0.966172 0.184123 0.193113 1.579553 0.115116 0.033832 -0.013588 0.144534 -24.855288 0.044872 -0.011458 0.027959 -1.689236 -0.055292 0.012351 -3.060669 -0.063846 0.112044 -0.130195 3.574434 -0.225179 -0.125414 0.095665 0.090788 0.031457 0.016543 -0.031776 0.054870 0.041690 0.024559 -0.038150 -0.024151 -0.445010 0.464490 0.073466 -0.104578 3.496718 -1.152046 -0.004309 0.070622 -0.608972 1.503099 -0.095301 -2.358978 0.092254 -0.161943 -0.241138 1.875166 0.029558 -0.147276
0.040030 -0.058832 0.067560 0.021892 0.076627 -0.015821 -0.023801 0.055319 -0.072015 -0.022158 -0.040044 -0.053192 -0.046658 -0.018672 -0.081938 0.054926 0.035196 -0.104047 0.019152 0.006495 -0.022548 0.041924 0.022009 0.050504 -0.097055 0.104861 -0.012711 0.074099 -0.051471 0.072119 0.042529 0.012878 0.049870 -0.028813 -0.038180 0.039529 0.015566 0.037739 0.059232 0.014365 -0.057196 0.038393 -0.104580 0.088663 0.047439 0.100633 -0.048211 -0.022938 0.013708 -0.067931 0.013718 0.057989 0.072004 0.049560 -0.001883 0.025103 0.036622 0.068023 -0.080049 -0.007213 -0.061015 0.015353 -0.059774 -0.154980 -0.021144 -0.008860 0.283372 0.053567 0.040084 -0.000925 -0.109877 -0.020284 -0.028306 -0.025012 -0.036018 0.039002 0.027565 0.097389 -0.076120 -0.052004 -0.105259 -0.056991 0.008057 0.043197 0.016721 0.013756 -0.071833 -0.050903 -0.067444 -0.043512 -0.157858 0.058546 0.070469 -0.023954 0.026927 0.055567 0.036644 -0.051919 0.002656 -0.043888 0.009628 0.053133 -0.042832 -0.043629 0.060981 -0.097527 0.039131 0.030174 -0.030440 -0.047353 0.061710 -0.072528 0.092142 0.060351 0.077036 0.042894 -0.034841 0.019900 -0.032562 0.077199 0.100064 0.014774 -0.021442 0.072675 -0.021674 -0.005324 -0.029873 0.035081
-0.001016 -0.067469 -0.036261 -0.180392 0.013861 -0.005261 -0.091185 -0.007886 -0.046280 0.102005 -0.106520 -0.009035 -0.007792 -0.234717 -0.005100 -0.035604 -0.003585 0.253169 0.034414 0.013072 -0.126485 -0.113655 0.038093 -0.005683 -0.050442 0.091812 0.167098 -0.141907 -0.035544 0.062647 0.105082 0.056741 -0.125548 0.057088 -0.018850 -0.052676 0.059614 -0.068517 -0.125827 -0.094440 -0.028744 -0.012235 0.084582 -0.089999 0.023995 -0.052861 0.012357 -0.072349 -0.027642 -0.053061 -0.030043 -0.022674 -0.098001 -0.092924 0.039108 -0.039607 -0.004179 -0.043412 -0.067111 -0.029491 -0.102908 -0.001821 0.146668 0.032655 -0.005077 -0.010480 0.094858 0.093946 0.067304 0.024180 -0.105128 -0.066484 -0.099612 0.011604 0.054878 0.025475 -0.067429 -0.115188 -0.010767 -0.018796 -0.159264 -0.093490 0.044903 0.011040 -0.049059 0.063278 -0.069963 -0.099365 0.072671 0.099312 -0.065115 0.006733 -0.000109 0.028542 0.133368 -0.016285 -0.050252 -0.044571 -0.022616 -0.060510 0.008360 -0.079359 0.010939 -0.122678 0.041073 0.095867 -0.091111 -0.086970 0.059540 0.067176 -0.011131 -0.007043 -0.142539 -0.177708 0.036297 0.010727 -0.090594 -0.069878 0.019267 -0.065729 -0.180432 0.090629 -0.054391 0.057146 -0.067904 0.070462 0.029141 0.117782
-0.032929 0.086760 0.086793 0.780438 0.223293 -0.055283 -0.028806 0.008552 0.081352 -0.053248 -0.014475 -0.032881 -0.083267 0.083430 0.002634 -0.070243 -0.499579 0.248378 -0.068767 -0.039414 0.099046 -0.075857 -0.005334 0.131804 -0.049214 0.061298 -0.066414 0.183866 -0.053776 0.095302 -0.103531 -0.104476 0.076081 0.086191 -0.047843 -0.023708 -0.025326 0.030024 0.014996 -0.084568 -0.011076 -0.043850 0.510802 0.048983 -0.003280 -0.092286 0.029538 0.111594 -0.030744 0.048424 -0.036698 0.128791 0.098227 0.012058 0.003590 0.006694 0.008813 0.077985 0.080512 0.096677 0.078293 -0.028068 0.282265 -0.046225 0.069733 0.062765 -0.064591 -0.108089 0.018432 -0.066503 0.014126 0.059955 0.060511 0.033591 0.012684 0.022385 0.068840 0.092092 -0.065857 0.058054 0.133752 -0.020994 0.006614 0.045798 0.009373 0.002397 -0.042643 0.143239 0.040848 -0.092382 0.098646 -0.007598 -0.051599 -0.001597 -0.119727 -0.085833 0.101575 0.039832 0.076857 -0.034478 -0.117739 0.071520 0.350595 0.062325 -0.004586 -0.018249 -0.014112 0.041325 0.093119 -0.098143 -0.133334 0.033254 0.062066 -0.008450 0.022372 0.052718 0.502506 -0.075604 0.023828 -0.001486 0.204371 -0.016319 -0.090674 -0.048848 0.038458 0.076169 -0.072796 -0.050354
0.016887 -0.727773 0.116396 0.157040 0.126292 0.224338 0.085957 -0.019069 0.019309 -0.120988 0.073385 -0.070762 -0.052282 -0.044167 -0.458754 0.035319 0.051942 0.097880 -0.017497 -0.043938 0.052827 0.098768 -0.050640 0.122734 -0.122439 -0.116692 -0.042021 -0.004188 -0.218475 -0.057939 -0.084420 0.150576 0.074320 0.025423 -0.033232 0.014683 -0.028642 0.209039 0.133967 0.121906 0.136536 0.010218 -0.122188 -0.191558 -0.298682 -0.031321 -0.036558 0.102609 -0.026627 0.075473 0.030206 0.146091 -0.044118 -0.039570 0.026606 0.118282 0.030922 0.098049 0.014387 -0.148193 0.010022 -0.043660 0.174362 0.038864 0.063604 0.060156 -0.119223 -0.034689 -0.037199 -0.071746 -0.007189 -0.008095 -0.002340 -0.145561 -0.039203 0.087066 0.019289 0.302953 -0.067604 -0.136716 0.087542 0.051335 -0.025724 0.040304 0.073739 -0.168519 0.054494 0.122942 -0.035216 0.031432 0.034126 -0.044141 -0.020387 0.038228 -0.225844 0.046657 0.159320 0.089641 -0.029795 0.030444 -0.040437 0.062792 -0.009252 0.049543 0.081636 -0.008675 0.042837 0.114648 0.113245 0.082890 -0.028704 -0.074984 -0.052894 0.130479 0.072003 0.062277 0.172486 -0.025101 -0.042447 0.062693 0.107339 -0.049185 0.223584 -0.000591 -0.005758 -0.095692 -0.056422 0.016995
0.066449 -0.091357 -0.077316 -0.006925 -0.000690 0.005830 -0.021481 0.048473 -0.036747 0.070512 0.022792 0.069990 0.039624 -0.069115 0.089615 -0.081554 0.027468 -0.012763 0.034295 0.004024 0.002901 -0.049159 0.095640 -0.044996 0.082144 -0.019111 0.009348 0.004969 0.229943 -0.036996 -0.030907 0.080661 0.017999 -0.014134 -0.013196 -0.065013 0.069216 -0.028792 -0.024907 0.001552 0.015598 0.024510 0.000413 -0.019138 -0.082518 -0.080094 -0.062014 -0.138106 0.007213 -0.012257 0.068247 -0.069043 0.013979 -0.042732 0.007261 0.016299 0.046714 -0.082472 0.050625 0.040094 0.033608 0.014670 0.067486 -0.043145 -0.004272 0.094914 0.099549 -0.012524 -0.121023 0.073429 -0.052421 -0.055674 -0.086470 0.009560 0.017741 0.056767 0.078333 0.009220 0.077392 0.057469 -0.007981 -0.007825 0.102407 0.019398 0.012783 -0.047003 0.081173 -0.067587 0.054369 0.001767 -0.160506 0.064186 -0.039860 -0.110055 -0.030491 -0.067035 -0.006546 0.067209 -0.019134 -0.094885 -0.021649 0.089518 -0.147854 0.021867 -0.059037 0.018870 0.046941 -0.044739 -0.016912 0.070731 -0.024240 0.036207 -0.042270 -0.185511 0.007812 -0.020488 -0.097420 0.068725 0.012454 -0.047210 -0.104732 -0.051631 -0.007086 -0.011471 -0.089742 0.019008 -0.042949 -0.048181
0.005213 -0.000686 -0.025208 -0.052469 -0.051333 -0.084811 0.025048 -0.122761 -0.044807 0.037101 0.091411 0.024933 0.016290 0.081311 -0.098834 -0.041254 -0.033536 -0.028951 -0.026606 0.067419 -0.048003 0.012635 0.193948 0.026598 -0.082769 0.049857 -0.123756 -0.062232 -0.057550 0.012816 -0.018246 -0.036618 0.029097 -0.059005 -0.051989 0.073323 -0.124907 0.070514 -0.037591 0.007735 0.031406 0.006472 -0.024177 0.003410 0.045091 0.017894 -0.043231 0.097622 -0.081917 0.032857 0.085802 0.096220 0.134011 0.106503 -0.024982 0.081438 0.036874 0.053624 0.039867 -0.090369 0.006947 0.100790 -0.124563 0.057150 0.069671 -0.053175 0.006348 0.064634 0.195165 0.095283 -0.008974 -0.006057 0.069145 -0.115399 0.094460 -0.026267 -0.062777 0.084267 -0.045488 -0.017174 0.017381 0.034696 -0.122985 0.004636 -0.055738 -0.102046 -0.101183 -0.053981 0.033469 0.033565 0.073389 0.017106 0.056719 0.013489 0.035723 -0.002778 -0.009699 0.019746 0.055253 0.085966 -0.044083 -0.042661 -0.061089 -0.026469 0.089226 0.095032 -0.052428 0.137953 0.013916 -0.035566 -0.035589 -0.015029 -0.057015 -0.033197 -0.068096 -0.099564 -0.023595 0.059365 0.034159 0.067808 -0.124042 0.071022 -0.020800 0.054680 0.040098 0.116646 0.071097 0.015641
-0.053935 0.111977 0.004720 -0.509756 0.038407 -0.103126 0.092931 0.018767 0.034538 0.037606 0.033132 -0.054416 -0.016948 0.067999 -0.094718 -0.068819 -0.139072 -0.167161 -0.010834 -0.059636 0.028205 -0.003842 0.011362 0.065248 0.026000 0.062560 -0.155733 0.020293 -0.143744 -0.021211 0.050051 -0.112118 -0.040105 -0.075919 0.047023 0.020201 -0.154121 -0.002250 0.060356 -0.026009 0.094326 0.010537 -0.054532 -0.009562 0.087627 -0.086271 0.039647 0.005770 -0.034790 0.063023 -0.006893 -0.053285 0.029698 0.002830 0.031440 0.107308 0.030925 -0.085586 0.057154 -0.015867 -0.036634 0.075022 -0.058643 0.102612 -0.030088 -0.080135 -0.106603 -0.126311 -0.043334 -0.039693 -0.045433 -0.058685 -0.019943 -0.104993 0.050316 -0.036731 -0.043158 0.062722 0.006520 -0.076796 0.037933 -0.040320 -0.016356 0.015153 0.080201 0.041802 -0.030612 -0.031073 -0.027702 0.041396 0.049899 -0.017663 0.063499 -0.027478 0.058863 -0.100728 0.033109 -0.029012 0.056469 -0.075463 0.066244 -0.081023 0.026690 -0.045989 0.069981 0.297838 0.094405 -0.060258 -0.065338 0.204353 0.051351 -0.233343 -0.074088 -0.051092 0.018321 -0.080602 0.003020 0.071270 -0.038628 -0.103135 -0.055825 -0.037159 -0.008658 0.054811 -0.090147 -0.024386 0.111143 0.025541
-0.031851 -0.016798 -0.080604 0.089549 -0.027909 0.022402 -0.031999 0.063555 0.035361 0.082658 -0.013264 0.086640 0.009678 -0.098952 0.172696 0.056994 0.008959 -0.232641 -0.081635 0.049491 0.024018 0.022203 -0.218766 0.008017 0.013479 0.010124 0.200215 0.044592 0.086603 -0.079423 0.010670 0.116769 -0.019949 0.052654 -0.042346 -0.026293 -0.045397 -0.039311 -0.072417 -0.068874 0.015606 -0.003476 0.000178 0.106416 0.062875 0.016722 -0.001641 0.042525 -0.074677 -0.068148 -0.108701 -0.014878 -0.008407 -0.090813 0.082341 -0.008132 0.004624 -0.020740 -0.071947 -0.100730 0.011161 -0.063728 0.097797 -0.095599 -0.096623 0.012075 -0.079364 -0.048936 -0.071946 -0.012372 0.010950 -0.034858 -0.017797 0.053187 0.028156 -0.103955 0.075200 0.045784 -0.029251 -0.004862 0.004999 -0.012399 0.091156 0.019062 -0.060389 0.009411 0.083705 -0.081399 0.004490 -0.064054 0.049040 0.071177 -0.082487 0.034258 -0.018638 0.061017 -0.106557 -0.036221 -0.102595 -0.089963 -0.038948 0.007516 -0.090856 0.006819 -0.023579 -0.082144 -0.071824 -0.097914 0.066499 0.128551 0.063140 0.365060 0.027496 -0.028158 0.027819 0.043843 -0.079560 -0.048137 0.040608 0.046823 0.108749 0.050235 0.123590 0.045490 0.054629 -0.083716 0.015157 -0.027677
0.004811 0.060044 -0.008001 -0.017877 -0.012210 -0.079432 0.054561 -0.010125 0.089826 0.067985 0.012119 0.000164 -0.092093 -0.009827 -0.080868 0.044514 0.058910 -0.009216 0.068191 0.066228 0.066772 -0.011494 -0.020834 -0.061328 -0.032364 -0.054064 -0.101232 0.049179 -0.031042 0.059132 0.053205 0.039192 0.063228 0.028643 0.064568 -0.056988 -0.056968 0.095783 0.079948 -0.036371 0.067355 0.099009 -0.030022 -0.082898 0.026334 -0.003045 0.065907 0.002134 0.054828 -0.118183 0.073298 0.095351 0.034672 0.015187 -0.055938 0.073092 0.027365 -0.040628 0.078840 0.007092 0.066079 0.125905 -0.077119 -0.036407 -0.022895 -0.078520 -0.059111 0.058944 0.034380 -0.035963 0.011223 -0.007454 -0.018585 -0.059236 -0.013671 0.061375 -0.027839 -0.033796 -0.049395 -0.033340 0.105579 -0.011406 -0.076410 0.057586 0.038553 -0.059411 0.008533 0.055257 -0.063438 0.061441 0.102528 -0.100690 0.017318 0.072841 0.026719 0.033515 -0.066070 0.087183 0.007046 -0.046918 -0.010730 0.009523 0.016284 0.064775 0.098877 0.024203 0.101551 -0.016664 -0.018215 -0.055129 -0.038531 -0.083431 0.018297 -0.064868 -0.059870 -0.031800 0.058325 -0.005250 -0.067678 -0.064443 -0.079374 0.048173 -0.002688 0.092800 0.068728 -0.025359 -0.114372 0.113062
-0.057897 -0.074916 0.060525 -0.047989 -0.036506 -0.009522 -0.014109 -0.022519 0.117325 0.062333 0.085326 -0.093656 0.035011 -0.033848 -0.039541 0.046488 -0.018181 0.066699 0.001883 -0.128317 0.010311 0.051607 -0.360928 -0.055138 -0.007357 -0.048955 -0.169757 0.043869 0.002624 -0.049074 0.013687 0.001692 0.045673 -0.184246 0.010604 0.035372 -0.121661 0.101305 0.091451 0.062346 0.047397 0.043191 0.032615 -0.064605 -0.054964 -0.051889 0.045603 0.139297 -0.039107 -0.068611 0.109780 -0.038188 -0.046387 0.065929 0.051743 0.105762 0.014695 -0.017448 0.022707 -0.375211 -0.038441 -0.051843 -0.019424 0.050263 0.045985 -0.089027 -0.058043 -0.011558 -0.029572 -0.038726 -0.104661 0.032390 0.038696 0.044300 -0.232500 -0.006720 -0.036910 0.022409 0.216832 0.045473 0.067259 0.026722 -0.042000 0.631201 -0.090284 0.057714 -0.082280 -0.066500 0.042543 0.087924 0.208129 -0.079000 0.097178 0.095600 -0.074218 -0.012421 -0.016390 -0.007558 0.051840 0.092696 -0.101916 -0.027118 0.041870 0.011093 0.038806 0.081925 0.037141 0.078264 0.044583 0.052894 0.052649 0.066004 -0.039808 0.009862 0.036354 -1.258337 -0.062744 0.026288 -0.081055 -0.031301 -0.287558 0.070354 0.001522 0.071593 -0.021214 0.090846 -0.001581 0.091858
-0.090726 0.065101 0.040421 0.317250 -0.048844 0.041342 0.108947 -0.034194 -0.062864 -0.127804 0.050662 -0.063835 -0.170078 -0.040042 -0.038100 0.012240 -0.042055 0.224829 0.061634 -0.010098 -0.043470 0.052187 -0.014561 0.080018 -0.094766 -0.032621 -0.355790 0.089168 -0.136371 0.095945 0.006639 -0.072594 -0.004591 0.014487 -0.046492 0.089008 -0.084721 0.017445 -0.064289 0.106033 0.050598 0.020392 -0.912377 0.086410 0.052873 -0.014997 -0.058374 -0.002492 -0.042125 0.007773 -0.075256 0.033000 0.104477 -0.072773 -0.025101 0.050361 0.053360 0.092844 -0.016937 0.056680 -0.027058 0.016330 -0.030283 0.095622 -0.005964 -0.000655 -0.086924 0.053748 -0.097869 -0.005517 -0.071223 -0.020966 -0.021509 -0.059684 0.001200 0.058534 -0.055727 0.113198 -0.060710 -0.054113 0.052097 -0.019310 0.070053 0.100529 -0.021650 -0.001390 0.007536 0.040334 -0.000710 0.081891 0.022580 0.043837 -0.017713 0.013082 -0.137420 0.103386 0.091371 -0.034167 0.083204 0.068652 -0.032363 0.078466 0.120940 0.100706 0.063739 0.204314 0.016376 0.089078 0.044854 -0.308504 -0.032955 0.025244 -0.049373 0.238826 0.004529 -0.025870 0.070320 -0.070066 0.067014 -0.000939 0.036609 0.000172 -0.006309 -0.030739 0.036512 -0.065446 -0.111230 -0.025309
-0.065420 -0.160342 -0.054316 1.201268 -4.598649 0.071886 1.105770 0.013386 -0.002201 -0.949395 -0.052207 -0.077683 -0.033986 0.086323 0.090366 0.047282 0.081735 3.221273 -0.019438 -0.067260 -0.078010 -0.194198 0.233851 0.141524 0.919000 0.955359 0.164799 -0.232167 0.094994 0.365385 0.384062 -0.133278 -0.453149 0.205679 -0.052371 0.007671 0.006475 -0.095773 -0.014176 3.731707 0.096860 -0.079640 0.435400 0.734098 0.056896 0.085618 -0.078049 0.036261 -0.428392 0.167645 -0.786625 0.506341 -0.136321 0.031624 -0.008618 0.000702 0.106816 0.104122 -0.071072 0.513394 -0.063102 -0.035707 -0.033783 0.080111 -0.069880 0.024833 0.871820 -0.101396 -1.064154 -0.544776 -0.062847 -0.008366 0.047569 -0.181524 0.233242 -0.027559 -0.088449 0.063285 -0.366920 -0.009120 -0.090641 0.028267 -0.008433 0.067703 -0.164538 -0.208791 -0.023096 -0.027694 -0.036504 -0.028630 -0.183732 0.044446 1.077229 -0.092844 0.063721 -0.042393 0.084873 -0.881411 0.009953 0.029565 0.000402 -0.075605 0.052991 -0.046979 0.079780 -0.149318 0.007323 -0.329814 0.026290 -0.073581 0.952208 0.115021 -0.046715 1.013365 -0.153070 -0.805572 -0.060817 0.153046 0.153178 1.640236 -0.474805 0.046499 -0.194744 0.101172 0.640766 0.777252 0.071051 -0.082953
-0.045364 0.071723 0.079466 0.014108 -0.010043 -0.050818 0.033672 0.061592 -0.354589 0.102765 0.010598 0.071633 0.063691 0.006530 0.109694 0.062546 0.068216 0.006487 0.014026 0.029807 -0.044049 0.530683 -0.381255 0.065138 0.192566 -0.001761 0.216038 0.048072 -0.201565 0.034738 0.294776 0.020367 0.251190 -0.043368 -0.055164 -0.068052 -0.040193 -0.078583 -0.030066 -0.169034 0.114541 0.028998 0.149570 -0.022545 0.033708 -0.001282 0.068600 -0.017665 -0.229777 -0.185721 0.017869 -0.250915 0.456691 0.076831 0.081777 -2.666003 -0.051854 -0.058642 0.054763 -0.102223 -0.020158 -0.022081 0.014284 -0.403783 -0.066125 0.015688 -0.073374 0.101047 -0.319673 0.045454 -0.004106 -0.111709 -0.092132 -0.046697 -0.108642 -0.006732 -0.060470 0.035751 0.443057 0.001966 -0.058777 -0.066568 0.130867 0.094442 -0.097600 0.047816 0.067922 -0.276955 -0.078123 0.004277 -0.081400 0.100658 -1.725479 0.005139 -0.006316 0.091613 0.020216 -0.093184 0.071026 -0.025608 -0.003757 0.094987 0.012415 -0.017046 -0.034997 0.024112 -0.102558 0.028816 -0.103598 0.356529 -0.018438 1.888556 4.650274 -0.030132 0.031962 0.592001 0.036472 0.086650 0.092608 -0.018555 0.020002 0.435625 0.025317 -0.080224 -0.418374 0.155157 0.046985 -0.116389
-0.003941 -0.071289 -0.100230 0.325170 0.014285 0.026150 0.016796 -0.035253 -0.098280 0.083996 -0.037075 0.094685 -0.700146 0.046625 -0.011751 0.040863 0.081978 -0.001033 -0.085903 -0.037455 0.055950 0.012063 0.229500 -0.121951 -0.007317 -0.045812 -0.088933 -0.074610 -0.557289 0.016791 0.024681 -0.006728 -0.012693 -0.106172 0.006399 -0.092523 -0.070280 0.445749 0.074721 0.081779 -0.029505 -0.021731 -0.325370 -0.023333 -0.044415 -0.043870 -0.214428 -0.051235 0.075603 0.159072 -0.038355 0.056681 0.023768 0.053623 -0.008608 1.013161 -0.106312 0.059422 -0.021472 0.074269 0.042113 -0.040039 0.073388 -0.086904 -0.037921 0.012809 -0.249469 0.095998 -0.017662 -0.008296 -0.059694 0.499572 -0.024238 0.037452 -0.284935 -0.070543 0.110322 0.037691 0.041314 0.049189 0.064150 -0.065937 -0.053167 -0.086006 0.759865 0.015134 -0.043764 -0.059265 0.074495 -0.074784 0.013204 -0.102505 0.274525 0.057292 0.020643 0.079871 0.033107 -0.094746 0.018345 0.018700 -0.073462 0.192792 0.004838 -0.039440 0.066899 -0.062955 0.057205 -0.051005 0.095494 -0.044054 0.124143 -0.476156 -0.242057 -0.036443 -0.051154 0.013216 -0.062646 0.112826 0.014023 0.053939 0.517906 0.082958 0.156656 0.120093 -0.099626 0.240687 -0.661917 0.063708
-0.040568 0.019161 -0.085511 -1.447311 0.057519 -0.109652 0.775297 -0.035616 0.015606 -0.014211 0.175010 0.064834 0.017169 0.067217 -0.101415 -0.051565 -0.011019 0.060197 -0.008647 -1.408476 -0.033458 0.144320 -0.007119 -0.070673 -0.084077 -0.010105 -1.007541 0.053267 -0.166941 0.020731 -0.064811 -0.029285 0.075111 0.196044 -0.096963 -0.030603 -0.008692 -0.013581 -0.008699 -0.080472 0.410773 0.005308 0.052929 -0.119017 -0.042772 0.089234 -0.063470 0.076589 -0.032698 -0.047097 -0.045406 0.029761 -0.040247 0.074652 -0.050483 0.065413 -0.028939 0.004331 -0.000304 -0.214546 0.032678 -0.014759 -0.073775 0.195987 0.042892 -0.122626 -0.050445 0.660003 0.008418 0.052907 0.040172 -0.038570 0.065951 -0.033344 0.064254 -0.019659 0.054721 0.030892 0.216628 -0.041768 0.520641 0.103905 -0.007107 0.045315 -0.037298 0.056247 -0.250426 -0.043825 -0.053472 0.106921 3.654836 -0.108968 -0.030100 0.085305 -0.042720 -0.093065 0.096070 0.167246 0.010053 0.022329 -0.006354 -0.076416 -0.098804 0.060531 0.146444 1.222970 -0.039315 -0.083568 0.054045 -0.103284 0.037108 -0.015736 0.075747 -0.026016 0.024691 0.172006 0.097200 0.031175 -0.100180 -0.250663 0.515846 -0.030298 -0.448761 0.114849 0.024057 -0.714609 -0.067780 -0.095625
0.021847 0.059286 0.071707 0.098380 0.022535 -0.085636 0.001240 0.070496 -0.054368 -0.066082 -0.019353 -0.045960 -0.102033 -0.081124 0.008420 0.077315 0.038026 0.061565 0.039630 0.029206 0.084621 0.038288 -0.115906 -0.005566 -0.061340 0.035255 -0.106174 0.075127 -0.346515 0.029587 0.001261 -0.026578 0.028747 -0.038715 -0.067481 0.005971 -0.018439 -0.005181 0.067320 0.121714 0.087763 0.034300 -0.008744 0.065025 0.047984 -0.045028 0.103507 0.049926 -0.007541 -0.003015 0.075540 -0.041492 0.078343 -0.059408 0.046780 -0.016864 0.038869 -0.024009 0.053260 -0.113273 -0.055061 -0.021343 -0.118847 0.112509 -0.010363 0.073496 0.057486 -0.050645 0.042632 0.025878 -0.068135 -0.037057 0.084929 -0.073912 0.041600 -0.052568 -0.078718 0.011432 -0.122131 0.007598 0.143660 0.038355 -0.091850 0.083052 0.075065 0.056480 -0.117358 0.073796 0.047542 -0.045218 0.109402 -0.110558 0.028294 0.019693 -0.104075 0.054324 -0.064412 0.041521 -0.068762 -0.013819 -0.001606 0.009357 0.023785 -0.028323 0.109446 -0.050561 -0.035625 0.084518 0.047775 -0.008297 0.060764 -0.045092 0.046768 0.336674 -0.069698 -0.206149 -0.010952 0.052230 -0.072477 -0.011780 0.043637 -0.088498 0.063130 0.062935 0.094365 0.082241 -0.033511 0.068029
2.200020 0.025877 1.058146 1.164555 -0.223026 0.069925 -0.059769 0.091150 0.567653 -0.043994 0.020058 -0.350256 0.031721 -0.073737 0.111514 -1.330375 0.597435 -0.051686 -1.162831 0.074281 -0.495161 -0.080501 -0.016696 0.212107 0.055620 -0.098386 -0.073496 0.189705 0.117433 0.172591 0.039107 -0.042802 0.247727 -0.056071 1.447501 0.336436 -0.096588 0.500314 0.541811 -0.396484 0.226455 -0.182086 -0.641145 0.063139 -0.108287 -1.125440 0.084810 -0.127308 -0.042978 0.183905 -0.095805 0.254194 -0.025840 -1.276804 -0.030546 -0.115712 -0.015631 0.255949 0.053007 0.009775 0.045134 0.058215 -0.326467 0.035923 0.668622 0.088486 0.258486 -0.400225 -0.055971 0.291962 0.179013 -0.045947 -0.058954 0.249427 -2.329854 0.271502 -0.022466 0.227295 0.106447 -0.099632 0.051038 0.066619 0.397128 -0.282739 0.768778 -0.227007 -0.030305 0.199636 -0.515871 0.039583 -0.102178 -0.003277 0.018458 0.049525 -0.067833 0.014314 -2.446125 -0.114308 0.013723 1.503587 -0.079191 0.081898 0.717823 -0.094602 -0.398781 0.600528 2.703293 -0.021847 0.099973 -0.038801 -0.195134 1.362188 0.398061 0.007492 0.328586 0.105791 2.037200 -0.551941 -0.046899 0.154360 0.062084 -0.567795 0.322380 0.059020 -0.131381 -1.518839 -1.100932 0.023358
-0.076412 -0.073132 -0.040881 -0.240146 -0.083397 0.023098 0.093847 -0.166517 0.097489 0.016421 0.067728 0.027059 0.061836 0.003391 -0.127110 -0.042987 -0.069507 -0.070237 0.049792 -0.087788 -0.013726 -0.081707 0.032245 0.065457 -0.011428 -0.027004 -0.213963 0.081088 -0.269154 0.075826 0.070681 -0.072874 0.036671 0.132161 -0.056359 0.003582 -0.050629 0.107070 0.105701 0.039071 0.025326 0.062793 0.065902 -0.011282 0.047193 -0.036891 0.035364 0.037780 0.051585 0.006313 0.069150 0.048403 0.116520 -0.055026 0.045355 0.144159 -0.053474 0.010149 0.063520 0.085277 0.003272 0.071795 -0.068208 0.073937 -0.017887 -0.097166 -0.009342 -0.070903 0.028212 -0.003985 -0.108077 -0.019718 -0.014837 0.041987 -0.021183 0.076242 -0.086972 -0.004132 0.016733 -0.045666 0.060000 0.019518 -0.050309 -0.058408 0.011886 -0.020218 0.037906 -0.056427 -0.039851 0.008950 -0.004747 -0.102642 -0.060829 -0.011677 -0.072638 -0.008574 -0.033744 0.083314 -0.044654 -0.012587 -0.058199 -0.096125 0.113555 0.025511 0.090531 -0.000505 0.081525 -0.044079 0.100965 -0.070941 -0.097174 -0.120668 -0.129939 0.112376 0.025890 0.088353 0.058187 0.023842 -0.096035 -0.002944 -0.132852 -0.044200 0.016190 0.077519 -0.049125 0.234152 -0.002131 0.072968
0.095055 0.050623 -0.088734 -0.172948 0.111443 -0.096202 0.068864 0.028776 -0.034984 0.068830 -0.004202 0.051318 0.052760 -0.007352 -0.018379 -0.053106 0.010676 0.083941 -0.015489 0.099773 -0.011686 0.057520 0.061648 -0.112194 0.016366 -0.235408 0.142188 -0.121847 0.340087 0.319108 0.067601 -0.431090 0.057329 -0.010872 -0.035685 -0.055561 -1.219498 -0.013026 -0.094496 -0.104816 -0.269496 -0.055602 0.225520 0.088831 -0.050335 -0.091385 -0.093961 -0.046428 -0.004064 -0.077609 0.096879 -0.007611 0.067059 -0.099788 -0.045404 0.047416 0.049816 -0.005941 0.000910 0.100280 -0.043122 -0.031222 2.452645 -0.070633 0.020782 -0.063681 0.116708 0.042378 0.015033 -0.076038 -0.090783 0.068889 0.040774 0.129343 -0.067341 -0.012882 -0.051883 0.008995 0.015516 0.038774 -0.088264 -0.004948 0.089056 0.050293 -0.087410 0.107547 0.068707 -0.062040 -0.006701 -0.069437 -0.074510 0.038093 -0.029669 0.042358 0.159620 0.019198 -0.078890 0.069636 0.012998 -0.021684 -0.070876 0.066002 -0.136576 -0.077864 -0.005595 -0.046554 -0.045579 -0.030964 -0.076160 0.072892 -0.180029 -0.032640 -0.025357 -0.147859 -0.011004 -0.091103 -0.034246 0.121644 -0.025563 -0.082200 -0.185953 0.062732 -0.062297 -0.057497 0.047464 0.323985 0.077566 -0.043718
0.014646 -0.024401 0.030166 0.034129 0.031504 -0.080834 -0.054369 0.011254 0.106493 -0.017454 0.040849 0.006561 -0.001626 0.147603 -0.037267 0.050974 -0.042280 -0.159103 -0.055911 0.001151 0.114738 0.064302 -0.113216 -0.032324 -0.062399 -0.041073 -0.124262 0.085240 -0.024456 0.116576 0.046538 -0.118053 0.012070 -0.112807 0.059251 -0.019770 -0.084710 0.042080 0.022635 -0.014679 0.051217 0.114251 -0.137543 -0.044672 0.078514 0.086612 0.108358 -0.020998 -0.033406 0.024627 -0.066271 -0.028097 0.111275 0.053203 0.077715 0.041985 0.076956 0.038344 0.096915 0.032528 0.001463 0.011200 -0.249233 0.095487 -0.009481 0.068725 -0.092898 0.025439 -0.043198 0.048461 -0.047741 -0.099295 0.096401 -0.040719 0.070094 -0.036928 -0.071089 0.136151 -0.012194 -0.115628 0.085751 0.015013 -0.053068 -0.012888 -0.046775 -0.118563 -0.111234 0.039226 -0.053492 -0.107883 0.032117 -0.041073 -0.022159 -0.003018 -0.275857 0.079812 0.079057 0.053176 -0.053715 0.085769 -0.012174 0.054156 -0.009230 -0.024996 -0.029738 -0.240286 0.075546 0.051464 0.099497 0.020010 -0.044147 0.048868 0.074388 0.063911 0.032345 -0.097115 0.055391 -0.077638 0.012228 0.115841 0.180058 -0.033675 0.111002 -0.198737 -0.206826 -0.045425 -0.026986 -0.115296
0.003289 0.088525 -0.064110 -0.101485 0.032806 -0.062595 0.110989 0.024952 0.121798 0.032443 0.066747 0.013691 -0.038626 -0.040466 -0.020099 -0.032002 -0.077129 -0.129619 0.093475 0.052008 -0.035856 0.133228 0.006917 0.049403 0.047442 0.082432 -0.071983 -0.007398 -0.013608 0.113355 0.055304 0.039422 -0.021368 -0.042251 -0.010215 -0.008114 -0.095173 -0.002202 -0.029166 -0.041141 -0.039856 -0.030429 -0.037708 -0.073667 0.027585 -0.033892 0.044857 -0.057293 -0.141806 -0.113065 0.025373 0.022363 -0.070097 -0.044539 -0.047534 -0.025858 0.048718 0.071076 0.057686 0.047292 0.118100 -0.037740 -0.032477 0.095622 0.047033 -0.007098 -0.023240 0.009861 0.030690 0.018406 -0.066423 -0.092577 0.057283 0.020247 0.050386 0.083784 -0.180468 0.006212 0.029272 -0.028120 0.131999 0.017179 -0.053405 -0.039072 0.018838 -0.014002 0.049490 0.044068 -0.055122 -0.018174 0.086854 -0.017373 0.014792 0.068598 -0.060809 0.015068 0.053011 0.005487 0.017193 0.004729 -0.061967 0.055236 -0.023352 -0.013293 0.089033 0.060986 0.083814 0.103550 0.064566 -0.037008 0.002355 0.002625 -0.023638 -0.050299 0.018923 0.026155 -0.016312 0.025928 -0.108294 0.021815 -0.006398 0.058106 0.051570 0.036975 -0.024917 0.029129 0.031565 0.027136
0.082192 -0.052724 0.047824 0.176262 -0.142863 -0.100964 -0.095882 0.040440 -0.037217 -0.139604 0.010709 0.014166 -0.058275 -0.123022 -0.088595 0.025341 -0.037362 0.057059 -0.071697 0.063251 0.082356 0.075416 -0.086250 0.057124 -0.044469 0.114010 -0.020061 -0.023710 -0.078768 0.025541 0.051425 -0.008673 -0.019371 0.178126 0.029815 -0.007313 -0.020550 -0.028292 -0.047355 0.010046 -0.073369 -0.038483 -0.103296 -0.046711 -0.049574 0.001527 -0.093373 0.062432 -0.029826 -0.088240 -0.003407 0.058172 0.084698 0.055014 -0.079316 0.079289 0.022101 -0.023407 -0.075821 0.021963 -0.013839 -0.005693 0.024142 -0.040112 0.087257 0.069699 0.051350 -0.006568 -0.040495 0.097393 -0.081313 -0.026504 0.045506 0.036997 -0.014513 0.061541 0.057707 -0.046346 -0.106540 -0.005036 -0.074788 0.211059 -0.012094 -0.026266 0.069515 -0.064909 -0.025960 -0.029273 0.090032 -0.075862 -0.189644 -0.044110 0.059999 -0.042173 0.054492 0.052635 -0.041805 -0.072438 -0.055374 0.036021 0.064594 -0.049237 0.105265 -0.008056 0.060395 -0.176449 0.079618 -0.034157 -0.029265 -0.243309 0.028386 0.003512 0.009649 0.090664 0.096127 -0.042797 -0.035069 -0.051058 0.068842 -0.027881 -0.305370 -0.011999 0.032523 0.015765 0.156593 -0.176919 0.004538 0.017268
-0.052824 0.053992 0.027050 -2.469689 0.182581 0.078861 0.611845 -0.003092 -0.063305 -0.191172 -0.038727 -0.044387 0.320555 0.018836 -0.073132 0.012004 0.057879 0.086727 0.021488 -0.556538 -0.072854 1.129692 -0.102844 0.034891 0.057791 -0.048199 -0.350723 -0.069570 -0.013086 0.004018 -0.019601 -0.032227 0.004755 0.105771 0.019253 -0.112694 -0.021380 -0.033012 -0.035321 0.014825 0.436250 -0.055371 0.125217 -0.107431 -0.041638 -0.049520 0.035629 -0.089237 0.095800 -0.044545 -0.393455 -0.038419 -0.062520 -0.028407 -0.026893 -0.089363 0.421028 0.037709 -0.017062 -1.135217 0.210050 3.035927 0.003145 -0.025095 0.034316 -0.228432 -0.400869 0.211220 -0.044892 0.027506 -0.051773 0.008590 -0.035477 -0.046882 0.616828 -0.056823 0.044057 -0.039082 0.061223 0.001640 0.725185 0.018674 0.011337 -0.065882 0.097742 0.072624 -1.368502 0.026408 0.112143 -0.104688 5.679605 -0.015180 0.024998 0.768461 0.087234 -0.026412 -0.024207 0.314931 0.050368 -0.032017 0.064593 -0.005753 -0.107367 -0.121047 0.018790 0.790340 0.071278 -0.083603 -0.093726 0.776859 -0.048714 0.062670 0.094353 -0.008015 -0.009398 0.102984 -0.101398 -0.067036 0.096131 -0.028460 -0.019297 0.090839 -1.277476 -0.075903 0.098764 -0.007832 0.059435 -0.019907
-0.097762 0.113105 0.047468 0.735294 0.050005 0.049388 -0.055378 -0.008485 -0.060419 -0.082528 0.028405 -0.093584 0.013818 -0.037203 0.031585 0.077647 -0.062581 0.039193 0.082798 0.065606 0.032274 0.010120 -0.088825 0.028867 -0.030586 -0.007444 -0.020762 0.154237 0.026010 -0.001991 -0.087340 0.071700 -0.037997 0.020819 -0.087396 0.024691 0.001646 0.081625 0.130068 0.028519 0.076781 -0.057115 -0.124891 -0.056347 0.003616 -0.034898 0.049956 0.003024 -0.085940 -0.091007 0.004834 0.045326 0.042035 0.006573 -0.060900 0.018002 -0.008362 0.085801 0.059404 0.039817 0.047757 0.108341 -0.209932 -0.019353 -0.007866 0.021779 0.049224 -0.096312 -0.023640 0.071348 -0.029513 0.068269 0.060914 0.016783 -0.055383 -0.044758 -0.066491 0.196195 -0.099651 -0.108118 0.100064 0.065709 -0.083720 0.020259 -0.005500 -0.054109 0.048091 -0.051913 -0.117402 0.002278 -0.011993 -0.126043 0.028388 0.086756 -0.061427 -0.030145 0.010011 -0.022073 0.023442 0.008578 -0.042901 0.057430 0.080368 0.061170 0.064361 -0.033530 0.057822 0.160054 0.109224 -0.045700 -0.039053 0.030956 0.060283 0.149504 -0.007251 -0.081516 0.024180 -0.089161 -0.037061 0.017691 0.465171 0.065397 -0.089641 -0.012932 0.025269 -0.129025 -0.001228 -0.092796
-0.062645 0.055829 0.028137 0.315244 -0.122667 -0.089541 0.023952 0.073949 -0.001981 0.031935 0.103408 -0.228596 -0.086582 0.598825 -0.025897 0.016740 0.011033 0.018241 -0.046956 0.043283 0.125374 -0.019385 -0.059599 0.069996 0.060980 -0.242251 -0.038791 0.072841 -0.015140 -0.043410 -0.104122 -0.077423 0.057696 -0.019932 -0.044980 -0.040998 -0.061651 0.154319 0.058060 0.183420 0.117300 -0.024393 -0.135163 0.076541 -0.059276 -0.025653 0.085844 0.016540 0.009541 -0.074428 -0.073106 0.031122 0.008142 0.027166 0.031888 -0.063183 0.059722 0.002104 -0.050549 -0.026667 0.008160 0.038267 -0.300944 0.002303 -0.055068 0.010838 -0.046005 -0.077230 0.009884 0.112416 0.193580 -0.010777 0.092449 -0.051763 -0.023443 0.013302 0.059907 0.034334 0.042356 -0.055302 0.015885 0.023432 0.018106 0.008755 0.042961 -0.036408 0.072917 0.075053 0.051775 -0.083380 0.087023 0.005847 -0.080754 0.075050 -0.116021 -0.097419 0.021986 -0.034981 0.079149 -0.033225 -0.094739 0.073378 -0.032846 0.051850 0.005396 -0.158459 0.062248 0.093795 0.072486 0.014110 0.005437 0.029524 0.091102 0.157886 -0.040274 -0.077444 0.012134 0.095402 0.084121 0.029744 0.129223 0.008727 0.083549 0.022468 0.022140 0.017188 -0.035120 -0.042428
0.119157 -0.061578 0.222351 0.839159 -0.357405 -1.941977 -0.098911 1.605060 -0.110112 -0.914617 -0.162314 -3.169100 -0.177111 0.046432 -0.004851 -0.031099 -0.168313 -0.020645 -2.378499 0.106313 -0.720037 -0.184709 -0.052503 -0.119401 -0.629941 -0.253736 0.028185 -0.112278 -0.018253 -1.415030 -0.327701 -0.092910 0.232560 0.053623 -0.257483 11.968896 -0.866371 0.821237 0.573214 0.121436 -3.153683 -0.712550 0.043167 0.275536 0.279075 -4.520743 0.195555 -0.262319 -7.562170 0.192652 -0.092941 -0.003884 -0.201019 -2.041365 0.022984 -0.006785 -0.044967 -0.091804 -0.007653 0.008595 -0.123960 -0.143309 -0.093984 -0.018945 0.296631 0.366637 0.036524 -0.148333 -0.309126 -0.761959 -0.018938 0.438681 0.212481 0.004408 -0.547436 0.079546 0.010495 0.029217 -0.101526 -2.324669 -0.112335 -0.103832 0.136282 -2.196585 -0.015379 -0.469101 0.041315 0.078363 -1.073248 -1.288972 -0.005273 3.084543 -0.139243 -0.137649 -0.034148 0.059379 1.782408 -0.080656 -0.025111 4.755702 -0.278342 0.140621 0.237549 0.559932 -10.229184 -0.556399 0.199226 0.076162 2.157618 0.051246 -0.665593 -0.097501 0.047955 -0.014147 -2.685644 -0.332937 2.628586 -0.485568 0.278742 0.834544 -0.204861 -0.038906 -0.279283 0.634560 0.565223 -1.093640 -0.879836 -0.047522
0.044597 -0.070263 -0.037062 0.045921 0.109807 -0.158963 0.073292 -0.013852 -0.027750 0.057486 0.087295 -0.072367 -0.062049 -0.093931 0.090578 0.067784 0.043729 0.147097 -0.087344 -0.164218 -0.061450 0.039245 0.030097 -0.003203 -0.025270 0.008447 -0.154432 -0.005837 0.027678 0.123015 -0.060840 -0.221381 0.074200 0.029402 0.066138 -0.075635 -0.226134 -0.030020 -0.030583 -0.071451 -0.020848 -0.059279 -0.076253 0.002107 -0.101377 0.008092 0.044468 0.043762 0.031566 -0.079536 0.035460 0.081475 0.053381 0.105651 0.087186 0.083204 -0.006375 -0.056047 0.015496 0.028585 -0.000841 0.082037 -0.117323 0.059616 -0.084209 -0.060744 0.038282 0.073443 0.000868 -0.026634 -0.085137 0.051822 0.020372 -0.059332 -0.174776 0.035159 -0.060812 0.011523 0.068156 -0.034163 0.050330 -0.032536 0.011418 0.005318 -0.061419 0.059215 -0.003678 -0.059593 0.047418 0.155942 0.151113 0.006236 0.075695 0.077244 0.115117 -0.096980 0.016098 -0.021565 0.018450 0.042269 -0.061338 -0.059567 0.034013 -0.045164 0.074622 0.184439 -0.085978 0.038968 -0.021995 -0.744915 0.063278 -0.048963 -0.119293 0.181519 -0.048090 0.011739 0.038602 0.025077 -0.053099 -0.018219 0.118545 0.064782 -0.003518 -0.029699 0.004333 0.010550 -0.052043 -0.027551
2.049927 -0.098826 0.977957 0.397938 0.921263 0.129295 0.023632 -0.083260 0.162272 -0.004523 -0.023021 -0.009596 -0.472182 0.010319 0.058807 -0.118743 0.769143 -0.312538 -0.010971 -0.154180 0.422735 -0.053899 -0.070078 -0.449082 0.539526 0.255809 -0.081434 -0.128336 0.020742 -0.386480 0.285018 0.344122 0.005310 0.029288 -0.112116 -6.124466 0.814864 0.187486 -0.456836 -0.043831 -1.260738 0.397498 -0.099023 0.206524 1.470863 1.619112 0.073923 0.018032 3.522726 -0.179963 0.293678 0.722533 -1.644192 1.728169 0.075507 0.042788 -0.022505 0.737557 -1.640951 -0.017242 0.609040 -0.030549 0.079601 -0.042594 0.030585 0.322313 -0.556404 -0.435339 -0.044201 -0.744760 0.073696 -0.195752 -0.236420 -0.448298 1.733491 0.133555 0.551200 -0.051649 0.094087 0.613630 0.108812 0.061854 -0.087140 3.784152 0.114525 0.080947 0.040663 -0.555207 -0.045985 0.680049 -0.043402 -0.750950 -0.074169 0.078233 0.069401 -0.008102 -0.777414 0.120345 -0.061408 -6.822650 0.083171 -0.106843 0.053233 -0.084832 0.777642 2.887621 -0.188631 -0.032195 0.451886 0.016516 -0.331521 -0.357384 -0.063066 -0.183632 0.224991 -0.040375 -0.365656 -0.130717 -1.498946 -0.113663 1.966285 0.018742 0.233715 0.228059 -0.041457 0.696908 0.891469 -0.002385
0.058860 0.040350 0.042864 0.368289 -0.113749 0.095754 -0.254408 -0.024838 -0.030102 -0.074975 -0.000678 0.033667 -0.048104 -0.105305 0.116313 -0.146639 0.001540 -0.120655 -0.065479 -0.007127 -0.000479 -0.006327 -0.035228 -0.107849 -0.006552 -0.085944 0.003548 -0.047441 -0.039357 -0.039943 0.019686 -0.005769 0.097518 -0.272834 -0.044252 -0.031041 0.153395 -0.028740 -0.000193 -0.017762 0.126182 0.032422 0.693475 -0.039901 -0.039249 -0.083492 0.041011 -0.081418 -0.071538 0.204905 0.101778 -0.081254 -0.110628 -0.095240 -0.061512 -0.036588 0.055669 -0.004164 -0.136372 0.705852 -0.037857 -0.105900 0.087466 -0.017778 -0.108520 0.378106 -0.092491 0.075179 -0.098149 -0.005466 0.053580 0.133946 -0.060616 0.103647 0.314119 -0.050895 0.108100 -0.023544 0.016491 0.070441 0.008194 0.124075 0.140576 -0.011462 -0.113238 0.001357 0.111265 -0.086221 0.097123 0.035335 -0.046064 -0.056022 -0.122208 0.007068 0.074932 0.148225 0.038803 0.029092 -0.147513 0.018882 0.055196 0.014736 -0.037922 0.067055 -0.044675 -0.106436 -0.030813 -0.103190 -0.038613 0.033215 -0.095237 -0.022458 -0.066173 -0.005536 0.033346 -0.620122 -0.035361 0.058052 0.032073 -0.054466 -0.028749 -0.065421 -0.048671 -0.036285 -0.222162 0.045405 -0.070682 -0.060971
-0.040086 -0.033465 -0.076140 0.078197 0.221405 0.052020 0.039098 0.074122 0.053277 0.004851 -0.020241 0.006248 0.038071 0.002560 0.064700 0.010652 0.001339 0.127548 0.064294 0.047611 0.006366 0.131912 0.061973 -0.057094 0.042828 0.038782 0.084825 -0.038048 -0.050960 -0.092255 0.047983 -0.006672 0.061841 0.037228 -0.019476 -0.084019 0.082085 0.095529 -0.073062 0.018597 0.042764 0.016473 -0.129146 0.027489 -0.092570 0.046182 -0.094715 0.027690 0.017405 -0.145182 -0.025999 -0.026208 0.020073 0.032912 -0.033816 0.482755 -0.100445 -0.019290 0.079192 -0.023858 0.039002 0.036754 -0.072205 0.018843 -0.080871 0.005421 0.056218 -0.040674 0.104652 0.007527 -0.068137 -0.160516 0.058057 -0.014647 -0.151675 -0.036627 -0.054564 0.067973 -0.054462 0.007066 -0.066291 0.046734 0.096649 0.066920 0.027752 -0.028639 0.088291 -0.007260 0.080312 0.078520 -0.012981 -0.078465 -0.084445 -0.082046 0.000709 -0.065047 0.023403 -0.095984 0.080497 0.027463 0.079502 0.020406 -0.052931 0.057849 0.031843 0.062590 -0.036328 -0.097952 0.033612 -0.175968 -0.065916 -0.060170 -0.068681 0.052864 0.027537 0.101970 -0.015112 0.089667 -0.059300 -0.043961 -0.015725 0.021640 -0.112638 -0.035856 -0.069857 0.000462 -0.061738 -0.072801
-0.052663 -0.037695 0.053658 -0.082037 -0.021878 -0.028075 0.115030 -0.112916 0.113955 0.073327 0.050436 -0.071106 0.053104 -0.052820 -0.034036 0.087929 -0.100234 0.024795 0.072082 -0.032667 -0.019541 -0.000957 0.056982 -0.060842 0.076424 0.066457 -0.056718 0.020949 -0.039258 0.016490 -0.061957 -0.093035 0.053399 0.047788 -0.009799 -0.041369 0.051678 0.034610 0.090466 0.029874 -0.013481 -0.054038 -0.059144 -0.024628 -0.037280 0.094129 0.015898 -0.010454 0.036123 -0.013467 -0.002730 0.061031 -0.007251 -0.003316 -0.065909 0.094681 0.003440 0.023969 0.038178 0.002104 0.057002 0.073231 -0.000143 0.110722 0.091694 -0.042786 0.000215 0.000082 0.044094 -0.057659 0.019996 -0.061960 0.109568 0.035776 0.052592 0.065255 -0.053648 0.010235 -0.003395 -0.086806 0.073540 0.056988 -0.036780 0.027487 0.059079 -0.007785 -0.085169 0.009527 0.074462 0.096549 -0.006270 -0.101945 0.108346 0.077850 0.044528 -0.046151 -0.065179 0.095789 0.080524 -0.029764 -0.111057 -0.044987 0.038498 0.027398 0.048816 0.090634 0.011730 -0.067262 -0.014802 0.083676 0.060033 -0.075116 0.012481 0.037867 -0.006786 -0.067666 0.103271 0.012173 -0.104371 -0.039493 -0.057061 -0.064356 0.007154 0.008143 0.018114 -0.015683 -0.034340 0.018566
0.099413 -0.102775 -0.106627 0.076333 0.019700 0.088811 -0.043395 0.127973 0.067279 0.089995 -0.129229 -0.039195 0.080332 0.010838 0.164688 -0.019125 0.043592 -0.055868 -0.069531 -0.039356 0.055467 -0.055033 0.072167 0.063156 -0.021250 -0.020234 0.120613 0.039937 0.104090 0.047716 0.041575 0.014366 0.026987 -0.011765 0.000268 0.001411 0.092788 0.062183 -0.069029 -0.019543 -0.089431 -0.060524 0.051358 0.045096 -0.093364 -0.049527 -0.019265 -0.132743 0.034115 0.008120 -0.102554 0.002483 -0.041990 -0.029251 -0.054358 -0.106184 0.037527 0.020411 -0.089622 0.022204 -0.069331 -0.124365 0.041610 0.001399 0.041369 0.107157 0.032742 0.103309 -0.185828 -0.087920 0.018888 0.073371 0.057158 -0.046934 -0.074706 0.014829 0.040852 -0.081835 -0.063304 0.005536 0.061273 -0.047503 0.177920 -0.091281 0.070106 0.056063 0.098434 0.030127 0.040553 -0.110930 -0.099220 0.056230 0.031114 -0.077491 -0.006410 0.033017 -0.086911 -0.100305 -0.086189 -0.013904 0.094569 0.130531 -0.063261 0.005510 -0.020066 0.033525 0.007470 0.016508 -0.090895 0.042575 0.083588 0.045622 -0.052314 -0.060070 -0.035024 -0.052442 -0.076473 -0.023666 0.064433 -0.085923 0.068442 -0.058570 0.072286 -0.069170 -0.029353 -0.159330 -0.000801 0.025207
-0.046762 0.261697 -0.032526 0.294766 0.225947 -0.236904 0.030432 -0.068917 0.041259 0.016051 0.023323 -0.015381 0.046514 -0.256067 -0.021921 -0.086081 -0.678252 0.345474 -0.090305 -0.077928 0.007670 0.167113 0.111563 0.043941 0.023136 -0.182415 0.032756 -0.012976 -0.162612 0.126219 0.042996 -0.355223 0.387048 0.040928 -0.115319 -0.146205 0.013136 0.017025 0.087874 -0.160925 -0.376984 0.009063 -0.290503 0.081361 -0.017295 0.503495 0.213759 0.003285 0.032137 -0.117391 -0.040818 -0.178609 0.348615 0.017739 0.035382 0.017466 0.392396 -0.045545 0.005617 0.322167 -0.103825 -0.002326 -0.002852 0.030088 0.119055 -0.056659 0.035192 -0.750371 0.010029 -0.105790 -0.035974 -0.059277 0.130778 0.025456 -0.540142 0.004738 -0.070198 0.126809 -0.246175 -0.041633 0.002623 -0.012213 0.087228 0.088814 0.088344 -0.184911 -0.068133 -0.106985 0.062620 0.013541 -0.073708 -0.067936 -0.032996 -0.107925 0.656464 -0.059503 -0.035035 0.053083 0.008126 -0.080853 0.005457 -0.092712 -0.040675 -0.050629 -0.000184 -0.252822 0.165800 0.059605 -0.133986 0.012751 -0.033874 0.042855 0.226936 0.087094 0.021133 -0.045995 0.039864 -0.006666 -0.058865 -0.096303 -0.187234 -0.322471 -0.049138 -0.061202 0.239782 -0.010334 -0.048693 0.064842
0.040241 0.075713 0.098421 -0.094844 0.011924 -0.114730 -0.043963 -0.015555 0.064258 -0.319855 0.100346 -0.195728 -0.090010 -0.006230 -0.033627 -0.064134 0.315954 3.602375 -0.065466 -0.038922 0.004823 0.154539 1.715666 0.006721 -0.087693 0.526209 -0.003845 0.131275 0.038163 0.000191 -0.078953 -0.136670 0.155595 3.484439 -0.025915 -0.032086 -0.106908 -0.030248 0.066318 -0.017254 0.202927 0.072739 -0.129764 1.786890 -0.020716 0.292477 0.090989 0.111740 -0.033985 -0.010518 0.000259 0.045037 0.004298 0.036311 0.038932 0.035897 0.084335 -0.020848 0.064279 0.624477 0.005538 0.034787 -0.027814 0.086919 0.086141 -0.070394 -0.130766 -0.061637 -0.005304 -0.094665 -0.130839 0.025887 -0.013947 -0.301117 1.869675 0.069339 -0.170980 0.078335 0.241416 -0.016914 0.071063 1.732637 0.010593 0.103865 0.146174 -0.058859 0.021934 -0.095999 -0.084116 -0.058461 0.072057 -0.006216 0.087541 -0.055396 -0.212182 0.061237 0.113958 -0.028868 -0.011956 0.003120 -0.049176 0.043921 -0.009562 -0.044955 -0.036388 -0.048447 0.063326 0.132220 0.032063 -7.046410 -0.166043 0.055612 -0.057767 1.254371 0.142818 -3.336289 0.067685 0.013091 0.021408 0.002569 -0.218522 0.058668 -0.009436 0.019376 0.110777 -0.673511 -0.065173 0.276298
0.039883 -0.081280 -0.090738 -1.209078 0.687115 -0.028521 0.338910 0.042886 0.062832 -0.720129 0.177898 -0.061102 0.118097 -0.053513 0.042938 0.022437 -0.132920 0.385282 0.002652 -2.638000 0.021135 -0.051661 0.128477 0.039084 0.086744 -0.098374 -6.285640 -0.066267 0.015869 -0.017624 -0.506996 0.045543 -0.050341 0.479604 0.121085 0.044396 -0.025120 -0.242953 -0.053834 -0.038158 0.047200 0.058759 0.058576 -0.014509 0.013916 -0.099090 0.030112 -0.077830 -0.063821 0.032147 0.091137 -0.037085 -0.002303 -0.016254 0.072319 -0.044792 0.006155 -0.098545 0.079006 -1.425613 -0.015256 0.257977 -0.202373 0.054552 -0.022623 -0.007971 0.070525 0.046304 0.005580 0.011310 -0.070269 0.017760 0.056215 0.126227 0.395888 -0.000446 0.066262 0.133547 0.111920 -0.016235 0.040220 0.292669 0.022411 -0.039369 0.073803 0.009804 -2.918434 -0.030305 0.019727 -0.046011 3.612615 -0.031227 -0.061990 -0.102405 -0.044219 0.014776 0.005754 -0.003835 0.028363 -0.013540 0.047455 -0.072803 -0.046313 0.042465 0.086783 -0.062275 0.007687 0.049986 -0.092810 0.073454 -0.052932 -0.019236 -0.098412 0.024436 -0.040094 0.312946 -0.097381 -0.279216 -0.044325 -0.430794 -0.255898 0.060709 0.482821 0.056793 0.093180 -0.040851 -0.138107 0.079493
0.094615 -0.032239 -0.056321 0.052078 0.012359 -0.049908 -0.084347 0.099547 -0.110212 0.069890 -0.123992 0.000855 0.101959 0.042830 0.055636 -0.037081 0.040948 0.033032 0.000991 -0.025987 0.059319 -0.028102 -0.006384 -0.012958 0.023493 -0.065713 0.112403 0.019718 -0.072344 -0.009926 0.027360 0.086101 -0.021337 -0.056301 -0.046005 -0.009838 -0.010570 -0.011360 0.007574 -0.000217 -0.056749 -0.093801 0.005737 0.019285 0.054550 -0.082623 0.052716 -0.100187 -0.018436 -0.059087 -0.077242 -0.034718 -0.087351 -0.082872 0.045114 -0.091986 0.000262 -0.002903 0.058567 0.020327 0.024031 -0.090843 0.112167 -0.021383 -0.049350 -0.024576 -0.044624 0.043931 -0.176263 -0.056412 0.031374 0.016508 0.050662 -0.043451 -0.000820 -0.093303 0.119296 -0.046236 -0.046841 0.038654 -0.001172 -0.089327 -0.008650 -0.063425 0.006476 0.040304 0.118128 0.027936 0.089622 -0.003476 -0.041813 0.099642 0.046720 -0.038443 0.019640 0.021253 -0.028815 -0.067301 -0.032122 0.012158 -0.051465 0.079514 0.034876 -0.009995 -0.085407 0.035975 -0.085278 -0.073019 0.042590 0.169190 0.115505 0.018545 -0.053453 -0.099384 0.069848 0.055200 -0.107615 -0.029537 0.013673 -0.086072 -0.258662 -0.055046 0.013387 0.027683 -0.053487 -0.005225 0.047070 -0.035745
0.005641 -0.076028 -0.003777 0.086850 -0.010946 -0.035335 0.001742 0.094219 -0.005356 -0.060904 -0.069460 0.042724 0.024787 0.034749 0.007483 0.020298 0.063034 0.025374 0.048102 0.201031 -0.026496 -0.089148 -0.079665 -0.016863 0.090786 0.012805 0.010164 -0.074220 0.052300 -0.103690 -0.014071 0.016347 0.030035 0.027543 0.016647 0.020081 0.097311 0.019334 -0.054942 0.069424 -0.086258 0.007212 0.029328 0.170766 -0.006484 0.021041 -0.050115 -0.023095 -0.008160 0.192142 -0.065376 -0.090461 -0.009967 0.031402 0.038166 -0.040876 -0.076915 -0.004682 -0.060122 0.058543 0.006104 0.066465 0.029210 -0.082648 0.016877 -0.027737 -0.071406 0.006684 -0.062805 0.030827 -0.058546 -0.042239 -0.055437 0.101159 -0.054913 -0.084589 0.184734 0.055109 0.015637 0.014456 0.040860 -0.064191 0.098469 -0.019800 -0.033908 -0.018315 0.088477 0.056539 0.056406 -0.138205 -0.022982 -0.017785 0.009985 -0.023550 -0.038472 0.082801 -0.086648 0.021893 -0.080615 0.070830 0.021356 0.104986 0.031306 -0.056980 -0.021113 -0.287816 -0.014710 -0.114081 0.062801 0.125439 -0.006348 0.064076 0.524320 -0.081601 -0.039628 -0.026552 0.081047 0.047414 0.078427 -0.056917 0.181625 -0.056030 0.132084 -0.184203 0.062209 -0.135123 -0.052090 -0.199346
0.060987 0.061324 -0.006160 0.007971 -0.056239 0.073077 -0.027597 -0.088859 0.031418 -0.027103 0.010213 0.033431 -0.109233 0.099206 -0.102356 0.001919 0.081077 0.043270 -0.055030 0.071633 -0.081560 0.003855 -0.115299 0.092081 -0.053253 0.048463 -0.081378 0.102794 0.022569 -0.026417 -0.009820 0.017188 0.066302 -0.013339 -0.076555 0.023395 0.045830 0.014478 -0.072511 0.114239 -0.076885 0.078145 -0.064443 -0.012437 0.023906 0.067772 -0.021187 0.112969 0.039052 -0.077952 0.019504 0.037656 0.020805 0.086688 0.029677 -0.031014 0.073934 0.017846 0.068745 0.050224 -0.022503 0.102095 -0.049652 -0.008574 0.000393 -0.060387 -0.071973 -0.083173 0.069789 0.069900 0.009598 -0.014935 -0.043116 -0.071002 -0.042894 0.029365 0.057726 0.001125 -0.059927 0.085111 -0.024893 0.031158 -0.000154 -0.063640 -0.088673 -0.008072 -0.079687 -0.060296 0.002275 0.024380 0.038574 -0.032558 -0.024217 0.023063 -0.028472 0.048607 0.032158 0.011353 -0.048645 0.050580 0.042021 -0.005042 -0.054885 0.000838 0.007264 0.069621 0.016812 0.022133 0.028782 -0.004639 -0.012729 -0.029180 0.137071 -0.027773 -0.059495 -0.080584 -0.044302 0.013304 -0.038355 0.102493 0.070426 0.015134 -0.051386 0.035764 0.103602 0.109872 -0.077206 0.059081
-0.029876 0.053769 0.006636 0.533579 -0.054890 -0.059246 0.065858 0.077316 0.089666 0.004046 -0.005798 -0.123264 -0.116681 0.011360 0.076407 0.041472 -0.086364 0.208464 -0.007882 -0.091252 0.032156 -0.020724 -0.054352 0.293949 -0.045206 -0.205716 -0.130703 0.042042 -0.005513 0.081526 0.043251 0.060822 0.212295 -0.137964 0.087696 0.038521 -0.033277 0.047797 0.075366 0.649281 0.449645 0.093182 -0.036664 0.002753 0.070045 0.107586 -0.051212 0.057950 0.052431 -0.105876 0.018715 0.046996 0.061500 0.033728 0.043166 -0.048510 0.239945 0.051043 0.083181 0.286312 -0.009739 -0.005552 -0.028474 -0.035957 -0.019121 0.012812 0.055827 -0.073691 0.084381 0.041865 0.049450 -0.001272 0.129377 0.013303 2.486123 0.068642 -0.067423 0.166808 -0.141550 -0.054705 0.079222 0.041130 -0.027289 -0.031044 0.033869 -0.045807 0.038612 0.035149 0.035303 -0.174188 0.114548 0.002368 0.056985 0.089898 -0.127006 -0.051564 0.060014 0.032604 0.043651 0.077745 0.006451 -0.080760 0.079535 -0.018785 -0.056756 -0.154149 0.099410 -0.051966 0.029684 0.026298 0.048606 -0.039450 0.101644 0.045440 -0.057579 0.684252 -0.059233 -0.087164 0.065904 0.014016 0.191899 0.001210 0.068047 -0.025500 0.020441 -0.079706 -0.187699 0.004600
-0.068630 0.001237 -0.057886 -0.389527 0.042468 -0.096217 0.068628 -0.063127 -0.062325 -0.018785 0.027096 -0.069198 0.094023 0.021087 -0.026987 0.029188 -0.093147 0.063560 0.058958 -0.013965 -0.034669 -0.084658 0.052879 -0.100478 -0.039589 -0.057879 -0.019293 0.021235 0.084592 0.039418 0.071809 -0.113920 0.058173 0.002469 -0.003586 0.028711 -0.140311 -0.069222 -0.097939 -0.072809 -0.051699 0.018317 0.112384 -0.011605 -0.103316 -0.052934 -0.028893 -0.023229 0.071512 0.082888 0.022210 0.008136 0.051019 0.003903 -0.022933 0.064089 0.284871 -0.123759 0.001165 -0.022351 -0.001739 0.026418 -0.054314 -0.019697 -0.114090 0.044138 -0.097075 0.038189 0.100171 0.039283 0.032898 -0.077013 -0.032574 -0.043848 -0.236923 -0.101205 -0.025089 -0.062081 0.020612 -0.022067 0.145340 -0.044696 -0.006612 -0.060213 -0.051321 0.100066 -0.077019 -0.067818 -0.028856 -0.020754 0.126381 -0.081026 -0.006858 0.005555 -0.046612 0.047559 0.038138 0.005820 0.010606 -0.021037 -0.015145 -0.032895 0.049417 0.024129 0.078997 0.088286 -0.007577 0.076296 -0.057251 0.056021 0.213560 0.034342 -0.020868 -0.050989 0.200396 -0.329531 0.053886 0.060324 -0.007322 -0.174484 -0.374004 0.089198 0.077079 0.048947 -0.420973 -0.215820 -0.056688 -0.028878
-0.101576 0.152009 0.007387 -0.752063 -0.322797 -0.075927 0.101000 -0.086587 -0.066769 -0.040001 0.067807 -0.057762 0.446520 -0.034155 0.047171 0.035157 -0.018300 0.003135 0.270456 -0.082404 0.116071 0.139582 0.015185 0.088095 -0.032607 0.076001 -0.058470 0.243528 -0.004292 0.127744 0.032268 -0.060831 -0.017762 0.098620 -0.091577 -0.036153 -0.087363 -0.111663 0.134114 0.160608 -0.063475 0.017248 -0.290842 -0.145846 0.005599 0.106719 -0.055091 0.083157 -0.530044 -0.048924 0.058205 0.100355 0.082961 0.086194 0.011074 0.000357 0.093190 0.014489 -0.000723 -1.919401 0.083020 0.038923 -0.177246 0.143211 -0.032823 -0.103681 -0.058011 -0.033928 -0.066244 0.045582 0.050366 0.306313 0.058576 0.054251 -0.843044 0.094569 0.072351 0.139034 0.209299 0.016253 0.006272 -0.494467 0.033429 -0.046172 0.126733 -0.071820 -0.092820 0.126061 -0.083779 -0.037925 0.557898 -0.088002 -0.075197 0.144004 -0.171253 -0.370752 0.028757 -0.013433 -0.011656 0.001612 -0.054590 -0.015060 0.204578 0.089204 -0.009745 -0.490114 0.071218 0.024184 -0.120193 -0.191393 0.031829 0.091785 -0.045301 0.117572 -0.024967 0.036878 -0.038733 -0.085280 -0.217919 1.167981 1.006254 0.031622 0.493533 0.098792 0.020012 -0.775116 -1.719966 -0.080148
-0.096517 -0.048556 0.066409 0.047290 0.112985 0.019459 -0.010433 -0.013431 -0.022712 -0.090947 0.102271 -0.097597 0.011885 0.004447 -0.062302 0.039845 -0.055300 -0.049653 0.002782 -0.018449 -0.038209 -0.002961 0.107642 0.100186 -0.006432 0.048738 -0.148070 0.013872 -0.007214 0.070263 0.030121 -0.022116 -0.061695 -0.040332 -0.065761 0.005168 0.055845 0.039257 0.035583 0.094515 0.067455 0.096694 0.082150 0.040389 -0.009152 -0.074656 0.001778 0.101687 -0.013687 -0.120442 0.024601 0.101750 -0.045045 0.085685 -0.005595 0.107108 -0.062070 0.076451 0.079022 0.094990 0.073984 0.036720 -0.019700 0.128960 0.087365 0.037441 -0.047922 -0.092784 0.085398 0.003630 -0.064038 -0.000789 0.040395 -0.034071 0.007349 0.069427 0.056440 -0.039245 0.066714 -0.083090 0.066228 -0.016035 -0.141500 0.029469 0.007843 0.026430 -0.128272 -0.031928 -0.030578 0.025713 0.038071 0.043983 0.032237 -0.019817 0.041322 0.078080 0.095959 0.024252 -0.059521 -0.034793 0.056354 -0.096261 -0.032253 0.065534 0.024932 0.044389 -0.044204 0.013033 -0.052506 -0.081221 -0.029037 -0.050810 -0.034737 0.016953 -0.034198 -0.062564 0.002970 0.025577 -0.083956 -0.017519 -0.079993 0.037581 -0.035847 -0.041167 -0.062550 0.016112 -0.005515 0.040174
0.002826 -0.049075 0.006982 -0.540598 0.115011 0.064461 -0.010312 -0.014523 0.051689 0.045724 -0.044230 0.116924 0.001934 -0.126673 0.044358 0.215543 0.064195 -1.416687 0.068271 -0.053478 -0.020090 -0.015804 0.028206 -0.106951 0.083167 0.096919 0.000732 -0.235333 0.432801 -0.029799 0.082491 0.145237 -0.010176 0.023528 0.053789 -0.039810 -0.150932 -2.180393 -0.083591 -0.123979 -0.091665 -0.008466 1.096240 0.073161 0.035343 0.012663 -0.098830 0.028818 -0.000152 -0.004268 -0.149359 -0.004634 0.019748 0.316351 -0.042536 0.015613 -0.130027 -0.075871 0.140126 -0.709107 -0.099285 -0.009978 1.063312 0.038212 0.054114 0.079082 0.022206 -0.067613 0.022843 0.014374 -0.060635 -0.060390 -0.072273 0.108579 0.328860 0.015921 -0.023760 -0.221798 0.047338 0.215323 -0.023887 0.064980 0.047981 -0.099423 -0.757693 0.260838 0.039538 -0.002526 0.097919 -0.060533 0.035084 -0.059963 -0.034792 0.031182 0.257756 0.056257 -0.170725 -0.058101 0.072896 0.062320 0.067648 0.043696 -0.123369 -0.084910 0.794331 0.063752 -0.052138 -0.060266 -0.105221 0.113830 -0.099375 -0.051602 0.016889 -0.153104 -1.354999 -0.133952 -0.073925 0.045962 -0.010773 -0.090971 -0.175585 0.121130 -0.045458 0.072695 -0.072725 -0.222838 0.145549 0.064133
-0.080160 -0.019593 0.052128 -0.067495 -0.051529 -0.055158 0.045807 -0.114446 0.030347 -0.040836 0.059723 -0.054954 0.006312 0.061102 -0.150399 0.080457 -0.052313 -0.009778 0.014504 -0.040230 0.013099 0.098994 0.079800 0.064527 0.038470 0.072912 -0.108027 0.025975 -0.032581 -0.058052 0.025388 0.036372 0.043368 -0.027291 -0.074897 0.046040 -0.046995 -0.003510 -0.000416 -0.061788 -0.054287 0.086406 -0.065986 -0.021242 0.006943 0.038963 0.064227 0.119251 -0.070440 -0.009212 0.101153 0.054120 0.019090 0.077893 -0.072809 0.142857 -0.028169 -0.023374 -0.002265 0.095696 -0.059803 0.110757 -0.098258 -0.026920 0.079286 -0.065163 0.007251 -0.029957 0.040488 0.076783 -0.033917 -0.044638 -0.056009 -0.038285 0.021857 0.094473 -0.102410 0.045032 0.050187 0.039078 -0.010045 -0.061492 -0.110017 -0.056242 0.058688 -0.081188 -0.046321 -0.012166 0.004896 0.016182 0.086298 -0.051402 -0.017000 0.045064 -0.065966 -0.076159 -0.004004 0.043189 0.109655 0.007834 -0.020512 -0.077579 -0.010108 0.089948 0.087639 -0.027360 0.039802 0.052931 0.064742 -0.086462 -0.071329 -0.047431 0.105667 0.063808 0.069083 -0.080930 0.059050 -0.006837 0.046230 0.066109 -0.091796 0.037723 0.002135 0.005990 -0.011399 0.065313 -0.075634 0.054558
-0.073650 0.087540 -0.011691 -0.032360 0.024840 0.011102 -0.036392 -0.028608 -0.035595 -0.042141 0.075424 -0.013416 0.030903 -0.003579 -0.093829 0.092560 -0.033383 0.156820 0.038943 -0.103035 -0.033354 0.042680 0.076581 0.072667 -0.070594 0.067912 -0.089297 0.091318 -0.198290 0.057350 -0.018217 -0.094384 0.048454 -0.021472 0.067522 0.083919 -0.104006 -0.034691 -0.055902 0.041252 0.084456 0.098149 -0.099557 0.032272 -0.029334 -0.097765 -0.003536 0.019965 -0.049933 -0.131617 -0.068131 0.104443 -0.011618 0.018943 0.024259 -0.029290 -0.058474 -0.013219 0.059368 0.082953 -0.000329 0.102365 -0.027916 0.097615 -0.025564 -0.100365 -0.018596 0.049161 0.099122 -0.033004 -0.072645 -0.088898 -0.041224 -0.065565 0.017127 -0.072915 0.046312 0.070244 -0.022197 -0.013533 0.053564 0.013784 -0.005778 -0.054450 0.129556 -0.055323 -0.096523 0.069909 0.056232 0.130523 0.038106 -0.059296 0.104739 0.013564 -0.070688 0.047853 0.007732 -0.037065 -0.016595 0.005198 -0.010298 0.013824 -0.024555 -0.047624 0.071073 0.015796 -0.052841 -0.026199 -0.023029 -0.051103 -0.091710 -0.053713 -0.012926 0.083202 0.113013 -0.030331 -0.055835 0.060452 -0.086309 0.023043 0.001924 -0.086150 -0.058080 -0.013362 -0.074245 0.077162 -0.112743 0.127531
-0.005417 0.072736 0.078023 -0.240665 0.032806 -0.018674 0.084455 0.069391 0.168275 -0.057787 0.049058 -0.067456 -0.007730 0.034455 0.040568 0.008227 -0.040678 -0.100232 0.004430 -0.044880 0.049444 0.067025 -0.056377 -0.027151 0.033454 -0.085750 0.029783 0.044091 -0.019189 0.009239 -0.053110 -0.056988 -0.007019 -0.037417 0.029002 0.018813 -0.073320 0.000971 -0.025715 0.030858 0.035564 0.030846 0.060624 -0.068283 0.037891 0.034563 0.094420 0.044184 0.048146 -0.127368 0.012223 0.039296 0.055318 0.046727 -0.051407 0.016356 0.048564 0.007980 0.071409 0.021518 0.063318 0.019666 -0.002242 -0.071837 0.027091 0.032553 0.146726 0.042498 0.028047 0.052880 0.008279 -0.105224 0.011821 0.045498 0.049143 -0.022270 -0.070551 -0.037472 0.008877 -0.034344 0.030282 -0.048900 0.007528 -0.000204 -0.003193 -0.033897 -0.066396 -0.020952 -0.069404 0.088302 0.007234 -0.006026 -0.037348 0.160855 0.002101 -0.205587 0.023217 -0.037943 0.067832 0.094769 -0.048915 -0.058897 -0.064521 -0.016581 -0.025005 0.013530 0.065225 -0.031054 -0.001650 -0.044861 -0.029870 0.044021 -0.039479 0.071334 0.054006 0.055568 -0.012726 -0.044559 -0.022630 -0.061148 0.015434 0.045059 -0.016290 0.029586 -0.015303 0.086024 -0.048805 -0.036920
0.091167 -0.006543 -0.057693 -0.795689 0.126126 0.008669 0.003917 0.064468 -0.056635 0.043966 0.011173 0.014378 0.097431 0.017371 -0.066726 -0.034721 -0.020046 -0.131766 -0.072561 -0.045013 -0.041942 0.012661 0.115949 -0.120306 0.136508 0.191643 0.195368 0.269643 0.110811 0.015737 0.096784 -0.119240 0.040405 0.026159 0.128135 -0.088886 -0.062576 -0.173558 -0.094465 -0.087425 -0.083032 0.011815 0.079790 0.054239 -0.027222 -0.026520 -0.086482 -0.028150 -0.134816 -0.031356 0.038727 0.000757 0.042024 -0.043393 0.025921 -0.065955 -0.039526 0.007662 -0.061197 -0.098289 0.028670 -0.048169 0.098529 0.014222 -0.028779 -0.063909 -0.013937 0.098303 0.019730 0.013189 0.026899 0.089033 -0.078044 -0.014771 -0.020704 -0.067328 0.034147 -0.220057 0.165448 0.025299 -0.136859 -0.077283 0.066975 0.064071 0.011774 -0.023462 0.000127 -0.105583 0.092256 0.025458 -0.092389 -0.068094 -0.005021 -0.013621 0.263106 -0.032257 0.018744 -0.017852 0.039325 -0.014085 0.097272 -0.000731 0.007825 0.032061 -0.058526 0.079914 -0.061353 -0.059571 -0.099261 0.098614 0.102456 -0.079153 -0.045056 -0.084952 -0.127213 0.033875 -0.021639 0.064322 0.075859 -0.052163 -0.078729 0.060129 0.034025 0.072699 -0.068299 0.166550 0.169621 0.033737
-0.001116 0.059834 0.007602 0.423177 0.026175 0.085339 -0.129694 0.258243 -0.043702 0.010369 -0.029762 -4.335863 -0.021542 -0.310061 0.055405 0.029811 -0.443418 -0.514342 -0.021623 0.156771 0.015398 0.475412 0.056023 0.518183 0.039665 0.021944 -0.054431 -0.012030 0.135478 0.310993 -0.012743 0.432815 0.536298 -0.239954 -0.147879 -0.012726 -0.184992 -0.082743 -0.018766 -3.035378 0.888477 -0.079326 -0.067634 0.131108 -0.029377 0.145869 -0.011446 0.000244 0.120775 -0.920376 -0.160917 0.049506 0.048693 -0.206474 0.106152 0.053694 0.202580 0.036799 -0.153266 -0.036475 -0.061198 -0.061554 -0.312221 -0.293301 0.126043 0.073032 0.372459 1.149553 -0.155140 0.503585 0.302380 0.134324 0.136093 0.391735 0.033615 -0.025987 0.108282 0.418498 -0.064290 -0.024320 0.033477 0.138747 -0.018822 0.043950 0.013493 -0.124170 0.543902 0.007083 0.016313 -0.755843 -0.014417 0.489412 -0.109704 -0.011242 0.003468 0.017364 -0.032029 -0.294655 -0.353263 0.064006 -0.075231 0.028862 0.035811 -0.017642 -0.347696 -0.151100 -0.000957 2.305115 0.006929 0.025406 0.021908 0.023656 -0.048802 -0.999534 0.020629 -0.092600 0.083946 -0.046675 0.207688 0.049223 -0.133979 -1.013895 0.205144 -0.109841 -0.102197 -0.624158 0.084003 -0.262243
-0.045728 -0.018926 -0.003078 0.087950 -0.137987 -0.031604 0.000654 0.039652 0.205549 0.207227 -0.047704 0.040787 -0.032731 -0.124854 -0.042598 -0.022024 0.077035 0.036745 -0.060224 0.063709 0.070926 -0.127899 0.028291 -0.005507 -0.084658 0.004803 0.008316 -0.028636 -1.211047 -0.068904 0.028049 0.087122 0.091258 -0.040281 -0.040418 0.034645 0.075067 0.285340 0.058127 -0.001978 -0.014602 0.010564 -0.439975 -0.057813 -0.034906 0.042407 0.107739 0.051181 -0.028648 -0.027118 -0.020605 -0.001775 -0.042631 -0.066559 -0.094347 0.016079 -0.002050 0.032277 0.008107 -0.093993 0.070805 0.057603 -0.599973 0.041919 0.090752 -1.146579 0.116974 0.054752 -0.059796 -0.025819 0.188256 0.063241 -0.016145 -0.074927 -0.056345 0.086892 0.028605 0.197396 0.334098 -0.070794 0.115925 0.043850 0.023450 0.059383 0.228408 -0.134170 -0.098667 -0.039303 -0.102802 0.000707 0.054126 0.066536 0.081387 -0.053113 -0.212338 0.100157 0.066615 0.047539 0.082510 0.100767 0.031817 0.032178 0.138105 -0.006964 0.014339 0.023541 0.062253 0.075310 0.459641 0.955127 0.186962 -0.087131 -0.010592 0.998773 -0.066338 0.044135 0.149159 -0.056604 -0.196352 0.032506 0.080371 -0.127253 0.125678 -0.081199 0.016815 -0.025264 -0.091009 0.050954
-0.060371 0.458243 0.154579 -0.284264 0.338895 -1.293707 0.050358 -0.001117 -0.005937 1.266988 -0.008780 0.058206 0.131609 2.031036 -0.290837 -0.090298 -0.014136 -0.468552 0.065806 -0.031740 0.016078 0.006528 0.081413 -0.160924 -0.421453 1.331900 0.166173 -0.047761 -0.399579 -0.084218 0.053428 2.523365 0.004745 0.647367 -0.198346 -1.438669 0.166838 0.479348 -0.131937 1.761386 0.688488 0.059641 0.087131 0.038697 -0.063123 0.649472 -0.098176 -0.045972 0.413067 0.012070 0.072252 -0.001906 0.092151 1.067939 0.102121 -0.006217 -0.021152 -0.297973 1.231688 -1.123671 0.034323 -0.006030 1.651786 -0.053142 -0.445414 -1.713021 0.006215 0.487272 -0.846755 0.631655 0.167305 -0.165164 -0.000887 -0.490815 1.220273 -0.262499 0.486924 -0.254351 -0.261904 0.109642 -0.082453 -0.004426 -0.378346 0.004582 0.062224 0.008470 -0.045799 -0.124652 -0.010678 0.058254 -0.054894 -0.026150 0.056840 0.054488 0.382983 -0.100516 0.359626 0.017716 0.261247 -0.075247 -0.425964 -0.049814 -0.342094 -0.084884 -0.041985 1.375646 0.187064 -0.247467 -0.093997 2.704050 -0.170201 -0.004375 0.048456 -0.477742 0.782933 -0.857020 -1.542864 0.174509 -0.008287 0.018462 1.480193 3.558019 0.088690 -0.038774 -0.115268 -1.933884 0.177048 0.045878
-0.074030 0.053196 0.090503 0.180714 -0.039959 -0.096784 -0.053752 -0.110458 0.042035 -0.090848 0.066089 0.015887 0.036347 -0.029130 -0.105142 -0.003138 -0.069980 -0.079543 -0.006444 -0.032371 0.014743 0.030200 -0.240316 0.099826 0.010923 -0.017136 -0.161621 0.087646 0.075909 0.007849 -0.094627 -0.072925 0.079731 0.018080 -0.061312 0.111669 -0.097156 -0.005372 0.016308 0.053205 -0.098851 0.087852 0.033192 -0.093254 -0.027546 -0.003242 0.144892 0.143841 -0.056793 -0.027119 -0.089309 0.028120 0.041775 0.057133 0.003012 0.025329 0.219700 -0.050677 -0.006834 0.157353 -0.043513 0.121902 -0.170546 -0.032450 -0.034115 -0.052497 -0.076959 0.010758 0.070255 0.086224 0.088937 0.031050 0.018231 0.026752 -0.013813 0.081494 0.053701 0.114425 -0.020669 -0.039706 0.122232 0.026198 -0.101493 -0.055212 0.010852 0.003572 0.066078 0.076958 0.065466 0.001140 0.025702 -0.073369 -0.059017 0.016734 -0.310146 -0.021185 0.099579 -0.067038 0.102505 0.059546 -0.029157 0.089871 0.079247 0.025418 0.011255 -0.032819 0.085826 0.046114 -0.051518 0.070260 0.414208 -0.035617 0.077476 0.427672 0.061410 -0.156573 0.094087 0.057161 0.057400 -0.033616 0.061680 0.118286 -0.000862 -0.125586 -0.038104 0.092689 0.005642 0.038456
0.002634 0.027939 0.044264 -0.023107 -0.014781 -0.051054 0.065425 0.042117 0.024295 0.099354 -0.073459 0.035883 -0.007438 -0.061976 0.036276 -0.059735 0.070294 0.062073 0.014242 0.070848 -0.066762 -0.053870 0.058541 0.008854 0.041656 0.068030 0.347483 -0.084960 -0.032807 0.034736 -0.002747 -0.009749 -0.092003 -0.075168 0.015402 -0.031496 0.063160 0.019262 -0.064889 0.032575 -0.116056 0.050535 -0.011716 0.066800 -0.022396 -0.041193 -0.091639 0.007031 -0.052087 -0.268060 -0.099029 -0.085800 0.014220 -0.059719 0.084322 0.032715 0.004682 0.074787 -0.085601 -0.037061 -0.093107 0.042751 0.105854 -0.027255 0.050184 -0.048727 0.074545 -0.007049 0.006092 0.037936 0.023321 0.011262 -0.119820 0.086469 -0.079894 0.079939 0.069864 -0.044619 0.020390 0.054756 -0.023746 0.035386 -0.033076 -0.054119 -0.017870 -0.058437 0.063066 -0.063805 0.016283 -0.021776 -0.022288 0.106190 -0.064665 -0.040325 0.060396 0.022117 -0.083006 -0.010269 0.009748 0.033055 0.043393 -0.028081 -0.090306 0.034206 0.003585 -0.030350 0.043098 -0.104226 0.015781 0.200183 -0.053042 0.004903 0.023587 -0.334527 0.023292 -0.028018 -0.083355 -0.060604 -0.007063 -0.011303 -0.118154 -0.035090 -0.046775 -0.092187 0.040259 0.067284 0.088064 -0.048465
