-0.161635 0.019843 0.024915 0.089525 -0.103554 0.069234 -0.036392 -0.019215 0.103810 -0.038021 -0.057472 -0.097618 0.109328 0.067122 -0.085208 -0.144314 -0.056282 -0.151879 -0.014142 -0.045342 -0.131244 -0.162039 0.079786 0.015470 0.308801 -0.106903 0.102165 -0.132901 0.007130 -0.069652 -0.005087 0.066042 -0.172675 -0.025561 0.073521 0.089443 -0.050193 -0.068083 -0.042463 0.001524 0.060137 -0.026089 -0.154779 0.072963 -0.135941 -0.054155 -0.142873 0.032442 0.189822 0.091163 0.081543 0.049635 -0.098272 -0.183299 0.096739 -0.146645 -0.058424 0.019958 0.045483 0.078725 0.077252 0.046070 0.004941 -0.052349
0.162486 -0.054921 -0.090713 0.133753 -0.105749 -0.135012 -0.035841 -0.103092 -0.034642 0.000177 -0.024153 -0.079992 0.047713 0.081782 0.081938 -0.052324 0.048916 0.072548 -0.072255 -0.143408 0.101000 0.129872 0.069371 -0.111543 -0.142615 0.045677 -0.058136 -0.011982 0.123904 0.056472 -0.019230 0.008900 0.071067 -0.035569 -0.032185 0.117795 -0.127370 -0.073630 0.112916 0.094761 -0.132316 0.055614 0.179059 -0.165903 0.142054 0.005920 -0.025708 0.012780 -0.177795 -0.046699 -0.093011 0.135463 0.059535 0.065824 0.031336 0.254217 0.160021 0.045210 0.071967 0.131605 -0.006093 -0.076798 0.006315 -0.028217
0.093194 0.102816 0.347950 -1.665489 0.303304 0.096016 -0.119614 -0.984809 -0.720985 -0.576406 0.017529 0.028828 0.080450 0.285896 0.094333 0.102775 -0.013193 -2.912727 -0.011902 -0.097075 0.099888 0.121931 0.104850 0.016768 0.067308 0.467076 0.064302 -1.296752 -0.099696 -1.233262 -0.128896 0.060877 -2.975583 -0.016295 -0.083944 0.279179 0.019839 -0.013629 -5.803848 0.075003 1.400314 0.227911 0.024469 -0.085259 -0.307966 -0.278579 -0.057413 -2.040303 -0.076329 -0.022988 0.743701 -0.057313 1.821725 -2.473505 -0.215426 -5.567064 -0.733280 0.056329 0.066424 0.092391 0.881570 -0.000029 -0.741543 0.703370
-0.013814 0.000420 -0.060029 -0.074012 0.085059 -0.119791 -0.025429 -0.015561 0.059703 -0.133742 -0.057277 -0.035610 -0.122852 -0.091162 -0.078782 -0.029521 -0.081615 0.046776 -0.287210 0.119016 -0.125101 -0.190656 0.070299 -0.107388 0.064709 -0.099830 -0.093056 0.029117 -0.071858 -0.087597 -0.052656 0.100244 -0.067905 0.084236 -0.051637 -0.038662 -0.030985 -0.048597 -0.039242 0.122299 0.081307 0.012074 -0.361385 -0.043390 0.128808 0.037322 0.048748 -0.088660 0.038930 0.118159 0.013993 0.021799 -0.106611 0.080221 0.025854 -0.055320 -0.142726 -0.092791 0.095436 -0.079475 0.010842 0.096799 -0.089810 0.003574
1.659306 -0.348002 0.136914 0.362066 0.260685 0.007508 0.037755 -2.831835 -0.362156 -0.098138 -0.096424 -0.089343 -0.054603 -0.146557 0.042610 0.108747 0.061759 0.392671 0.192021 -0.188247 0.122293 0.077272 -0.066051 -0.411457 -0.250190 0.038681 0.104969 0.803165 0.058113 2.499671 -0.313605 0.152313 -1.146224 -0.088883 -0.032639 -0.014160 0.236689 -0.060760 1.336330 -0.096610 -1.126598 0.043231 0.210404 -0.022677 0.917178 0.469471 -0.028972 0.607531 -1.217998 -0.139733 -0.128386 0.001102 0.100042 0.046943 -0.640973 6.223372 1.774852 1.924253 -0.088098 -0.041812 -1.305292 -0.125736 0.010944 0.004075
0.024932 0.000413 0.080427 -0.116956 -0.091918 0.026877 -0.022858 -0.079137 -0.110969 -0.085489 0.043821 0.111336 0.002596 -0.044220 -0.093179 -0.093501 -0.008996 -0.391178 -0.078392 -0.106009 0.034286 0.080122 0.004880 -0.045891 0.004264 -0.085839 -0.044610 -0.033597 -0.071265 -0.211677 0.097535 0.062576 -2.493040 -0.061411 -0.050196 0.090832 0.033871 0.098692 0.057293 0.066806 0.049224 0.002793 0.235928 -0.116148 0.117408 0.356428 -0.037064 0.058995 -0.046917 -0.082760 0.068023 -0.054868 0.013846 0.157386 -0.080536 -1.178495 0.046038 -0.044992 -0.075967 -0.032274 0.066780 -0.060291 0.001266 0.019110
0.067507 0.065411 -0.078310 0.049918 -0.066317 -0.032660 -0.157040 0.167121 -0.154225 0.018161 0.083895 -0.019052 0.106982 -0.111225 0.081939 -0.099307 -0.062605 0.138165 0.131275 -0.170073 -0.078559 0.109761 0.043898 0.079114 -0.321834 0.021416 0.023100 -0.019317 -0.047717 0.009612 -0.049891 0.028852 0.132116 0.004875 0.569808 0.043315 0.000364 0.079065 0.126188 0.082645 -0.176851 0.044308 0.157536 -0.057691 0.003610 -0.009874 0.141893 0.095613 -0.213207 0.086560 0.038413 0.082564 -0.072166 -0.018483 -0.080684 0.165961 -0.024748 -0.084221 -0.003201 -0.090376 0.088491 -0.080221 -0.017962 -0.078917
-0.080431 -0.077726 0.040486 -0.053029 0.031549 0.054599 0.143402 0.079711 0.077055 0.002282 0.010903 -0.023890 0.118857 0.123021 0.039260 -0.128655 0.024826 0.329198 -0.042324 0.107069 -0.051773 -0.059119 -0.122325 -0.012707 0.085280 0.020278 0.040098 0.002556 -0.018020 -0.076077 -0.040138 0.060690 -0.103214 -0.101281 -0.116397 0.030077 0.008302 -0.000308 0.069814 -0.067513 -0.366990 -0.017276 -0.282939 0.040292 0.053322 -0.003511 0.053844 0.042328 0.032078 -0.035646 -0.090755 -0.041747 -0.108008 -0.018581 0.074831 -0.030036 0.038272 -0.071267 -0.101180 -0.009157 -0.132179 0.068431 -0.061232 0.087572
-2.267755 0.087049 -0.010301 0.030476 -1.381444 -0.072118 -0.086678 2.316925 0.497071 -0.098181 -0.081198 -0.038419 0.027867 -0.063372 0.051053 0.161727 0.016120 0.154619 -0.174960 0.043217 -0.372040 -0.116708 -0.017506 -0.019777 0.370014 0.560730 -0.003912 -0.097479 0.072540 -4.595726 0.068145 -0.086665 1.445498 0.010502 -0.144743 -0.131853 -0.011741 -0.022472 -0.239073 0.067812 1.370837 -0.761622 -0.299275 0.142650 -0.272821 -1.114581 -0.023544 -3.170305 0.311684 -1.292301 0.581308 -0.007747 -0.607426 -0.165191 3.390974 -13.753726 1.314180 0.090560 0.125314 0.027547 1.500974 0.086564 0.214748 0.187002
0.194712 0.099136 -0.081215 -0.032443 -0.001716 -0.080397 -0.016523 -0.917803 -0.021611 -0.059042 -0.076672 -0.067275 -0.094904 -0.130084 -0.075007 -0.062259 0.014851 0.133865 -0.008693 -0.036220 -0.099493 0.025257 0.075051 0.136470 -0.209110 -0.012200 0.014425 -0.623394 -0.000894 0.165960 -0.098390 0.067191 -0.187990 -0.069750 0.337626 0.041372 0.105681 -0.033489 0.061545 -0.072806 -0.797180 0.138954 0.311463 -0.168110 -0.061234 0.763103 0.097107 -0.054349 -0.187622 -0.082522 0.050677 0.024833 0.421697 -0.043585 -0.057894 0.400092 0.101146 0.069768 0.077589 -0.225638 0.019373 -0.181440 -0.021430 0.075990
0.565579 -0.128418 -0.182887 0.223683 0.534180 0.074701 -0.099011 -0.865385 -0.199381 -0.547228 -0.019649 -0.006956 -0.014202 0.009708 0.030902 0.037967 -0.131559 6.040835 -1.368797 -0.529593 0.147730 0.093453 0.033435 0.194585 -0.387380 -0.103628 0.083539 1.135354 -0.056529 1.034603 0.039477 -0.033852 -2.537262 0.040877 0.090515 -0.041773 0.265659 -0.079077 0.380319 0.012863 -3.246819 -0.110761 0.324425 -0.199740 0.175550 0.592795 0.057028 2.321870 0.368934 0.054633 -0.232698 0.129463 0.852633 0.017388 -0.807310 2.112436 4.332883 0.005518 0.101583 0.044883 -0.145141 -0.070988 1.428806 3.372063
0.002534 0.040158 0.108102 -0.106203 -0.133847 -0.139874 -0.062065 0.109283 0.153918 0.000023 0.045392 -0.108106 0.103911 -0.024540 0.220964 -0.032976 -0.052769 -0.740617 -0.006211 -0.169059 0.127178 0.043638 0.115939 0.072040 -0.163080 0.069518 -0.101913 0.057166 -0.135204 -0.088801 -0.084916 -0.037879 -1.777309 0.067729 0.006323 0.151113 -0.095047 -0.051394 -0.027348 -0.065672 0.938182 0.001314 0.447312 -0.017474 0.055756 0.002155 -0.287140 0.075315 -0.061569 0.103818 -0.063618 -0.018936 -0.222936 0.074954 0.094883 0.173206 0.889363 -0.028617 -0.086983 0.071485 0.055485 -0.062040 0.117972 -0.016801
0.188645 0.117757 0.067007 -0.021442 0.001359 0.062352 0.135908 0.206422 -0.017003 -0.075756 -0.027926 -0.129074 0.051134 0.124271 -0.007086 0.014857 0.049904 0.854102 0.022840 -0.031755 -0.113833 0.126149 -0.001211 0.010173 0.070256 0.063325 -0.031613 -0.100006 0.110367 0.440863 -0.028024 0.040687 0.231611 -0.103078 0.029778 0.004736 -0.112622 -0.034195 -0.045765 -0.024443 -0.057742 0.086230 -0.072920 -0.052842 -0.108486 0.012925 -0.122007 0.072902 -0.199022 -0.103307 -0.120992 0.052466 0.038907 0.044932 0.143305 0.032883 1.403835 0.007110 -0.002050 0.019599 -0.050372 -0.069934 0.016518 0.029914
0.068050 -0.042782 -0.148605 -0.047199 0.114139 -0.096112 -0.021139 0.022165 -0.082219 0.055632 -0.005024 0.063710 0.133423 -0.087039 -0.060024 0.091692 0.024799 0.032546 0.162956 -0.180131 0.092258 0.083349 -0.105785 -0.071010 -0.220898 -0.123546 0.047705 -0.141051 -0.032463 -0.111198 0.013257 0.022403 0.193594 0.100835 0.088413 0.022518 0.127960 -0.024812 0.093753 -0.086255 -0.082833 0.060900 0.230491 -0.035214 0.016414 -0.019290 -0.091878 0.116519 -0.006701 -0.073124 0.049159 0.085179 -0.051027 -0.049948 -0.052945 0.088243 -0.039677 0.089920 -0.017240 -0.039102 -0.059962 -0.017506 -0.084656 0.080280
-0.172072 0.044973 -0.032188 -0.073409 0.123304 -0.084311 -0.066406 -0.133128 0.079960 -0.090030 0.100297 -0.060123 -0.041807 0.135831 -0.085055 0.031322 0.120598 -0.054690 -0.010024 -0.061795 0.070899 -0.154210 -0.044063 0.098358 0.179358 -0.005501 0.073860 -0.009461 -0.058044 -0.015846 0.084935 0.010122 0.039116 0.086122 0.019362 0.055919 -0.082193 0.099754 -0.095914 -0.057102 -0.090554 0.057617 -0.204963 -0.014950 -0.077321 -0.057939 -0.164536 0.011056 0.058018 0.051479 -0.104265 -0.084430 -0.095577 -0.153321 5044.826660 -0.096716 -0.095551 0.310102 -0.011144 -0.700651 -0.090926 0.146521 0.019316 0.074800
-0.165785 -0.076544 -0.071276 -0.027768 -0.019556 0.051364 0.122390 0.110057 0.039672 -0.102584 -0.090466 -0.018136 -0.034083 0.057106 -0.094798 0.052595 0.139910 -0.103901 -0.099092 0.140099 -0.008900 0.072208 0.077948 0.058458 0.139719 0.103701 0.043984 -0.120964 0.005916 0.110617 0.094503 0.071959 0.032630 0.077646 -0.114563 -0.030965 -0.006143 -0.135870 -0.053143 0.103288 -0.051787 0.041533 -0.255433 0.000951 0.063029 0.105485 -0.000293 0.110246 -0.015901 -0.114403 0.000945 -0.017996 0.104171 0.104806 -0.014769 -0.103519 -0.010016 -0.004010 0.113659 0.081630 0.098943 -0.028797 -0.142513 -0.038011
-0.411137 0.007112 -0.020406 -0.048859 -0.069048 -0.096546 -0.002247 -0.036747 0.131469 -0.092257 -0.099043 0.012334 -0.044954 0.079426 -0.073365 -0.035219 0.042142 -0.069940 -0.065097 -0.036519 0.093962 -0.085341 0.063861 -0.060898 0.179490 -0.040978 -0.068191 -0.143635 -0.041571 -0.078802 -0.010750 -0.044211 0.062273 -0.105164 0.078378 -0.002253 -0.079526 -0.145528 -0.052988 -0.036743 -0.166672 0.094077 -0.176071 -0.041431 0.009600 0.042236 0.062394 -0.043699 0.093520 0.044791 -0.180271 0.081708 -0.000253 -0.116892 0.038161 0.026628 0.036538 -0.063471 0.006961 0.174359 0.063714 -0.037026 -0.129809 0.019983
0.071938 -0.046320 0.017356 -0.026922 0.124255 -0.050042 0.096268 -0.120490 -0.059825 0.065711 -0.015962 -0.117461 0.000501 -0.083754 -0.006253 0.074563 0.017854 -0.087046 0.120308 0.080112 -0.050861 0.105981 -0.029804 -0.000676 0.018761 0.101527 0.073532 0.085547 0.036129 0.064731 -0.021647 -0.091127 -0.045659 0.086041 -0.090452 -0.071173 0.009829 0.090339 0.114983 0.055965 -0.085973 -0.038867 0.132711 -0.017657 0.066862 0.129681 0.004109 -0.087082 -0.068582 -0.077107 -0.106022 0.073930 -0.136176 -0.104384 -0.062024 -0.057833 -0.052542 -0.011356 0.048391 0.003190 -0.125760 -0.046384 0.039852 0.093375
-0.229637 -0.020533 -0.090241 0.040783 0.116321 -0.088011 -0.105695 0.016729 0.092835 -0.028386 -0.012646 -0.071009 -0.097672 -0.008900 -0.016358 -0.038051 0.026442 0.468572 -0.039249 -0.082210 0.052915 -0.096316 -0.068199 0.000090 0.119787 -0.113508 0.030673 -0.021926 0.039939 0.205010 0.027066 -0.001284 -0.009096 -0.049680 -0.044021 -0.111856 -0.012832 -0.010722 0.021520 0.059769 0.064355 -0.008819 -0.280302 0.158220 0.092206 0.102960 -0.000288 -0.077456 0.147293 -0.032378 0.011943 -0.066926 0.003289 0.017045 0.072007 -0.127268 0.013224 -0.035295 -0.085709 -0.022715 -0.050960 0.046467 0.040034 0.036294
0.069694 -0.118951 0.052646 0.861960 0.064442 0.007275 0.019136 -0.076723 -0.150371 0.066488 0.073029 -0.035664 0.108464 0.110532 0.036282 -0.053693 0.011134 0.983374 -0.302570 0.095011 -0.015074 0.047569 -0.093887 0.020582 0.037069 0.000256 -0.058199 0.558763 0.099943 -0.228095 -0.007299 -0.100502 0.014157 0.023608 0.092188 -0.027658 -0.111716 -0.392370 0.011777 -0.076517 0.032763 0.775669 -0.153996 0.134885 -0.000703 0.062278 -0.060528 -0.112304 -0.054602 -0.040476 -2.265673 -0.060622 -0.057503 -0.041978 -0.038295 0.390663 0.007988 -0.393202 0.067233 0.011902 -0.116060 0.048886 -0.007316 0.138038
0.044011 -0.073740 0.088815 0.076935 -0.030284 -0.046559 0.000543 0.115587 -0.097143 0.074605 -0.074800 -0.008971 -0.093760 -0.050175 -0.016199 0.132098 -0.127365 0.104664 0.131990 -0.102256 0.048025 0.000896 -0.005360 0.003753 -0.297061 -0.041828 0.067247 -0.060087 0.085297 0.161697 -0.044971 -0.038393 -0.307391 -0.022712 -0.042589 0.137285 0.102798 0.139223 0.135762 0.136407 -0.152585 0.003911 0.312319 -0.142284 -0.079863 0.013664 0.108093 -0.097325 -0.273345 -0.046139 0.075330 0.002297 -0.111562 0.127123 -0.005206 0.047651 -0.026099 0.083173 -0.057711 -0.111907 -0.012594 -0.044781 0.055358 0.069285
3.111711 0.009755 0.314639 1.055702 -1.154045 -0.031691 -0.161892 0.784524 0.295138 -0.149340 -0.011971 0.050705 0.061206 -0.093910 0.151982 -0.036956 -0.145392 0.262381 0.267601 -0.246774 0.126847 0.130837 -0.088212 -1.343338 -0.320936 -0.647104 0.022117 -0.709457 0.063346 0.660290 -0.031205 0.012157 0.151418 0.017238 -0.088275 0.099175 0.078349 -0.091843 0.819145 0.091948 -0.042277 0.153668 0.126720 -0.083880 2.267606 0.210589 -0.065488 0.099442 -0.785972 -0.129076 -0.002983 -0.026834 -0.172210 0.157087 -0.119463 6.208423 3.262567 0.124703 0.016289 0.022778 -0.244597 -1.920283 0.033714 0.808040
-0.197258 -0.041753 0.098575 -0.070212 -0.037245 -0.014496 0.112437 0.032281 0.095674 -0.103831 0.020777 -0.071425 -0.009390 -0.053652 -0.099365 -0.079958 -0.055670 0.038587 -0.025623 -0.025296 -0.025900 -0.042081 -0.076917 0.111725 0.125997 -0.092549 0.118360 -0.078375 -0.022687 -0.027967 -0.086945 -0.052645 -0.082405 0.044510 -0.092956 -0.095814 0.124733 -0.047548 0.094126 -0.029290 -0.018019 -0.075230 -0.289493 -0.009821 0.011704 -0.062712 -0.052856 -0.009877 0.119992 -0.133421 -0.067263 -0.005898 -0.071387 -0.099964 0.109598 -0.143582 -0.086540 -0.070680 0.084779 -0.090949 -0.129020 -0.103059 -0.075827 0.107841
0.216955 0.018243 -0.072312 0.018479 -0.043986 0.108487 -0.012618 0.121605 -0.104775 -0.006548 -0.012994 -0.123557 -0.107039 -0.132659 -0.032637 0.083154 -0.079320 0.002468 -0.011202 -0.105318 0.055621 0.037841 0.035423 -0.112545 -0.043402 0.119390 0.057074 0.145085 -0.044238 0.166121 0.017813 -0.029947 -0.052905 -0.041576 -0.040676 0.048388 0.026115 0.031487 0.110527 -0.061784 0.166636 -0.079459 0.348714 0.054397 -0.062478 -0.136203 0.066970 -0.101782 0.043855 0.130858 0.090073 -0.003602 0.127454 -0.027605 0.049098 0.041282 0.112897 0.044665 -0.003223 0.047670 0.134182 -0.093243 0.107726 0.044548
-0.168657 -1.711693 0.242223 -0.108651 -0.064675 -0.009961 0.178476 0.483129 -2.317459 -1.614147 -0.073251 0.084612 -0.038778 -1.483707 -1.314410 -0.108365 0.143713 0.613053 -0.507651 -0.001685 -1.919447 0.701397 0.267101 -0.230060 0.171004 -1.717078 -0.009204 -6.019963 -0.754062 -0.360244 0.145064 -0.884293 -0.043280 -0.112243 -0.002961 0.001981 0.793582 -0.129522 0.062910 -0.325773 -0.640850 -0.268405 -0.342865 0.174481 3.085330 0.033342 -0.051564 -0.097791 0.121505 -0.119745 -0.404248 0.006638 -0.292397 2.244655 0.050710 2.618924 -1.361572 -0.831759 10.786605 0.153631 0.102362 3.540417 -0.084579 -0.046868
0.176552 0.077242 -0.079283 0.072573 -0.066465 -0.080549 -0.103167 0.103756 0.009916 -0.038578 0.133318 0.001211 -0.026342 -0.141196 -0.099575 -0.075572 -0.127078 -0.175030 0.073558 -0.041416 0.133442 -0.001579 0.067027 0.010087 -0.137381 -0.050569 0.069880 -0.011503 0.054266 0.029407 0.081723 0.047789 0.098311 -0.095677 0.053167 0.078896 0.052223 0.050896 -0.093856 -0.046167 0.062580 -0.082878 0.307438 -0.002408 -0.066493 -0.087503 -0.039823 0.098451 -0.167627 -0.054164 0.003218 -0.029518 -0.056232 0.040259 -0.018439 0.216043 -0.075847 0.052142 -0.014637 -0.040538 -0.049449 -0.011286 0.074648 0.012080
0.160436 -0.022439 -0.051897 -0.024855 0.083645 -0.013545 -0.063837 0.147986 -0.135131 0.048632 -0.059471 0.085150 0.064110 -0.135797 0.019353 0.106736 0.026511 0.196647 0.079533 0.006488 -0.052219 -0.035201 0.033548 -0.008483 -0.064457 0.053118 -0.042675 0.122270 0.085570 0.139733 -0.013865 0.041690 -0.522629 0.055171 0.350506 0.126538 0.059508 0.106981 -0.090511 0.143925 0.076903 -0.017066 0.420416 -0.025126 -0.100094 -0.006061 -0.031678 -0.046310 -0.204139 -0.037243 0.068574 0.098698 -0.023331 0.116546 -0.014066 0.033933 -0.067107 -0.038253 -0.146552 -0.082906 0.139183 0.010506 -0.097108 0.077653
0.035995 0.014714 -0.040470 0.065122 -0.079076 -0.096162 -0.049111 0.034791 -0.080940 -0.098863 0.023481 0.058319 0.037195 0.048950 0.083320 -0.020276 -0.116448 -0.034679 0.116025 -0.174904 0.090086 0.156956 0.118508 -0.133515 -0.326839 0.137850 0.018667 0.018646 -0.031638 0.107210 -0.053927 -0.014343 0.043200 -0.041476 0.047192 0.131712 0.071462 0.005867 -0.049880 -0.084416 -0.028541 -0.047522 0.213596 0.047426 0.125854 0.031384 0.170245 -0.077960 -0.220206 -0.047830 0.110566 0.033617 -0.038704 0.149310 0.031430 0.126943 -0.019893 -0.116552 0.062055 -0.037157 -0.010919 -0.127239 -0.068450 0.079656
0.796931 -0.261758 -0.283381 1.020895 -2.192050 0.104850 0.123051 0.161317 1.750515 0.040181 -0.099265 -0.035292 0.026549 1.260349 0.007408 0.096810 -0.095105 -0.026249 0.017893 -0.117814 -0.135107 -0.027131 0.316228 -0.038791 -0.146828 0.114791 -0.096934 0.709318 -0.030130 -1.157688 -0.258956 0.044483 -2.502107 0.084504 0.009627 0.183027 -0.120589 0.112360 3.947135 -0.025770 -0.830528 0.390457 -0.052536 0.004196 0.017561 0.241870 -0.116186 0.062998 -1.234099 -0.181267 -0.398250 -0.092202 -0.991899 -0.093132 0.040563 16.205605 -0.050063 0.133766 -0.016167 0.113632 -1.052720 0.484242 0.207710 -0.081869
0.016405 -0.103263 -0.021029 -0.010440 0.043852 0.090665 0.056147 0.037490 -0.117305 0.116262 0.095623 -0.051450 -0.077118 -0.061911 0.143257 0.111857 -0.106223 -0.064401 -0.808923 0.092055 -0.000999 0.764079 0.129286 -0.058357 -0.103449 -0.022085 0.168234 0.640966 0.076314 0.043006 -0.055552 0.000841 0.086907 0.065706 -0.067309 0.954245 0.075416 0.852466 0.757371 0.063829 0.419168 0.064729 0.005376 -0.138144 -0.103677 -0.567018 0.077602 -0.306104 0.118793 0.122633 2.057682 -0.055954 -0.220615 0.144056 -0.149102 -0.355671 -0.024944 0.298725 -0.052689 -0.131924 0.101369 -0.312772 -0.324401 -0.145465
-0.108216 0.140316 -0.055275 -0.005329 -0.245746 0.926975 0.150038 0.278367 -0.485800 -0.043047 -0.117120 -2.221849 0.259931 -0.053474 0.439470 -0.010250 -0.752564 4.818161 0.487995 0.064497 0.009123 -0.357272 0.145344 -0.033694 0.085598 -0.053655 -0.031938 0.295335 0.245475 -0.763634 -0.076706 -0.084822 3.661556 0.094327 -1.046307 -0.067433 -0.104248 -1.184676 -0.017189 1.098481 -0.446114 0.051948 -2.477333 -0.001800 0.100774 -0.056626 0.038627 0.131254 -0.849989 -0.031695 0.302433 -0.157115 2.218389 2.494007 0.205517 0.011850 -0.042173 0.060234 0.011486 0.096446 1.264718 0.058496 0.040851 0.063710
-0.171053 0.051173 0.086652 0.067813 -0.094172 0.108421 0.249974 0.022933 0.011455 0.057998 0.035466 0.069228 -0.079251 0.007245 -0.106113 -0.073776 0.001045 0.068642 -0.056891 0.126947 -0.154090 0.049043 0.006120 0.004095 0.020172 -0.006287 -0.107429 -0.002359 -0.074175 -0.090646 -0.018962 0.054507 0.289926 -0.114877 0.078723 0.015648 0.019173 -0.194150 0.095575 0.017966 -0.098725 0.018902 -0.048212 -0.037059 -0.025244 -0.057226 -0.015728 -0.077934 0.108822 0.048159 0.040546 0.051835 -0.116781 -0.118704 0.145333 1.275914 -0.194402 -0.014110 0.130749 -0.118442 -0.107843 0.145591 0.010457 0.014801
