0.335580 0.043854 -0.379696 -0.009500 0.016057 0.005607
0.011692 0.028544 0.067496 -0.481829 0.684781 -0.039440
-0.600147 0.498961 -0.070441 -0.000537 -0.000430 0.002831
-0.044303 -0.388900 0.118266 0.267364 0.022082 0.019933
0.004642 0.021155 0.002647 -0.752402 0.003027 0.003527
-0.025920 -0.415407 0.387744 -0.224877 -0.173349 0.021838
0.331952 -0.124995 -0.095099 0.042932 -0.009423 0.020078
-0.305921 0.367522 -0.314938 -0.002723 -0.003631 -0.003233
-0.081871 0.114143 0.017555 -0.103099 -0.074417 0.015693
-0.032679 0.118284 0.532352 0.047728 0.021258 -0.008701
-0.042148 0.062616 -0.158967 0.023974 0.566311 -0.021264
-0.155333 -0.134019 -0.088045 -0.015777 0.033870 -0.090240
0.455856 -0.796508 0.132350 0.012299 -0.003701 -0.016908
-0.067492 -2.541295 1.022326 -0.105833 -0.034700 -0.012224
0.114511 0.107749 0.212980 -0.014967 0.050770 -0.005132
0.616093 0.084325 0.055930 -0.001679 0.025456 0.001290
0.416802 0.096711 -0.396462 0.053108 -0.047828 -0.027841
-0.495233 0.283508 -0.013981 0.016668 -0.006779 0.003519
-0.015124 0.031918 0.319689 0.006628 0.344339 -0.024622
0.197942 0.059798 -0.514956 -0.007958 -0.019498 0.008476
-0.075870 0.258398 0.067694 -0.050144 -0.011658 0.011429
0.211042 1.125651 -0.162165 -0.020320 -0.010853 -0.008218
-0.300658 0.360619 0.199875 0.125699 0.002495 -0.006589
-0.045275 -0.009026 -0.132192 0.276123 1.049732 -0.071637
0.484695 0.024841 0.403391 0.076709 0.021179 0.007378
0.347219 -0.034890 -0.144532 -0.063457 0.033893 0.031941
0.133174 -0.060481 0.281061 0.029380 0.009900 0.007345
-0.144889 0.075132 0.082271 -0.019675 0.180294 0.012696
-0.333997 0.087205 0.619040 -0.087626 -0.013377 -0.014834
-0.016023 -0.340278 -0.081909 -0.547765 0.067731 -0.016820
-0.000363 0.135597 -0.411956 -0.126032 0.029348 -0.002315
0.026722 0.204813 -0.450311 -0.150268 -0.481192 0.028709
0.037474 -0.023056 -0.410669 -0.022699 -0.007054 -0.001799
-0.404361 -0.105159 0.064815 -0.071462 0.197439 -0.012243
0.223629 -0.503604 0.273725 0.005610 0.013122 0.008897
-0.253339 -0.148948 -0.068120 0.055019 0.055123 0.013502
0.026378 -0.043113 -0.041198 0.249474 -0.136394 0.014725
-0.260155 0.024987 -0.195010 0.039737 0.016534 0.050930
0.096454 -0.372912 -0.159857 -0.148171 -0.079774 -0.018746
0.564222 0.157807 -0.024401 -0.009594 0.030550 -0.004396
0.089222 0.545137 -0.312829 0.057385 -0.000025 0.009981
-0.231997 -0.193265 -0.187239 -0.038767 -0.022240 0.005151
-0.162834 -0.028000 -0.389557 0.054736 0.353927 0.001746
-0.049653 -0.404567 0.165019 -0.094281 0.024814 0.018051
-0.337025 -0.391930 -0.023042 0.180643 -0.038790 0.022639
0.354499 0.372736 -0.168725 0.023141 -0.053154 0.021058
0.526358 -0.071228 -0.321258 0.044675 -0.025846 -0.035906
-0.042204 0.215328 -0.359883 0.054064 -0.034345 0.005949
0.230834 -0.100739 0.229262 -0.060001 -0.001536 -0.002892
0.010330 -0.035705 -0.081674 -0.066074 -0.006205 -0.021033
0.121242 0.215919 0.022759 0.020928 -0.003262 0.171380
0.220407 0.406862 -0.168810 0.057328 -0.062170 -0.016538
0.121713 -0.202554 -0.126383 -0.011324 0.013826 -0.008249
0.117197 -0.072756 -0.190000 -0.051332 -0.044415 0.018774
0.453183 -0.431472 0.225312 0.115886 -0.136175 -0.010423
-0.043418 -0.139191 0.466661 -0.149475 -0.053685 -0.011840
-0.016015 -0.022122 0.132807 1.767638 -0.077458 0.006860
-0.186318 -1.772370 -0.073153 0.006963 -0.000700 -0.000927
0.205930 -0.571694 0.431122 0.050789 0.092077 0.005492
-0.006993 -0.016962 0.322231 -2.088757 0.042109 -0.004520
0.178686 -0.043147 -0.389574 0.047538 -0.130876 -0.009647
-0.069684 -0.270540 -1.595828 -0.000995 0.020996 0.002889
0.593722 -0.124907 -0.494871 -0.041322 -0.004741 0.009095
0.370131 -0.395027 0.138157 0.011431 -0.002739 -0.015766
-0.081722 -0.113475 -0.218706 0.202765 0.414759 -0.045724
0.021876 0.326394 0.094360 -0.012434 -0.018015 0.016509
0.397137 -0.191949 -0.361853 0.048261 0.074132 0.017643
-0.444827 -0.379838 -0.209857 0.026332 -0.009017 0.034688
0.358246 0.062573 0.498177 -0.557175 0.093661 0.021252
0.071595 0.012272 0.117285 -0.058642 0.031366 0.016287
-0.086773 -0.248869 0.423206 -0.025203 0.398606 -0.014536
0.044815 0.347150 0.130327 0.041375 -0.032949 0.000185
-0.224744 -0.228642 -0.369095 -0.091333 0.008695 -0.010878
0.027102 1.486843 -1.517337 0.026923 -0.002025 -0.001048
-0.203972 -0.121029 -0.363642 -0.080251 -0.007747 0.036738
-0.215332 -0.068704 0.143400 -0.314613 -0.043682 -0.010282
0.074135 0.193106 0.413710 0.060085 -0.033889 -0.026699
-0.455976 -0.546572 0.325819 -0.021390 -0.015699 -0.004485
0.066077 0.453843 -0.192333 -0.728435 0.042632 0.000112
-0.159551 -0.361838 0.138647 0.042598 -0.084449 0.014360
-0.011130 -0.017024 0.773137 0.477602 -0.009624 0.000419
-0.005971 -0.116644 -0.071634 0.671645 0.019009 -0.005223
0.152558 -0.496740 0.065256 -0.105641 -0.051539 -0.050260
-0.005358 -0.011886 0.063052 -0.015713 1.482686 -0.080705
-0.077010 0.620573 -0.052199 -0.075011 -0.102985 -0.021465
-0.383534 0.189031 0.229926 0.011830 0.076397 0.000771
0.385253 0.369485 0.064499 0.408772 -0.463871 0.036507
0.145888 0.269981 0.471738 0.031690 0.025812 -0.018109
-0.285010 0.292313 -0.432170 0.170002 0.042202 0.021400
1.374393 -0.290162 -1.089268 -0.011425 0.018841 0.006249
-0.190010 -0.494212 -0.060427 0.248057 0.170755 -0.127246
-0.160506 -0.411247 0.139200 0.001439 -0.051271 -0.002091
-0.224504 0.110806 0.109771 0.411247 -0.028045 0.017360
0.191893 -0.779958 -0.034485 -0.012380 0.026555 -0.005860
0.049357 -0.451183 0.481294 0.112430 -0.034537 -0.011043
-0.397466 -0.094377 -0.051259 0.049539 0.105080 0.005739
0.002840 -0.003190 0.441644 1.552957 -0.086845 -0.002097
0.128832 0.793077 -0.370601 -0.495551 -0.008700 -0.017903
0.354131 0.343305 -0.669979 -0.083024 0.013474 -0.011270
0.129270 -0.284063 0.097884 -0.039513 -0.204408 -0.019535
-0.008020 0.139455 0.335538 0.002219 -0.037396 -0.025693
-0.345682 -0.023662 -0.377322 -0.076557 -0.008532 0.004927
-0.501773 0.431169 0.156219 -0.109453 0.008476 -0.020170
0.296762 0.205052 -0.062926 0.058239 -0.109594 0.001881
-0.158624 -0.124405 -0.527611 -0.029458 -0.007498 0.000113
-1.883923 0.328444 0.031048 -0.010185 0.002040 0.003274
-0.238110 -0.026566 -0.396283 0.078630 -0.060623 -0.019919
0.015863 0.162316 0.180017 -0.023650 -0.062688 -0.030308
-0.046105 -0.381258 -0.226419 -0.042909 -0.047507 -0.012062
-0.036194 -0.072940 0.044679 0.198206 0.110138 -0.004995
-0.253282 0.458634 -0.381482 0.032603 -0.078441 0.004607
-0.448827 0.076400 0.094402 -0.006262 0.021781 0.034226
-0.123824 -0.358066 -0.212995 0.124940 -0.059980 0.001384
0.023365 0.028554 -0.493936 -0.094459 0.002246 -0.005601
0.016197 0.005637 -0.202623 -0.932938 -1.214856 0.086010
0.468030 0.111596 0.089664 0.002453 0.004889 -0.000748
-0.165655 0.069884 0.309785 -0.138121 -0.161085 0.017994
0.348526 -0.072032 0.174184 -0.007242 -0.025531 0.006328
-0.486878 -1.024352 0.289800 0.007971 -0.016251 -0.000056
0.112870 0.103044 0.350479 0.073906 0.026563 0.020014
-0.364848 0.124928 0.369999 0.065297 0.019019 0.005804
-0.011278 0.222526 0.363487 -0.020778 -0.095573 -0.002066
-0.237737 0.358267 -0.004315 0.109491 -0.043799 -0.031006
0.095746 0.272582 -0.264508 0.682507 0.001276 0.019938
-0.186930 -0.187214 0.076128 0.225054 -0.020521 0.005158
1.598777 0.266385 0.333751 0.000602 -0.013747 0.005063
0.194080 0.598636 -0.293348 0.009963 -0.147382 0.033766
-0.010144 -0.458278 -0.389272 0.018190 0.028848 0.001089
