-0.178283 1.170031 0.089293 -0.011775 -1.185254 -0.285761 -0.126407 0.037124 0.857839 -0.177799 -0.786479 0.201134 0.007109 0.167466 0.073933 0.035576 0.410480 -0.248789 0.011313 0.024350 -0.588944 -0.026628 0.105648 0.235454 -0.116440 0.055124 -0.328198 -0.180576 0.367674 1.573792 0.029748 0.793508 -0.134683 0.496252 0.097553 0.035422 0.010879 -0.160936 -0.374852 -0.048711 0.100350 0.262199 0.517131 -0.061451 0.026089 -0.143061 0.091516 0.376344 0.038384 -0.108201 0.353152 -0.072311 0.072972 -0.081654 -0.318091 0.415061 0.783927 0.016472 -0.010558 -0.355636 -0.256342 0.015294 -0.051328 -0.169611 0.527095 0.025475 -0.029612 -0.100079 0.509368 0.001484 -1.118569 -0.291325 -0.070199 -0.057195 0.118066 -0.982415 -0.056672 0.107391 -0.344573 -0.164594 -0.291655 -0.026214 0.425913 0.563428 0.493944 -0.076266 0.188967 0.350739 -0.112303 0.018807 0.170695 0.051255 -0.510876 -0.069018 0.114173 -0.087310 -0.114348 0.110896 0.076256 0.029182 0.122759 0.120982 -0.483882 -0.288418 0.063868 -0.230796 -0.564026 -0.184504 -0.549528 -0.109282 0.043688 -0.024791 -0.272135 0.443761 -0.267369 0.730270 0.553722 -0.038372 0.016654 0.177269 0.647555 0.020280 0.127601 -0.578599 0.763884 -0.025034 -0.038833 -1.121774
0.519616 0.005872 -0.031817 0.026700 -0.139544 0.022572 0.070617 -0.014928 0.099780 -1.058643 -0.015522 -0.434038 0.439333 0.425523 0.334787 0.021732 0.042206 -0.046606 -0.135237 0.532111 0.007591 1.546535 -0.003068 0.041364 0.091568 0.376775 -0.047575 0.025834 0.016434 0.172397 0.022191 0.028881 -0.050103 0.141985 -0.008402 -1.397734 -0.018862 -0.072760 -0.336733 2.006355 -0.069245 -1.241094 -0.021705 -0.050833 -0.030132 0.296920 -0.026960 -0.036417 1.852357 -0.265310 -0.068345 0.181822 0.060278 0.034707 0.123115 -0.313380 -0.000889 0.066206 -0.349281 0.051791 0.687507 0.053213 0.107207 -0.032486 -0.077123 0.016736 -0.038832 -0.339129 0.105137 0.819824 0.071174 -0.648133 -0.385884 -0.001794 -0.598798 -0.152973 0.186612 0.357387 -0.141009 -0.219223 -0.235661 0.014187 -0.201919 0.020716 0.081702 -0.159574 0.010047 -0.098674 -0.044170 -0.137402 -0.059207 0.025926 0.517903 -0.030854 0.128233 -0.512682 -0.094908 -0.099004 0.529431 -0.134092 -0.350290 -1.897976 -0.038773 -0.194370 0.102846 0.787777 -0.000973 0.241175 -0.046196 -0.197444 -0.063159 0.027586 -0.829890 0.606020 -0.066725 0.179800 -0.157777 0.219847 -0.964324 0.023543 -0.070617 0.262487 -0.036972 0.329775 -0.242919 0.230261 0.143622 1.180168
-0.714852 -0.242536 0.086455 0.020926 3.045758 0.209272 0.105553 -0.385973 -1.039661 5.796853 -0.121414 0.330641 0.000031 0.090599 -0.546272 0.069517 0.061745 -0.001148 -0.688493 -0.000366 -0.841750 0.090530 -0.046193 0.300738 0.189468 0.256052 0.803941 0.137102 0.352869 0.273944 -0.021437 -0.012960 -1.452301 0.365831 0.286759 0.202500 0.047869 -0.150402 -0.005088 -0.161670 0.089948 -0.049048 -0.182085 -0.083844 -0.038206 -0.032604 0.175171 0.017017 0.002576 -0.124284 0.181266 -0.042695 -0.414387 -0.022935 0.005342 0.810939 0.435722 -0.129166 -0.293101 2.394593 0.049642 1.428224 -0.018449 -0.023765 -0.108618 -0.092475 -0.144425 -0.173182 0.511580 -0.119047 0.118683 -0.042828 0.125661 0.052760 0.048176 0.687915 0.105355 0.249549 0.260047 -0.090879 5.167788 -0.979489 -0.047674 0.172863 0.101863 -0.145260 0.084890 -0.013854 -0.084417 0.050820 0.157944 0.014881 -0.018191 0.143326 -0.023563 -0.108011 -0.597135 -0.156162 -0.127333 -0.002710 -0.034518 -1.440533 0.034347 -0.411111 -1.486983 -0.079614 0.340294 0.113366 -0.112796 0.071269 -0.030348 0.181307 0.282827 -9.039991 0.055004 -0.015519 0.288252 0.319675 0.054329 1.874459 0.114484 0.013577 0.069540 0.105276 0.307636 0.060884 0.002412 0.146485
0.050995 0.051781 0.238373 -0.047190 0.025920 0.086695 -0.049934 -0.123584 0.332751 0.071301 -0.057798 0.066506 -0.205546 -0.204865 -0.046228 0.012567 0.057394 0.115067 -0.055772 0.131065 0.019152 -0.083462 -0.008103 -0.118124 0.031048 0.055169 0.057647 -0.053664 -0.133932 0.039653 -0.000574 -0.072483 -0.016589 -0.010556 -0.172846 0.018561 0.558551 0.050245 0.065728 0.054499 0.140763 -0.047426 0.219719 0.035820 -0.048647 0.010111 0.015191 0.031498 -0.091409 0.076469 0.013390 0.017121 0.016005 0.207126 0.024818 0.164683 -0.210499 0.040143 -0.020630 -0.110507 0.110895 0.159751 -0.205747 0.010826 0.233301 -0.002702 0.100650 0.053834 -0.105225 -0.523191 -0.088289 0.254177 0.122227 -0.133929 -0.034765 -0.254980 -0.054162 0.023320 0.075885 0.082070 -0.039499 0.006068 0.028890 -0.003954 -0.030133 0.034961 -0.130270 0.016860 -0.111825 0.083213 0.040410 -0.059936 -0.052832 0.039899 -0.216280 -0.144202 -0.058844 0.013877 -0.020127 -0.014614 0.028809 0.107389 0.034812 -0.069907 -0.048463 -0.088454 0.152864 -0.104929 -0.068754 -0.264105 0.081052 -0.015558 0.037497 -0.245074 0.005773 -0.013010 -0.006161 0.038108 0.044837 0.030213 0.106583 -0.227554 -0.013505 0.081300 -0.034529 -0.135598 -0.026736 -0.105822
0.027367 -0.136789 -2.055321 -1.332699 -0.162688 0.138649 -0.064046 1.392921 0.068958 -0.051801 -0.058473 -0.129578 0.142602 0.188763 0.736003 -0.842564 -0.654578 -0.143305 0.001072 -0.008200 -0.076594 -0.423042 0.067985 -0.170029 -0.246961 0.160621 -0.019294 0.002773 -0.102385 -0.269644 -0.143053 0.081040 -0.047812 0.003706 2.126377 -0.030806 -0.833985 0.021040 0.059814 -0.062150 1.185501 -0.103121 -0.067576 -0.171842 -0.249046 0.011298 1.496598 -0.200148 0.913393 -0.002972 -0.075896 -0.132965 -0.026725 -0.060100 -0.052007 0.029080 -0.049327 0.230190 0.065039 -0.075907 0.078117 0.502320 -0.093368 -0.049490 -0.057323 -0.066222 0.068720 0.005789 0.043527 0.461622 0.172800 -0.050627 -0.024627 -1.758598 -0.020214 0.025830 -0.338991 0.215247 0.618023 0.086864 0.009385 0.309701 -0.347328 -0.044070 -0.038541 -0.154572 -0.009841 -0.071696 0.069020 -0.386328 -0.029747 0.989479 -0.062611 -3.082402 1.061397 0.091096 -0.197900 -0.902381 1.096042 -0.302768 -0.059776 -0.261673 -0.057181 0.251192 -0.033812 0.907922 -0.029396 -0.051885 0.345247 1.597852 0.920606 -0.230360 0.107060 -0.040421 0.062583 0.095151 -0.087683 -0.066448 1.135325 -0.106841 0.028923 0.207161 -0.127182 -0.263797 0.050736 -0.283649 0.062567 0.796227
-0.389139 0.075258 0.038202 -0.119652 0.097349 -0.136808 -0.057399 -0.094730 0.133700 0.031099 0.149457 0.160928 -0.340853 -0.069767 0.077026 0.297680 0.078724 0.098013 0.167369 0.123022 0.049942 0.379865 0.068581 -0.080590 0.031328 -0.049373 -0.053995 0.011119 0.094322 0.103415 0.068762 0.005798 -0.153744 -0.049126 -0.835967 -0.106722 -0.119137 -0.107712 -0.000272 -0.018674 0.101623 0.030803 -0.018749 0.008076 0.014173 -0.021209 -0.148444 0.100032 0.095863 -0.733411 0.071599 0.086980 0.044878 -0.079882 -0.063987 -0.101844 -0.158098 0.005700 -0.005681 0.033598 -0.134233 0.041203 -0.030599 -0.084541 -0.045151 -0.087924 -0.269940 -0.128181 -0.049092 -0.038138 -0.012831 -0.181893 -0.039043 0.009151 0.030755 0.000346 0.065273 -0.208283 -0.018596 -0.068972 0.256063 0.101792 -0.074565 -0.108319 0.000288 0.114629 0.068497 0.078803 0.062484 -0.015995 0.002992 0.048194 0.119121 0.013016 -0.121491 -0.024342 0.087011 0.050208 -0.032138 -0.061848 0.174432 0.067669 0.094758 -0.024446 -0.078011 -0.175215 -0.011233 0.133200 0.226820 -0.046292 0.098702 0.190046 -0.089632 -0.016094 -0.071579 0.002569 0.366679 -0.023908 -0.092283 0.076679 0.120298 0.054756 0.101358 0.118413 -0.051049 0.045988 -0.050224 -0.072547
0.370296 -0.143450 -0.107299 0.057267 0.065928 0.056214 -0.120105 -0.080699 -0.067767 -0.115065 -0.059990 -0.069330 0.259510 0.039326 0.038013 -0.442918 0.025630 -0.097466 -0.075466 -0.086954 0.170285 -0.236282 -0.019242 0.056807 -0.008699 -0.047724 -0.080507 0.049634 -0.107978 -0.078289 -0.003036 -0.086979 -0.003275 0.083919 0.501998 0.101584 0.038225 0.183700 -0.027113 0.008128 -0.051965 -0.160369 0.000368 0.095772 0.108235 0.097919 -0.155299 -0.050594 -0.075702 0.918230 0.000146 0.019230 -0.085812 -0.019171 0.037827 -0.042955 -0.107704 0.106927 0.042066 -0.052691 0.093141 -0.135080 0.314221 0.024496 0.046328 0.027282 0.147874 0.116692 -0.076446 -0.063702 0.154170 0.123700 0.147758 -0.111617 -0.141900 -0.094391 -0.068003 0.037561 0.153359 0.052275 -0.084252 0.192115 -0.058073 -0.052559 -0.103615 -0.159330 0.022491 -0.047229 0.067427 0.166325 0.030096 -0.022662 -0.194393 -0.020795 0.243673 0.029041 0.205802 -0.069760 -0.067763 -0.045624 -0.081194 0.008893 -0.212810 0.151468 -0.056922 -0.042229 0.082454 -0.118212 -0.021135 -0.035089 -0.056040 -0.307525 -0.302627 0.024268 0.069926 0.017985 -0.171193 -0.031359 0.130789 -0.114680 -0.301157 0.017477 -0.081854 -0.104055 -0.268807 0.317618 -0.003809 0.120086
0.048958 -0.245070 -0.142530 0.008080 -0.179734 0.417383 -0.112126 -0.411095 -0.595373 4.181957 -0.002122 0.260071 -0.040203 -0.067141 -0.026690 0.084462 0.023293 0.059121 0.684577 0.000222 -0.123169 -0.328061 0.015437 -0.622575 0.093387 -0.492443 0.924074 -0.093009 0.089293 -0.154414 -0.012855 -0.218752 -11.612411 -0.196707 0.055140 0.017215 -0.234619 -0.101078 0.046379 -0.242471 -0.113616 -0.050725 -0.129417 0.014477 0.077528 -0.254404 -0.121367 -0.392684 -0.010759 0.665964 -0.008244 -0.056846 -0.052635 0.021940 0.064607 3.140197 -1.977671 -0.142819 -0.039464 0.095618 -1.334060 -0.280824 0.042576 0.069481 -0.733692 0.099310 0.020151 0.121521 0.132240 0.687719 0.123062 -1.346296 -0.729149 -0.032205 -0.383901 -0.105613 -0.625695 0.345110 0.304423 0.251740 -0.247647 0.818554 -0.037241 -0.016785 -0.429170 -0.034209 -0.074476 0.484496 -0.072827 0.101737 0.109346 -0.032690 0.053336 -0.038799 0.233563 -0.158248 1.675246 -0.032376 -0.082234 0.052088 0.493554 0.016215 -0.029942 -0.313304 -1.708373 0.144709 -0.849001 -0.117258 -0.046441 0.029235 0.030298 -0.029280 0.339703 -0.111114 -0.127228 1.047095 0.937537 0.144232 -0.061941 1.791245 0.104612 0.036409 -0.055825 -0.013413 0.090463 0.038973 -0.039788 -0.539379
0.036711 -0.007769 -1.171916 0.040421 0.015253 0.082316 -0.046759 -0.095440 -0.034349 0.044136 0.050321 0.009370 0.129919 -0.021651 -0.047595 -0.021934 -0.081287 -0.008255 0.046349 -0.076187 0.061147 -0.051023 -0.047312 -0.052143 -0.097719 -0.119384 -0.009561 0.091600 -0.060601 0.018811 -0.076068 0.048752 0.028105 0.036474 0.197515 0.016205 -0.043955 0.104932 0.007233 -0.033955 -0.179790 -0.044340 0.097547 0.113852 0.140802 -0.023708 0.003116 -0.086383 -0.021907 -0.035280 -0.042754 -0.108746 0.032804 0.032437 0.105147 0.086710 -0.045445 0.013104 0.029054 -0.023861 0.199022 -0.174704 -0.035682 0.064989 -0.118119 -0.092012 -0.060812 0.227915 -0.082289 0.339192 0.085621 -0.040152 0.026287 0.092836 -0.226086 0.002754 0.000225 0.118781 0.023511 0.107998 -0.038585 -0.083797 -0.071536 -0.063021 0.046828 0.056497 0.039803 -0.175394 -0.062675 0.097862 -0.026575 0.335042 0.057585 1.246569 0.162618 0.036152 0.082445 -0.001912 -0.226155 0.078858 0.052120 -0.142157 -0.111084 -0.037390 0.054942 0.061816 0.144057 0.080128 -0.024022 0.199389 -0.059826 0.068741 -0.058157 0.099002 -0.001565 -1.605957 -0.014007 0.010707 0.247389 -0.023512 -0.033775 0.118444 -0.098049 -0.008758 -0.088201 -0.030906 -0.094928 0.098329
0.027521 0.045769 0.017647 0.016116 0.106393 0.037640 -0.069366 -0.046347 -0.084359 0.043254 0.084445 -0.021329 0.014164 -0.052268 0.054646 0.040261 0.286389 0.024154 -0.052117 0.019959 0.009853 0.030835 0.066521 -0.016355 -0.014185 0.032429 0.116406 -0.105506 0.031752 0.105087 -0.119243 -0.001908 -0.028133 0.006718 0.035276 0.026328 0.041406 -0.084759 -0.089213 -0.063172 -0.088072 0.070037 -0.051531 -0.054754 -0.067075 0.068663 0.021806 -0.067621 -0.026910 0.022003 0.088120 0.090466 -0.044060 0.024904 -0.061540 -0.064769 -0.055329 0.029292 0.024269 0.020413 -0.060501 0.075713 -0.096094 -0.079668 0.011604 0.028939 -0.074712 -0.099691 0.017930 -0.048225 -0.092421 -0.018563 0.004158 -0.065305 -0.082414 0.020457 0.032826 -0.068060 -0.009989 0.006275 0.049977 -0.058057 -0.094285 -0.035638 -0.041401 -0.064116 0.045723 0.134205 0.186644 -0.007779 -0.054979 -0.066014 0.000100 0.073673 0.031891 -0.052880 0.060197 -0.063856 -0.052976 -0.047874 -0.015551 0.016726 0.030861 -0.042600 -0.062810 0.108795 0.090549 -0.034806 0.018309 0.040196 -0.069414 0.081565 -0.063519 0.034014 0.005741 0.090395 -0.027285 -0.033743 -0.062940 0.076307 0.056314 -0.045348 0.042228 -0.101315 0.073955 -0.017427 -0.074922 -0.066862
-0.279885 -0.021009 0.108578 0.099677 0.073456 0.030911 -0.026024 -0.016864 0.402706 -0.091707 0.025143 0.274789 -0.087151 -0.097345 0.134619 0.078232 -0.009442 -0.129325 0.150006 0.001797 0.187189 0.030106 -0.069159 -0.134127 0.077460 0.053433 -0.010948 0.042102 0.093986 0.018913 -0.001338 0.099104 0.595625 -0.066481 -0.052596 -0.064694 -0.334284 -0.115898 -0.004304 -0.006753 0.116235 0.050331 -0.053013 0.002643 -0.121682 0.080574 0.101636 0.047213 0.119966 -0.535844 0.235189 0.006457 0.024324 -0.270014 -0.066686 0.164890 -0.088610 -0.015846 0.066385 -0.005488 -0.071650 0.132734 -0.008691 -0.028051 -0.190751 -0.075919 0.144304 0.018724 -0.136438 0.076927 0.079825 0.475051 -0.094630 0.025109 0.177996 -0.087920 0.725077 -0.142178 0.162688 0.007956 0.156412 0.089751 -0.045379 -0.106892 0.029162 -0.057700 -0.030919 0.139351 0.074254 0.001321 0.106434 0.024729 0.018779 -0.052981 -0.018210 -0.004844 0.093051 0.012981 -0.009646 -0.111045 -0.380349 -0.045104 0.104538 0.010256 0.067711 0.033645 -0.069537 0.061069 -0.116741 0.196046 -0.055275 0.111701 -0.423277 -0.151014 -0.175338 -0.313776 0.378334 0.036873 -0.237865 -0.073487 0.170768 0.009365 0.109911 0.057877 -0.067391 0.078093 -0.090079 0.033124
-0.021145 0.142631 0.128314 -0.119897 -0.863088 -0.229063 0.045956 0.081316 -0.114263 1.019714 -0.043964 0.132783 0.186270 -0.055209 0.073493 1.280360 0.013607 0.055112 0.074461 -0.099243 -0.001119 0.851080 -0.016435 -0.015176 -0.102905 0.217157 0.053255 -0.513294 0.280605 0.171897 -0.310664 0.235106 -1.434016 0.072250 -0.121202 -0.039369 0.132771 0.693432 0.042884 0.029106 0.107841 0.236821 -0.164990 0.006560 -0.116678 0.062241 -0.074851 0.002141 -0.019637 -0.074926 -0.017264 -0.009821 -0.043881 -0.040416 0.050557 0.547573 -0.199744 0.254459 -0.140958 -0.006560 0.311671 0.336017 -0.158534 0.028987 0.070105 0.062042 -0.122826 -0.128808 0.259945 -0.027871 -0.149883 0.097184 -0.101661 1.313412 0.072804 0.120430 0.089370 -0.111029 -0.081795 -0.123664 -0.185946 -0.144500 -0.622440 -0.069130 -0.207598 0.212292 -0.078967 1.936378 0.006186 0.190465 0.003188 0.030556 -0.083309 0.246064 -0.157181 0.132076 -0.397031 -0.125670 -0.093187 -0.053192 0.939381 -0.158648 0.691850 0.135677 -0.943497 -0.165398 -0.845809 0.053327 -0.019555 -0.266277 -0.001905 0.480486 0.003518 -0.000276 -0.101928 0.252872 0.470204 -0.041292 0.106781 1.565123 0.010824 -0.153872 -0.025910 0.096912 -0.125973 0.168248 0.066827 0.002658
0.446381 0.045255 -0.042985 0.106474 0.002657 0.053688 -0.003401 -0.207113 -0.194506 -0.041155 -0.099018 -0.052442 -0.036063 0.141804 -0.125079 -0.536356 -0.076896 -0.031162 -0.132869 -0.101862 -0.183561 -0.065581 0.080695 -0.018162 -0.342111 0.109580 -0.151526 -0.051241 -0.048758 -0.032158 -0.086178 0.024588 -0.043580 0.116098 0.058854 0.146628 0.040555 0.147459 0.022667 0.002518 -0.094738 0.037555 0.009183 -0.022462 0.000819 -0.059637 0.018794 -0.082267 -0.013184 0.276473 0.004100 0.005161 0.047622 -0.009783 -0.013495 -0.279888 0.016950 0.002594 0.035624 -0.105673 0.057346 -0.155104 0.176340 -0.009361 0.053955 0.020724 0.067633 0.160774 -0.007110 0.001540 0.092012 -0.113431 0.508874 -0.018179 0.153855 -0.061358 -0.125010 0.211568 0.025023 0.130037 -0.009299 -0.119321 0.037709 -0.021607 -0.043420 -0.153093 -0.096444 -0.252608 -0.083345 -0.039326 0.090365 0.050888 0.066661 0.026648 0.126788 0.073600 0.062167 -0.032997 -0.009312 -0.056845 0.104306 0.028587 -0.027386 0.008106 -0.023900 -0.070329 0.043031 -0.024907 -0.163116 -0.050683 0.008296 -0.099344 0.108926 -0.020539 -0.059694 -0.039935 -0.127283 -0.090610 0.490614 -0.131783 -0.295259 -0.053324 -0.005215 -0.061237 -0.038873 -0.179613 -0.018561 0.037085
-0.132756 -0.133372 -0.019107 -0.025358 -0.406524 0.001301 0.059299 -0.029085 0.038991 0.065009 -0.067782 -0.073462 0.039729 -0.107160 0.172236 0.180757 -0.025088 0.019690 0.065161 -0.342041 -0.032046 0.067427 0.006138 0.043877 -0.018811 0.007040 -0.089880 -0.069269 -0.021204 0.052658 0.165902 0.068300 0.019148 -0.016188 -0.107394 0.101929 -0.005746 -0.109853 -0.055568 -0.110199 -0.056679 -0.129080 -0.006271 0.102933 -0.008824 -0.070424 -0.027075 -0.140668 0.069411 -0.583082 0.108714 0.092714 0.005666 -0.456869 0.088698 -0.007797 0.184254 0.111959 -0.084704 0.016271 -0.039453 0.346455 0.001677 -0.156775 -0.188003 -0.047301 -0.049851 -0.000747 0.187220 -0.507986 0.130760 1.000877 -0.153420 -0.654865 -0.051050 0.124399 0.046493 0.296915 0.323492 -0.046304 0.032259 -0.159318 -0.018636 0.072457 0.043377 0.111974 -0.086550 -0.056339 0.004844 0.228951 0.069198 0.055310 0.041509 0.008841 -0.216186 0.195351 -0.260682 -0.373423 0.025546 0.215697 0.013198 -1.310586 0.021315 0.039459 -0.092351 0.744008 -0.084222 0.014722 -0.007194 0.195194 0.040918 0.052855 -0.119376 -0.040177 -0.051877 0.185528 0.067236 0.030689 -0.100829 0.064352 0.074286 0.164540 -0.021818 -0.176132 -0.584833 0.183015 -0.042603 0.097239
-0.226107 -0.011078 0.097745 -0.062744 0.013394 -0.025965 -0.002614 -0.012788 -0.095628 0.061775 -0.058414 0.065251 0.125043 0.182481 0.076129 0.031747 0.087153 0.086252 0.079871 0.198460 0.148531 -0.031034 0.011323 0.001942 -0.077363 -0.100339 0.001943 0.155325 -0.045068 -0.028972 0.066673 0.045015 -0.407347 0.024121 -0.155481 -0.145430 -0.046046 -0.108254 0.032683 -0.080348 0.070457 -0.059866 -0.041598 0.081929 -0.044620 -0.092653 0.082158 0.128262 -0.259117 -0.437057 0.042425 0.077395 -0.007444 -0.033709 -0.044728 0.083524 -0.111515 -0.035742 -0.008444 -0.017236 0.200464 0.288399 -0.259123 -0.054321 0.013463 0.063790 0.195850 0.041829 0.054456 0.083515 -0.101976 0.049564 -0.044468 0.010714 -0.070130 0.033394 0.025831 0.085174 -0.051369 -0.052413 0.080539 -0.018964 0.121021 -0.024688 0.042061 -0.203719 0.000488 0.106970 -0.003576 0.555266 0.015491 0.063219 0.171877 0.094181 -0.074055 0.109812 -0.036592 -0.050040 -0.001071 -0.106556 -0.065262 -0.027137 -0.055818 -0.079827 -0.039730 0.103774 -0.097755 0.097682 -0.003803 0.093804 0.075007 -0.273039 -0.038169 -0.058640 -0.023310 -0.434625 0.287064 -0.113292 -0.032693 0.041819 0.119999 -0.041460 -0.019359 -0.015700 -0.073658 -0.004453 -0.043581 -0.099535
-0.168458 0.044162 -0.006561 0.015873 0.007599 -0.032669 -0.425847 -0.718025 -0.105457 -0.220768 0.121310 0.062128 1.432336 0.273048 0.157125 -3.143210 0.026117 0.307713 0.040185 -0.015153 0.555183 0.028157 -0.052576 -0.028968 -0.735880 -0.173690 -0.080960 0.159607 0.029907 0.030527 0.075356 0.068441 -0.088878 -0.004385 -0.509730 0.100246 0.156289 0.173623 0.084605 0.054085 0.034384 -0.003089 0.012335 0.026108 -0.072571 -0.275025 -0.016947 0.115132 -0.003132 -0.423729 0.076525 0.336582 -0.417677 -0.122672 -0.096599 -0.066511 -0.007615 -0.627972 0.037318 -0.058949 -0.146513 0.119206 -0.036478 0.017143 -0.063181 0.558274 0.023003 -0.068014 0.018828 -0.000516 0.096660 0.248686 -0.156298 -0.134215 -0.219465 0.055985 0.155209 -0.079846 0.104702 -0.043728 0.092768 0.096576 0.052020 -0.107978 0.059203 0.033364 -0.026297 -0.069279 0.218743 -0.123251 -0.129845 -0.020982 -0.051726 -0.013954 -0.168299 0.149233 0.035552 -0.065230 -0.430664 0.010211 0.310122 -0.065763 0.014177 0.049080 0.060940 0.433418 -0.003650 0.031704 -0.229624 0.049297 0.018768 0.150821 -0.179565 0.000255 -0.006370 0.127725 -0.102793 -0.569185 0.329457 0.029008 0.179836 0.151919 0.080464 -0.132558 -0.099237 -1.089757 -0.039905 -0.007621
0.361989 0.575689 0.030440 -0.040660 0.191809 0.127840 -0.068070 0.128443 0.282435 -0.071195 0.013852 0.173340 -0.009105 0.095096 -0.054618 -0.460190 -0.047896 0.047880 -0.220836 -0.080481 0.032534 -0.091383 -0.115171 -0.219085 -0.323817 -0.081896 -0.058774 -0.364030 -0.072159 0.069756 0.039084 0.041055 0.168585 -0.094556 0.058816 -0.334545 -0.053271 0.199810 -0.206498 -0.027549 -0.039608 0.117094 0.292065 -0.013589 0.119270 0.076856 0.031371 -0.039617 -0.053495 0.292381 0.019545 0.041736 0.060523 -0.050051 0.083194 0.212994 -0.179862 -0.532729 0.044894 0.061894 0.003190 -0.128786 0.074708 -0.271884 0.131560 -0.028866 -0.006248 -0.079744 0.089365 -0.056330 0.059921 -0.077203 -0.054137 -0.120812 -0.047070 -0.018697 -0.092866 -0.001140 -0.208817 0.040145 -0.021673 0.005924 0.022308 -0.179582 0.280379 -0.033836 0.093273 -0.030290 -0.051256 0.029123 -0.090283 0.016925 0.241008 0.081844 0.093597 0.019773 0.141614 -0.059716 -0.097003 -0.018339 -0.226001 -0.004464 0.003298 0.245627 -0.010299 -0.242906 0.043790 -0.018303 0.520296 -0.070524 -0.054053 -0.102397 0.070889 0.042578 -0.354683 -0.369540 -0.120992 -0.033332 0.253912 0.026973 -0.049210 -0.057923 0.007781 0.048448 0.264383 -0.017989 0.053932 -0.420094
-0.402224 0.163862 1.580682 -0.200609 0.325335 -0.042775 0.141478 0.087765 0.330457 0.781355 0.300050 -0.092380 -1.250742 0.027850 0.401344 0.449549 0.034455 0.160393 -0.435034 0.246371 0.164259 -0.825152 0.199411 -0.098621 0.019726 0.109089 0.060971 0.042997 -0.046966 0.367243 0.360099 0.155943 -0.035750 -0.025422 -1.275801 -0.089689 0.291311 -0.237399 -0.597610 -0.026075 0.136411 -0.119343 0.061947 -1.132864 -0.093335 -0.010124 -0.006300 0.144438 -1.101608 -0.293030 0.164864 0.097811 -0.008941 0.027871 -0.710114 0.051382 0.315053 0.217362 -0.138768 0.125974 -0.836696 -0.381079 -0.285933 -0.091195 -0.516135 0.029000 -0.486945 -0.088808 0.110568 0.046880 0.094203 -0.904603 0.067728 -0.526817 -0.113687 0.022182 -0.062506 0.116169 0.432174 -0.722011 0.207030 0.122793 -0.145821 -0.031836 0.401880 0.264528 0.220968 0.086708 -0.241639 -0.205767 0.025163 -0.086792 -0.012614 0.041941 -0.227370 -0.089151 0.263372 -0.153008 0.144107 -0.032255 0.167428 0.050944 0.306990 0.366010 0.339833 -0.399530 0.010427 0.079198 -0.137960 0.372220 -0.043220 0.124852 -0.680485 0.047022 -0.066389 -1.542655 0.075700 0.711193 0.132996 -0.017040 0.339615 -0.587891 1.570639 -0.036604 -0.091720 0.325379 -0.083903 -0.049611
0.418357 0.117310 -0.104735 0.064063 0.110013 -0.034496 -0.121431 -0.037806 -0.003991 0.050044 0.104340 0.049576 0.063361 0.124307 -0.112194 -0.149667 0.076842 -0.020843 -0.131592 -0.124944 -0.155661 -0.201448 0.158211 -0.049114 0.010843 -0.016095 -0.101429 0.122476 -0.110052 0.035030 -0.036821 -0.031965 0.136951 -0.137592 0.292738 0.032330 0.054415 0.385344 -0.065981 -0.023465 -0.012873 0.022522 0.028593 0.012452 -0.040631 0.053235 -0.006259 0.005002 0.001140 0.456505 -0.072430 -0.129136 -0.027711 0.013439 0.025137 0.026907 0.085626 -0.096913 0.182383 0.082922 0.290672 -0.060747 0.162909 0.022679 -0.010558 0.120620 -0.001888 0.038733 -0.071571 0.019151 0.100561 -0.064697 0.145252 -0.105904 -0.039145 -0.213706 0.015228 0.064590 0.171607 0.004538 -0.064457 0.083380 0.023324 -0.083036 -0.010238 0.022268 0.049977 -0.341504 0.045587 0.133160 -0.003401 0.114119 0.060033 -0.064924 0.271057 -0.002506 -0.018748 -0.068546 -0.102187 -0.062391 -0.134392 -0.043288 -0.044033 -0.038073 -0.010775 -0.135078 0.097173 -0.029833 -0.037746 -0.066660 0.003456 -0.115650 0.003461 0.432714 -0.046106 -0.080769 -0.106681 0.077240 0.127883 -0.075561 -0.181731 0.030145 0.297313 -0.051110 -0.318404 -0.075604 -0.065496 0.023849
-0.311950 -0.119568 0.041610 -0.024444 -0.073070 0.031342 0.050175 -0.238090 0.106775 0.005389 0.183540 -0.188260 0.015911 -0.109824 0.105981 0.241182 0.039540 -0.061517 0.093987 0.045993 -0.137654 0.119506 -0.056216 -0.040985 0.158383 0.008573 0.009290 0.000129 0.004653 -0.063697 0.129248 -0.042687 -0.086794 0.024713 -0.248304 -0.113373 -0.252125 -0.153535 0.044261 0.018594 -0.039211 0.047795 -0.032084 -0.106882 -0.063922 0.011087 0.061177 0.057115 0.087924 -0.482151 -0.023671 0.063922 -0.110620 0.008534 0.002933 0.106008 -0.026373 -0.014520 -0.006290 0.003280 -0.052631 0.024836 -0.207395 -0.034046 -0.061655 -0.207900 -0.123661 0.037492 -0.075210 0.090424 -0.017900 -0.021105 -0.107997 0.103001 0.046607 -0.047737 0.086619 -0.180929 -0.250833 0.001831 0.178829 0.034590 0.014743 -0.060515 0.014464 -0.009047 -0.030872 0.139281 0.099958 -0.089996 0.099086 -0.027358 -0.275062 -0.077991 -0.111006 -0.013221 -0.012468 0.022389 0.046865 -0.079933 -0.121464 -0.034098 0.052913 0.006816 -0.142167 -0.050552 -0.049776 0.196101 0.368782 0.077308 0.051637 0.146217 -0.105471 -0.016699 -0.027435 0.170859 0.188328 0.074545 -0.109164 0.120997 0.033492 0.103854 -0.041252 0.018643 -0.047200 0.031423 0.081536 -0.045275
-1.164294 -0.064587 0.353935 -0.004992 -0.077077 -0.077359 0.090135 -0.563974 -0.156168 0.100942 -0.054802 0.171105 -0.105933 -0.094429 0.014660 0.537678 0.081311 -0.188336 0.126164 0.077536 -0.213755 0.018608 0.106060 -0.082679 0.727786 0.086973 0.118531 0.352449 -0.022250 -0.297883 -0.044514 0.034327 -0.180495 0.057876 -0.135792 0.047742 0.010299 -0.096122 -0.065346 0.023017 0.110943 -0.012853 -0.088915 0.002116 -0.025808 -0.076334 -0.010344 -0.001967 -0.328664 -0.136178 0.068948 -0.038392 0.013439 -0.095185 -0.081875 0.065990 -0.221740 -0.088224 0.042784 0.236891 0.082054 0.011419 -0.203320 0.040302 -0.081434 -0.313426 -0.110374 -0.079458 0.082331 -0.030966 0.056312 -0.342170 -0.027447 0.014124 -0.012655 0.068154 0.038290 -0.068183 -0.045517 0.063663 0.199709 0.109883 0.067018 -0.010328 -0.369768 0.079227 -0.000552 0.072757 0.039831 0.017787 -0.048743 0.033153 -0.150804 0.017397 -0.010770 -0.135586 -0.256760 0.011311 0.044962 0.011967 -0.119349 0.034359 0.011509 0.001854 -0.051012 0.012041 -0.075226 -0.010230 0.056265 0.014136 0.051766 0.008086 0.288764 -0.323761 0.049108 0.128636 0.032136 0.040796 -0.171022 -0.009420 0.363716 0.013428 0.150402 -0.052082 0.006578 -0.127107 -0.011225 0.363987
-0.436944 0.054355 0.025184 -0.096484 0.069122 0.075011 -0.039690 0.048146 -0.011173 0.018324 0.029480 0.114147 0.098265 0.156879 0.009982 0.048946 0.007181 -0.078637 0.044981 0.191312 -0.085524 0.023679 0.048810 -0.027409 0.099956 0.018002 -0.050863 0.002864 -0.024749 0.026671 0.029968 0.057994 -0.045276 0.106122 0.059981 -0.072137 -0.026803 0.024244 -0.054602 -0.026238 0.035641 -0.058534 -0.064501 0.051047 -0.057746 -0.138545 0.081804 0.032422 -0.549505 -0.476329 0.069754 0.069652 -0.149290 -0.090829 0.062034 0.031865 -0.141688 0.028562 0.004099 -0.127638 -0.047145 0.059159 -0.054152 0.072736 -0.024717 -0.059675 0.025781 0.007825 0.070460 0.029337 -0.093738 0.037394 -0.025381 0.101810 -0.065566 -0.082265 0.094652 0.195211 0.011944 -0.108540 0.037060 -0.005426 0.060596 -0.046666 -0.301635 0.086418 -0.018715 0.051898 -0.029023 0.015414 -0.026646 0.085903 0.192030 0.055092 -0.072590 0.083010 -0.016349 -0.048192 0.112788 0.080874 -0.009480 0.057790 -0.071780 -0.041846 -0.099848 0.041335 -0.055542 0.063680 0.002091 -0.120850 0.044920 0.129502 -0.093623 -0.237203 -0.015257 0.489135 -0.101768 -0.131689 -0.064297 -0.028115 0.079505 0.147013 -0.014798 0.097435 0.050855 0.145817 -0.019905 0.132338
0.506764 0.030199 -0.231959 0.101224 -0.162623 0.157561 -0.122156 -0.065983 -0.412628 -0.040400 -0.243565 0.004071 0.727148 0.152454 -0.002688 -0.501245 -0.008806 -0.105433 -0.061728 0.365668 -0.043112 -0.122371 0.021382 -0.093407 -0.061188 0.048077 -0.021931 -0.063706 0.006625 0.299415 0.794504 -0.164990 0.015446 -0.016667 -0.038424 0.078265 -0.038716 -0.006790 -0.071896 -0.030362 -0.063791 -0.244859 0.053111 0.477222 0.012806 0.139394 -0.239764 -0.130706 -0.260921 -0.005528 -0.006637 -0.112599 0.146518 0.005837 -0.015503 0.018011 0.060527 -0.585879 0.074464 0.198153 -0.100489 -0.102507 -0.019838 0.181504 0.097727 -0.041906 -0.037818 0.008287 -0.032425 -0.180427 -0.105963 -0.090114 -0.408295 -0.118038 -0.292631 0.039129 0.057081 0.240579 -0.005115 0.250472 -0.100430 -0.019754 0.044564 0.082288 -0.102241 0.057931 -0.008287 -0.108786 -0.008155 -0.441119 -0.137049 0.117682 0.036405 0.026270 0.093203 0.117797 -0.035719 -0.055869 -0.154349 0.358359 -0.052063 -1.713647 -0.316745 -0.078973 -0.017669 -0.573925 0.037428 -0.056656 -0.055423 0.032163 -0.013598 -0.191852 -0.624095 0.032590 0.010290 -0.244169 -0.096606 0.096103 0.059834 0.006868 -0.137457 -0.113593 -0.075128 0.137603 -0.195498 -0.069390 -0.012332 -0.016032
0.032770 -0.084592 0.012659 -0.005205 -0.018427 0.045610 0.018435 0.784899 0.157449 -0.044818 0.038099 0.042716 0.110480 -0.093314 0.178019 -0.066222 0.006834 0.237279 -0.095689 -0.213596 0.121202 0.015219 -0.050196 0.020483 -0.096165 -0.134707 0.007092 0.052285 0.472088 0.053797 -0.029444 -0.145778 0.062970 0.041430 -0.015179 -0.027735 -0.038608 0.201085 -0.092501 0.071171 0.022693 -0.100407 0.047750 -0.093998 0.182863 -0.077726 -0.263473 -0.001610 -0.053802 -0.006621 0.049353 -0.078377 -0.101358 -0.560202 -0.035643 -0.089240 0.018649 0.138639 0.060696 -0.013775 0.025994 0.213180 -0.067371 -0.012900 -0.012848 -0.014848 -0.067132 -0.174171 -0.048812 -0.042001 -0.062487 0.438298 0.061778 0.081534 0.149281 0.034901 0.016195 -0.074262 0.085660 -0.034743 -0.027170 -0.015720 0.025970 0.003893 0.293796 0.038668 -0.036956 -0.097987 0.072774 -0.010611 -0.057597 0.005887 0.162018 -0.053205 0.118673 0.213729 0.051318 0.084949 -0.098659 -0.143080 0.013073 -0.028475 -0.017482 -0.078904 -0.090309 0.873819 0.004816 0.455946 -0.002148 0.077529 -0.062666 0.024927 -0.133390 0.070954 0.035486 -0.183221 0.063234 -0.056449 -0.005557 -0.035237 0.063652 0.314162 0.027230 -0.085375 0.004769 0.305913 -0.052685 -0.010164
0.074576 0.072074 0.039859 0.004327 0.119783 -0.168545 -0.078185 -0.328329 -0.137821 0.095168 -0.593408 0.295086 -0.138946 -0.080663 -0.195992 0.005764 0.089606 -0.091940 -0.069419 -0.080072 -0.074436 0.154379 -0.017915 -0.185369 -0.008079 0.033015 0.041635 0.050330 0.016076 0.262054 1.727906 -0.437241 -0.047315 -0.102739 -0.135449 0.098713 0.359906 0.067111 -0.110532 -0.037120 0.118311 0.128201 0.025818 -0.022554 -0.051782 -0.226279 0.032460 -0.029610 0.062879 0.339888 -0.102787 0.090897 0.096985 0.050730 0.172127 0.068798 0.062468 0.011379 0.155360 0.088769 0.075508 0.375701 -0.072421 0.005689 0.072942 0.057183 -0.022596 0.069656 -0.139201 -4.776612 -0.340825 0.019534 0.143770 -0.864848 0.093093 0.363935 0.038911 -0.351091 0.582717 0.033465 0.134638 0.029982 -0.030737 0.282028 0.013359 0.062401 0.017483 -0.032705 -0.094534 0.837516 -0.122494 -0.121462 0.005541 -0.164931 0.017101 0.089140 0.136459 0.070555 -0.424156 0.390529 -0.003613 0.501713 0.079234 -0.186134 -0.102149 -0.237274 0.040754 -3.748383 -0.059666 -0.128968 0.022500 -0.022999 0.047272 -0.092742 -0.010158 0.015745 0.057706 -0.008159 -0.012788 -0.085214 -0.054840 -0.321784 0.053122 -0.158100 0.017760 0.684692 -0.045008 -0.040002
-1.179289 -0.012059 0.238191 -0.040205 -0.312754 0.008601 0.068462 0.094619 -0.167751 -0.089677 -0.349132 0.148003 0.051848 0.125954 0.103384 -0.521961 0.125203 0.121028 0.251672 0.196475 0.027850 -0.018734 0.024547 -0.160331 0.424654 -0.053863 0.070103 -0.640768 0.082623 0.125338 0.269226 -0.242746 -0.089585 0.436952 -0.154036 0.012620 -0.520113 0.014970 0.046460 0.050735 0.121514 -0.033868 0.076065 -0.004749 -0.120265 0.563416 -0.108782 0.033030 -0.041313 -0.109996 0.174954 0.076648 -0.117122 -0.358015 0.090711 -0.009918 -0.081999 0.090804 1.030079 0.222733 -0.011527 0.151546 0.441020 0.078022 0.068742 0.032246 0.041495 -0.111284 -0.041306 0.075802 -0.031229 0.058158 -0.025411 -0.837781 0.000233 0.010633 0.012518 0.077227 -0.217388 -0.038022 0.121759 0.010561 0.049895 0.176943 -0.071559 -0.000251 0.014033 -0.233101 0.039853 -0.126406 -0.048477 -0.040161 -0.067276 0.051048 0.030036 -0.150801 -0.008490 0.020512 0.235398 0.180082 0.058324 0.013509 0.094015 0.032970 -0.413779 0.185509 -0.159828 0.000136 -0.022247 -0.246305 0.054640 -0.013550 -0.018405 -0.488891 -0.059487 1.361206 -0.002206 -0.266676 -0.229365 0.006549 0.211170 0.077686 0.169795 -0.135290 0.105457 0.194917 0.170491 -0.079933
0.212605 -0.134080 -0.126098 -0.029731 0.001676 -0.019174 -0.179129 -0.192276 0.303969 -0.068850 -0.174120 0.046923 0.138302 0.073408 -0.013049 -1.055948 -0.100829 -0.099080 0.045597 -0.172748 -0.027514 -0.232777 -0.009010 0.039547 -0.078461 0.032712 -0.016172 -0.087872 0.014077 -0.032099 0.028168 0.046073 0.070327 0.086358 0.179460 0.019342 -0.333241 0.107743 0.104130 -0.204370 -0.083119 0.079286 0.056460 0.060467 0.005159 0.088991 0.001710 0.003271 -0.072985 0.392617 0.041272 -0.127242 0.089993 0.071868 0.049884 0.102474 0.389985 0.044525 0.055381 0.013089 0.127959 -0.074178 0.038981 -0.023151 0.135573 -0.200411 0.140694 0.388140 -0.033198 -0.025643 -0.007600 -0.185846 0.030999 -0.309916 0.081039 -0.025315 -0.094319 0.046971 0.093796 0.422545 -0.098634 -0.003589 -0.061506 0.149543 -0.024531 0.146736 -0.077885 -0.243862 0.056684 0.515139 0.101458 -0.017389 -0.088668 0.067803 0.130823 0.074182 0.027819 -0.099270 -0.103589 0.010400 -0.123363 0.034510 0.106271 -0.091862 -0.008583 0.142221 0.069401 -0.094086 0.782401 0.021956 -0.048443 -0.059757 0.059944 0.179279 0.094178 -0.606727 -0.085192 0.037362 0.255200 0.024855 -0.097487 0.061058 -0.036253 -0.112401 0.321728 -0.039637 -0.089409 0.032929
0.088536 0.175111 -0.383527 0.001440 1.318293 -0.052114 -0.036019 0.121727 0.173255 -0.025621 0.423584 -0.382686 -0.115900 -0.121518 0.188463 -0.015089 -0.370721 -0.055735 0.197915 -2.614952 0.565097 1.091624 -0.029298 -0.224491 -0.091145 -0.031910 -0.015822 -0.084903 0.075766 -0.116448 -5.385830 -0.282975 0.086260 -0.328731 0.368832 -0.177518 -0.524117 0.085137 0.031297 -0.112437 0.127799 -0.187353 -0.098674 -1.080283 0.339644 -0.046673 -0.113627 -0.123907 0.076392 -1.884736 -0.030626 0.079313 0.067779 -0.240328 0.184978 -0.096993 -0.890039 -0.026089 0.002343 -1.186157 0.086002 -0.124485 -0.038773 0.032478 -0.448239 -0.051477 -0.072136 -0.004784 -0.085774 1.372059 -0.055208 0.418867 -0.119596 -0.124751 -0.138688 -0.720681 0.058907 0.870215 0.226865 -0.003010 -0.033449 -2.019850 -0.101485 -0.462456 0.056397 0.001438 -0.216163 -0.084013 -0.125672 0.120690 0.354755 -0.247466 -0.044402 0.144159 1.130559 -0.067337 0.168458 -0.050800 -0.018289 0.237842 -0.064006 -0.859651 0.016784 0.075074 0.034500 -0.224645 -0.002015 0.374860 -0.043264 1.474469 -0.180758 -0.112931 0.005711 0.087840 -0.180285 0.045497 -0.085601 -0.015560 0.874580 -0.094058 -0.018887 0.505608 0.087209 -0.728503 -0.291447 0.167429 -0.027314 -0.035079
0.685473 -0.031042 -0.171806 0.091537 0.074008 -0.116645 -0.101494 0.060036 -0.051508 0.006489 -0.020982 0.047738 0.059310 0.086692 -0.116507 -0.936457 -0.123532 0.145947 -0.036140 -0.107466 -0.084951 -0.007242 -0.041125 0.052483 0.149771 0.001443 -0.128350 -0.089372 -0.020068 -0.025116 0.026442 -0.083266 0.289806 0.039295 0.143076 -0.034908 0.082019 0.073225 0.088757 -0.019905 0.025608 -0.016506 0.108924 0.079172 -0.018584 0.026085 0.011565 0.018943 -0.088324 0.138475 -0.113836 -0.091804 0.021832 0.034807 -0.034810 -0.332277 0.182682 -0.007775 -0.020607 -0.090604 0.079891 -0.138897 0.349421 0.043399 0.101606 0.251893 0.036136 -0.091582 0.026404 -0.007597 0.024204 -0.044438 -0.036190 0.014282 0.021963 0.044027 0.027036 0.139333 0.016725 0.104958 -0.218299 0.020030 0.080009 0.025137 -0.025216 -0.102601 -0.107133 -1.089100 0.029811 0.067003 0.023565 -0.024064 -0.108016 -0.003898 0.061195 -0.034949 0.034443 0.025986 -0.082886 0.124358 -0.110556 0.010523 -0.081577 -0.059954 0.040203 -0.071922 0.129770 -0.025627 -0.365172 -0.131272 0.004299 -0.146720 -0.011433 0.060461 0.045149 -0.425604 -0.032650 -0.065927 0.338780 -0.138214 -0.174298 -0.055049 -0.012586 -0.027239 0.096559 -0.062517 0.013010 -0.037501
0.229321 0.014958 -0.103164 0.078464 -0.074364 0.063316 -0.157281 0.106342 0.101866 0.083288 0.101029 0.008668 0.010403 -0.059448 0.032928 -0.099754 -0.147501 -0.082961 -0.078738 0.008276 -0.034766 -0.004471 -0.040315 0.075713 0.013190 -0.076265 0.105569 0.076595 0.050188 -0.073240 -0.050702 -0.038085 -0.044814 0.031700 0.192416 -0.041250 -0.092556 0.029555 -0.036725 -0.053314 -0.053882 -0.095544 -0.034795 0.087434 0.064295 0.060902 0.001466 -0.004125 0.093475 -0.108059 -0.045156 -0.206076 0.022103 0.093027 0.049621 -0.068951 0.046281 0.101612 -0.040006 -0.073802 0.084606 -0.125451 0.140994 0.028206 0.075796 0.055889 0.026015 0.046460 0.166074 0.058555 0.060332 0.228490 -0.210968 0.025945 -0.260609 0.012181 0.110442 0.162746 0.044062 -0.117612 -0.051078 -0.004825 -0.035704 -0.176149 0.010556 0.075852 -0.008607 -0.013829 -0.160270 0.007435 0.006151 -0.005941 -0.034611 -0.043656 0.062109 0.235934 0.007186 0.075809 -0.107977 0.041353 0.102919 -0.075822 -0.019200 -0.050175 0.016420 0.117535 0.047694 0.001168 -0.056879 -0.025164 -0.057676 -0.043101 0.028335 0.025738 0.016571 -0.127313 0.001866 -0.045054 0.012880 0.083704 0.033681 0.242220 -0.035064 -0.062838 -0.113073 -0.027255 0.030798 0.019568
-0.059369 0.003750 -0.022892 0.063052 -0.026093 -0.002260 0.062651 -0.057413 0.086859 0.060181 0.133593 -0.048635 -0.010471 -0.050689 0.173494 0.077912 -0.034182 0.004503 -0.023757 -0.084532 -0.027904 0.019597 0.087765 -0.067565 0.016708 -0.033722 0.009493 0.030225 -0.043563 -0.005702 -0.046854 -0.066919 -0.028264 0.027875 0.038753 -0.096639 0.041505 -0.075223 -0.124833 0.114310 -0.037264 -0.008476 0.036202 -0.009988 -0.027552 0.021771 -0.030394 0.026201 0.057504 -0.024946 -0.129645 -0.004936 0.256008 -0.121987 -0.087934 -0.078349 0.044447 -0.074399 -0.009187 0.007101 0.046327 0.088697 0.025356 -0.047554 -0.033425 0.029995 0.009408 0.042080 -0.056338 0.121979 0.013987 0.038523 -0.056568 0.037066 0.007560 -0.090534 0.092766 0.047414 -0.127085 -0.002817 -0.026299 0.027305 -0.100248 -0.029406 0.121234 -0.293844 0.040253 -0.068029 0.015059 -0.074313 0.021235 -0.016685 -0.396349 -0.260677 -0.065371 0.069354 -0.017219 0.004153 0.072172 0.059837 -0.020901 0.054967 -0.007677 -0.021791 0.030539 -0.049493 0.035904 0.016685 -0.041441 -0.019689 0.094900 0.050752 -0.153815 0.064154 0.023080 0.006877 0.025244 0.146526 -0.095157 0.023116 -0.065408 0.117206 0.111315 0.048364 -0.114755 -0.045047 -0.018800 -0.085556
0.295095 0.002625 -0.205342 0.049860 0.028983 0.056383 -0.015954 -0.024960 -0.005686 -0.018988 -0.103039 -0.030325 0.097301 0.041146 0.013107 -0.387289 -0.011360 -0.046351 -0.116816 -0.142348 -0.114300 0.021149 0.064797 -0.011562 -0.111185 -0.083653 -0.008057 0.043707 -0.087282 -0.051982 -0.065778 -0.086612 -0.068735 0.089420 0.349943 0.028737 -0.043435 0.176244 -0.010842 0.073042 -0.100275 0.093736 0.107008 -0.032067 0.020592 0.051558 -0.020584 -0.025520 -0.066522 0.221662 -0.066813 0.044807 0.027535 0.160983 -0.005562 -0.088811 0.035609 -0.079950 0.008607 0.018329 0.008425 -0.013111 0.227195 -0.066187 0.099707 0.382329 -0.014619 0.065090 0.038398 -0.060245 -0.035055 -0.025923 0.176253 0.038089 -0.031037 0.053012 0.124472 0.150677 0.047423 0.011525 -0.010798 0.009269 -0.071973 0.007510 -0.166299 0.032826 -0.032201 -0.149945 0.043969 0.121241 0.041239 0.069296 -0.081606 0.013656 0.068255 0.013698 0.023086 -0.053114 -0.041204 0.133299 -0.000081 0.018082 -0.076164 0.000575 0.039725 -0.137453 0.116064 -0.050402 -0.393828 -0.145004 -0.016646 -0.129316 0.130385 0.059221 0.003774 -0.105905 -0.072325 -0.088121 0.354718 -0.059170 -0.219533 -0.062124 -0.047067 -0.066406 0.120400 -0.159686 -0.024687 -0.101557
-0.587451 -0.027274 0.057515 -0.040925 -0.463667 -0.046031 0.068348 -0.004537 0.046260 0.072972 0.016409 0.049554 -0.067939 0.034610 0.049057 0.334472 0.074263 0.252536 0.111397 0.021145 0.110348 -0.037743 0.289128 -0.154258 -0.443693 -0.024466 0.045034 -0.125534 0.105681 -0.095964 0.074049 -0.041756 0.063511 -0.024781 -0.117986 0.040409 -0.132125 -0.038514 -0.165088 -0.044596 -0.030982 0.094021 -0.092156 -0.039002 0.037327 -0.025657 0.020857 0.067476 0.085249 -0.431335 -0.091787 -0.012457 0.161519 0.015148 0.011001 -0.045159 -0.106079 -0.020284 0.009600 0.408393 -0.101245 -0.074365 0.198809 0.042312 -0.026610 0.036322 0.020111 -0.016438 0.134683 0.042514 -0.113464 -0.063020 -0.152342 0.045421 -0.046300 -0.008993 0.081066 0.038503 0.041157 -0.024905 0.050618 0.225818 -0.100412 -0.052855 0.696855 -0.291268 0.006092 -0.052740 0.124704 -0.703838 -0.022981 -0.016092 -0.022502 -0.082346 -0.130052 0.013284 -0.191189 -0.513345 -0.068418 -0.016295 -0.065983 0.035689 0.138398 0.044074 -0.087608 0.054981 0.001645 0.068085 -0.081544 0.117220 0.119377 0.262336 -0.070431 -0.003106 -0.076571 0.051763 0.025692 -0.040406 -0.192118 0.113774 -0.163446 0.049281 0.051211 0.108657 -0.465860 0.019249 -0.029952 -0.038582
-0.077601 0.087182 -1.205999 -0.502746 0.598228 0.096816 0.043926 0.202295 0.168401 -0.220346 -0.351405 0.082126 -0.108923 0.659382 -0.701457 0.939241 0.299626 0.067979 0.355331 -0.025019 0.024308 0.106147 -0.110015 0.116586 -0.409148 0.094338 0.005773 -0.212131 -0.164735 -0.122007 -0.493702 -0.358389 0.183632 -0.679809 -0.298004 -0.004631 0.219854 0.046234 1.033626 0.018396 0.540491 0.237847 0.646980 -0.074530 -0.191183 -0.543002 0.311559 0.109276 0.068742 0.029073 -0.059339 0.070742 0.150422 -1.117305 -0.507514 0.046976 0.030891 -1.027561 -0.048096 -0.119609 0.071687 -2.061501 0.594932 -0.045920 0.287715 0.056059 0.035824 0.469794 -0.012441 0.374899 -0.816206 -0.023701 -0.406522 0.440983 0.070941 -0.293425 -0.073596 -0.571366 -0.220831 -0.201940 0.058196 -0.179689 -0.114567 0.086578 0.085147 -0.557353 -0.187855 -0.414898 0.147382 0.017835 -0.570750 -0.264481 0.667172 0.025032 -0.954291 -0.271955 0.022127 -0.003482 -0.373618 -0.014115 0.047316 0.039882 0.288666 -0.941034 0.536730 0.372525 1.760211 0.028297 0.034681 0.137318 0.074030 0.168644 -0.548527 0.037620 0.075155 0.078025 -0.834910 0.005456 -0.599640 -0.078154 -0.191808 0.136225 0.058507 -0.004068 0.368609 0.870892 0.287687 0.020569
-0.446042 -0.042197 -0.227496 0.042382 0.096866 0.100756 -0.113749 -0.249195 0.020432 -0.002691 -0.058186 -0.110524 0.109886 -0.052330 -0.097974 -0.022477 -0.000947 0.060841 -0.040184 0.618360 -0.645143 0.040154 0.080435 0.017717 -0.071624 -0.000973 -0.024464 -0.010881 0.008082 -0.138411 -0.059170 -0.056600 0.104679 -0.014553 0.942970 0.138221 0.261975 -0.067679 0.112165 -0.071042 -0.077925 -0.319798 -0.103043 0.160111 0.010833 0.130818 0.119881 -0.007341 -0.178618 0.466093 -0.026730 -0.099864 -0.119320 0.090745 -0.003257 -0.041338 0.012513 0.190202 0.014438 -0.019352 0.101256 0.005431 0.151553 0.002364 -0.040961 -0.059903 0.045913 0.186891 -0.004197 -0.018939 0.023468 0.037820 0.828941 -0.084205 0.077920 0.083399 -0.150213 0.160441 0.000781 0.015129 -0.135543 0.056777 0.023623 0.026183 -0.009576 -0.105876 -0.257488 0.024308 0.029313 0.143392 0.067349 0.067045 -0.350813 0.085896 0.331273 0.049608 0.169131 -0.114542 -0.100624 0.117568 0.026840 0.020811 -0.023302 -0.052920 -0.016738 0.437740 0.160233 -0.517985 -0.016406 -0.193889 -0.029265 -0.088314 0.231009 0.027869 -0.090110 0.000508 -0.108702 -0.008236 -0.520559 -0.117130 -0.088278 -0.087707 -0.125521 -0.129464 0.098983 -0.673849 0.007576 -0.053133
-0.208809 -0.083686 0.158764 -0.086659 -0.012495 -0.008551 0.054300 -0.032700 0.145611 -0.158118 0.055869 -0.014723 -0.104469 -0.117916 0.149068 0.496626 0.031379 0.085321 0.182081 -0.028022 1.569943 0.061563 -0.023363 -0.092613 0.030098 0.026844 -0.186670 0.094338 0.103646 0.011959 0.098377 -0.010601 -0.022339 -0.098345 -0.258312 -0.109728 -0.059362 0.016912 0.046997 0.073502 0.127118 -0.015296 -0.077872 -0.014929 -0.044834 -0.061360 0.050476 0.028278 -0.024841 -0.704396 -0.075998 0.083004 -0.071299 -0.132681 0.016228 -0.034321 -0.026646 0.071191 -0.110280 0.034794 -0.172531 -0.118580 -0.038129 -0.087871 -0.042208 0.005314 -0.066988 -0.023225 0.042629 -0.008877 -0.027109 0.110850 -0.057534 -0.011570 -0.080343 -0.156495 -0.051249 -0.021980 0.026088 -0.022848 0.087133 -0.054445 -0.078777 0.000137 -0.024514 0.042740 -0.080126 -0.144247 0.008429 -0.047715 0.039288 -0.078696 0.103879 0.017783 -0.066686 -0.152674 0.185440 0.083946 -0.024718 0.022928 0.108312 -0.035927 0.102428 0.023303 -0.036811 0.026816 -0.002511 0.316493 -0.519616 0.145880 0.115322 0.086999 -0.192834 0.222780 -0.033160 0.023418 0.120846 0.109362 -0.181015 0.173019 0.080729 0.041463 0.093350 0.042985 -0.066679 0.034346 0.041942 0.022325
-0.267993 -0.022326 0.168933 -0.026586 -0.107987 -0.183669 -0.004930 0.081240 0.028806 0.029377 0.118926 0.060603 -0.168788 -0.111114 0.110579 0.587199 0.136280 0.053327 0.033733 0.083084 0.202056 0.413374 0.044074 -0.018640 0.081286 0.216181 -0.008018 0.075404 -0.033114 0.023126 -0.019064 0.040424 -0.019430 -0.002361 -0.547996 -0.104615 0.156508 -0.051258 -0.097601 0.076123 0.033084 -0.068578 -0.155224 -0.187858 -0.359602 -0.108740 0.111220 -0.016567 0.075179 -0.625641 0.062910 -0.004578 -0.041881 -0.088437 0.039998 0.000930 0.013945 -0.850825 -0.123949 -0.031641 0.058507 -0.038983 -0.166982 -0.161313 -0.049757 0.835390 -0.049003 -0.555456 0.083491 0.055233 0.003864 0.019657 -0.205365 0.277357 0.016420 -0.073880 0.153141 -0.206653 -0.023774 0.017636 -0.054812 0.021969 0.010430 -0.001076 -0.060641 0.074557 0.077663 0.132641 0.034057 0.011639 -0.067767 -0.146635 -0.093981 0.008043 -0.195286 -0.035715 -0.017791 -0.025103 0.377765 -0.026169 0.095647 -0.053829 0.223184 0.028332 -0.090317 -0.423934 -0.116256 0.067844 -0.074203 -0.049562 0.059827 0.193681 -0.112466 -0.110601 -0.003361 0.149939 -0.071273 0.009164 -0.592731 0.156713 0.066684 0.019634 0.140305 -0.021098 -0.082625 0.205322 0.069003 0.079042
-0.058697 0.020623 0.230356 -0.095342 -0.097724 -0.070856 -0.005922 0.027715 0.102777 0.116825 0.112795 -0.089062 -0.121049 -0.010258 0.090707 -0.145477 0.373559 0.088112 -0.030564 0.095618 0.150117 -0.022264 0.115596 -0.031830 0.102796 0.175954 -0.039188 0.120307 0.031293 0.004230 -0.201192 0.101350 -0.059164 -0.062875 -0.061768 -0.127451 0.000490 -0.022975 -0.048884 0.044159 0.039548 -0.098953 0.093574 0.026563 -0.020776 -0.064435 0.020888 0.035311 0.145516 0.052833 -0.027217 0.102478 -0.116213 -0.013053 -0.210488 -0.010465 -0.027784 -0.141641 -0.046491 -0.011694 -0.125703 0.174920 -0.063945 0.062561 -0.018823 0.051265 -0.053433 -0.130508 -0.098019 -0.088948 0.150784 -0.024159 -0.114274 0.082244 -0.019515 -0.120073 0.168414 0.008934 0.158508 -0.021997 -0.013936 0.065060 0.078732 -0.064283 0.077898 0.053396 0.064596 0.126456 0.002566 -0.040965 -0.028230 -0.038349 0.010880 -0.125623 -0.115783 -0.056421 -0.000358 0.137102 0.010390 -0.000084 0.005266 -0.006493 0.143635 -0.084727 0.006324 -0.026040 0.018548 0.051113 0.020639 -0.085288 0.096796 0.053717 -0.116955 -0.076119 -0.042575 -0.013953 0.059191 -0.021859 -0.169275 -0.003606 0.182243 0.005424 0.151269 0.054039 -0.001542 -0.060632 0.165422 -0.884319
-0.271031 -0.003887 -0.152774 -0.096001 0.144062 -0.120432 0.102973 2.108344 0.291986 -0.037844 -0.030274 -0.297798 0.084618 -0.095604 0.435440 0.084889 0.083315 0.535375 -0.128335 0.052646 -0.126735 -0.124973 0.095035 0.029752 -0.153211 -0.159200 -0.099011 -0.082239 -0.001069 -0.004047 0.035639 -0.065655 0.518425 -0.062802 -0.017184 -0.124498 -0.342615 -0.059463 -0.096777 0.112341 0.021408 -1.430475 -0.022222 -0.258899 0.007761 -0.043941 0.017967 -0.006638 0.385743 -0.061168 0.040511 0.981124 -0.092092 -0.054359 0.042041 -0.043084 -0.003374 -0.043257 0.023596 -0.076057 -0.010585 -0.653733 -0.192475 -0.379707 -0.188050 0.285622 0.455045 0.140147 -0.024683 0.333245 -0.019059 0.147128 -1.285246 0.036551 -0.038259 0.066525 0.161920 -0.147444 0.008571 -1.071188 -0.164509 -0.021414 0.186145 0.023085 0.105574 0.088595 -0.180070 -0.018529 0.078211 0.146456 -0.055258 -0.072785 -0.025887 -0.022556 0.119310 -0.126355 0.083020 0.032432 0.162414 -0.406043 -0.201505 -0.437131 0.095218 0.260282 -0.109399 -0.261768 -0.076895 0.066655 2.062261 0.144499 -0.137961 0.028128 0.293154 0.370663 -0.113959 -0.065874 0.003122 0.276320 -0.089278 0.095040 -0.609157 0.121282 0.066061 0.045222 0.310809 -0.012053 0.314981 -0.083288
-0.344968 0.007602 0.354824 -0.013161 0.037711 -0.093801 0.106137 -0.011680 0.009847 0.040999 0.044232 0.045893 -0.151245 -0.087650 0.074185 0.604901 -0.006434 -0.026871 0.139193 -0.037948 0.081393 0.608163 -0.028285 0.011666 0.121781 0.009454 0.002508 0.091939 -0.002821 0.000862 -0.001477 -0.017265 -0.001498 -0.017867 -0.242851 -0.067416 -0.070741 0.031478 0.008746 -0.050198 0.217237 -0.073491 -0.098901 -0.181821 -0.087982 0.044091 0.155265 0.055445 0.057186 -0.536368 -0.014608 0.014988 0.052968 -0.158681 -0.107947 0.022944 0.021488 -0.265692 -0.061233 -0.060098 -0.113310 0.319332 -0.255509 -0.046563 -0.032375 0.179832 0.029367 -0.059780 -0.041008 -0.073649 -0.179569 0.059995 -0.119045 -0.088094 -0.012886 0.049485 0.140933 -0.154307 0.126346 -0.105072 -0.014985 -0.012424 0.004440 -0.017915 0.008948 0.032661 -0.023027 0.110423 0.033231 -0.097160 -0.059714 -0.083429 0.110973 -0.038885 -0.182431 -0.033112 0.028526 0.027795 0.006437 0.035479 0.024876 0.144849 -0.044437 0.040843 -0.014430 -0.036558 -0.062565 0.109807 -0.167772 -0.027901 0.121215 0.108077 0.168815 -0.104176 0.003665 0.229137 0.048282 0.033191 -0.066689 0.000345 0.124678 -0.045393 0.017894 -0.060357 -0.066651 -0.001495 0.012203 0.011486
0.021290 -0.014580 0.045488 -0.099953 0.062495 -0.057090 -0.002257 -0.119968 0.147036 -0.107590 0.118508 -0.045326 -0.176975 -0.269107 0.100528 0.105601 -0.005386 0.089372 -0.012253 -0.091795 0.389894 -0.081927 0.051752 0.032018 0.106316 -0.078109 -0.079331 0.088091 0.021570 0.195980 -0.005799 0.031865 0.079482 -0.121826 -0.088783 -0.053166 0.023735 -0.057419 0.000558 0.026944 -0.031006 -0.258171 0.028622 0.006230 0.065450 -0.071382 -0.091218 -0.037341 0.077923 -0.073959 -0.030041 0.258986 -0.340616 -0.110092 0.049793 -0.095343 0.054373 -0.112942 -0.006131 -0.117047 0.097508 0.006089 -0.032656 -0.054548 -0.107482 -0.011882 -0.067885 -0.020836 -0.003960 0.191342 0.050254 0.041360 0.094405 -0.222470 -0.097242 -0.091884 0.039743 -0.090954 0.181909 -0.061224 0.021276 -0.008428 -0.009501 -0.047684 0.078890 0.050992 -0.002531 -0.098795 0.017007 0.138453 0.004019 -0.096216 0.142066 0.058865 -0.017575 0.008311 0.159426 -0.101897 0.083114 -0.051416 0.093211 -0.099373 -0.037458 0.085499 0.108203 0.068919 0.015721 0.056241 0.026369 0.030715 0.094598 0.112413 -0.024111 0.464607 -0.035186 0.020174 0.016674 -0.064973 0.016098 -0.021826 -0.054771 0.114866 0.121534 0.027269 -0.110271 0.076511 0.130217 0.267519
0.201300 -0.105271 -0.172480 0.031447 -0.035941 -0.229559 -0.011259 -0.003431 0.151095 -0.066945 0.084102 0.262626 0.031722 -0.148567 -0.018621 0.052342 -0.045539 -0.008405 0.291794 -0.151421 0.083180 -0.234812 0.143208 -0.132417 -0.016466 0.082419 -0.004318 -0.025818 0.213192 0.221543 -0.097942 -0.202327 -0.187068 -0.015478 -0.004184 0.123934 -0.165658 0.087626 0.059777 -0.343243 -0.112660 0.704828 0.184037 -0.012400 0.057433 -0.070203 0.058766 0.031670 -0.018911 0.219129 -0.068700 0.038982 -0.057721 0.065590 0.022019 0.147276 0.022326 0.388907 0.021144 -0.089407 -0.245835 -0.452158 0.190387 -0.221314 -0.118631 -0.132869 -0.132550 0.103813 -0.023564 0.011513 -0.044524 -0.004541 0.308393 -0.557504 -0.089656 -0.039054 0.384037 0.089368 0.414880 -0.005725 0.139156 -0.090531 -0.045067 0.059571 -0.024218 0.160770 0.275517 -0.137142 -0.006409 -0.068929 0.032123 0.074079 0.084154 0.015855 0.159144 -0.167998 -0.093011 -0.193080 -1.043492 0.085310 -0.087809 0.056462 -0.018658 -0.101778 -0.189169 0.401775 -0.042673 -0.093246 0.011703 -0.026367 0.027677 -0.036247 0.060942 -0.059831 0.024844 0.178858 0.264818 -0.063521 0.391199 -0.042082 -0.039952 -0.204957 -0.042322 0.055723 -0.010662 -0.193724 0.249513 -0.013758
0.420025 0.108407 -4.723648 0.088030 0.117167 0.227880 0.243908 0.960705 0.292772 -0.041210 0.054091 -0.019295 0.143584 0.282938 0.051322 -0.063678 -0.060655 -0.009256 -0.129640 -0.111806 -0.126310 -0.165229 -0.377598 -0.105641 -0.152880 -0.066097 -0.237798 -0.561121 -0.082742 0.381896 -0.006002 0.013604 0.046651 0.165796 0.284210 0.108469 -0.585361 0.144256 0.051900 0.065547 -0.422564 -0.688683 0.251737 0.078289 -0.549369 0.276797 -0.007295 0.085269 0.054649 -0.097739 -0.099047 -0.031313 0.058977 0.065413 0.212108 0.025895 -0.116719 -2.301802 -0.369973 0.015432 -0.033749 0.373672 0.945374 -0.099935 -0.283710 -0.090693 0.039282 -0.266184 -0.260369 0.092091 0.045035 0.309973 -0.222610 -0.510710 0.179407 -1.132205 0.031819 -0.157582 -0.318825 -0.020789 0.249425 -0.094907 -0.071588 -0.017244 -0.295351 -0.025670 0.271092 -0.227241 -0.288501 0.507641 -0.011979 0.072582 0.007694 0.092161 0.132953 0.096813 -0.039048 0.094202 0.014165 -0.101814 -0.055536 -0.139558 0.048461 0.065298 -0.190076 -0.288940 0.127070 -0.022607 0.045031 0.523974 -0.304628 -0.528350 -0.389892 0.086984 -0.009516 -0.022034 -0.121970 0.187300 0.531073 -0.111545 -0.189364 0.009991 -0.217852 0.259758 -0.576654 1.169261 0.013190 0.114505
0.074542 0.023171 0.047682 0.145345 -0.006708 0.127041 -0.099672 -0.056314 -0.313691 0.005229 -0.113164 0.005947 0.096280 0.178890 0.007958 0.053434 0.092200 0.071917 -0.000464 0.070196 -0.119256 -0.013872 -0.168141 0.048076 0.067612 0.033623 0.619112 0.257013 -0.126668 -0.024761 0.016307 0.086519 0.010289 0.297218 0.089350 -0.043971 -0.105829 0.036855 -0.068592 -0.092648 -0.002406 -0.013562 0.048816 -0.020012 0.173832 0.055212 -0.050192 -0.206519 -0.050016 -0.112254 -0.020146 -0.053409 0.006780 0.003026 0.527499 0.083451 0.022736 -0.097733 0.061119 0.125773 0.094715 0.152875 0.156880 0.896413 0.013611 0.001668 0.036199 -0.412619 -0.053574 -0.084315 0.045174 -0.055757 -0.005077 -0.186167 0.101294 0.104108 0.003515 0.132311 0.171802 -0.074065 -0.040135 0.030265 -0.253284 0.057502 -0.017841 -0.068527 -0.186153 -0.071898 -0.487547 0.130505 -0.069300 0.017573 0.060246 -0.084001 0.020531 0.010292 0.020590 -0.072451 -0.042416 0.121000 -0.031940 -0.341424 -0.642763 0.810214 -0.102460 0.159213 -0.049188 -0.013658 -0.008970 -0.093755 -0.047744 -0.032866 -0.235098 -0.059914 -0.007876 0.070500 -0.011482 0.073548 0.021041 0.018810 0.001670 -0.010459 -0.023981 -0.101799 0.061201 -0.004553 -0.004797 0.006852
0.405322 -0.070917 0.038173 0.004319 0.008852 0.110813 0.020238 0.059042 -0.057885 -0.016028 -0.176989 0.153379 -0.018962 -0.052680 -0.126936 -0.208826 0.050653 0.020313 0.063307 -0.067331 0.056615 -0.062332 0.012617 0.103252 0.066076 0.080270 -0.021952 -0.106446 -0.010315 -0.024221 -0.070543 0.042681 0.007398 -0.070313 0.046751 0.107306 0.100469 0.047832 0.009362 0.078505 0.071444 0.477941 -0.055482 0.066680 0.032753 -0.035340 0.006991 -0.031132 -0.045041 0.108120 0.047229 -0.076390 0.016797 0.171491 -0.004198 0.035794 0.040858 -0.118185 -0.067031 0.070929 0.075725 -0.604501 0.017805 -0.033231 0.066286 0.075183 -0.044527 -0.027200 0.050401 -0.230504 0.068663 0.065320 0.010046 -0.044700 -0.055294 -0.120353 0.037154 -0.038451 -0.032178 -0.036967 -0.011020 -0.034429 -0.086299 0.107858 0.037722 0.048652 0.012897 -0.015887 0.040368 -0.006802 -0.008118 0.003879 -0.039750 0.051499 -0.000523 -0.043680 -0.110791 -0.111681 0.078279 -0.368970 0.083649 0.349430 -0.076738 -0.137749 -0.118844 -0.034372 -0.007728 -0.015521 0.001820 -0.070125 0.205083 -0.018201 -0.097597 0.003231 0.026448 -0.143938 -0.021070 0.015542 0.243046 -0.007455 -0.064445 0.017099 0.060585 -0.098932 0.170792 -0.004418 0.009367 -0.036372
0.306014 0.097946 -0.030500 0.064247 -0.097976 0.263925 -0.014347 -0.188997 -0.096668 -0.090472 -0.327039 -0.184840 0.063198 -0.284511 0.003083 0.141767 0.084900 -0.102122 -0.138928 0.091925 -0.053386 0.028880 0.042852 0.070853 -0.096362 0.109488 0.172970 0.203502 -0.188258 0.004504 -0.032387 0.271838 0.659453 0.210013 0.011172 0.018314 -0.325321 0.082118 -0.176685 0.345771 0.074170 -0.038407 0.214409 0.062218 0.087136 0.558757 0.686262 0.035942 -0.051048 1.526672 0.041090 -0.007634 0.076554 0.472214 0.009401 0.297088 0.077552 0.106902 0.011761 0.025089 0.082337 -0.100624 0.150307 0.089405 0.152669 -0.092567 0.009149 0.043065 0.013607 -0.075660 0.245425 0.285095 0.000662 -0.049487 0.049581 0.032907 0.065331 -0.014975 -0.562345 -0.113485 0.194767 -0.117152 0.108981 0.049675 0.006280 0.009860 0.115911 0.034770 0.017789 0.161984 -0.065934 0.061505 -0.309422 0.106990 0.102956 -0.291555 -0.270963 -0.129021 0.184163 -0.146206 -0.150138 0.107857 -0.014116 0.003793 -0.073471 -0.400761 -0.004488 -0.152252 -0.175826 -0.003741 0.069848 -0.001830 0.062823 0.418356 0.026576 0.011063 -0.320928 -0.076003 0.047861 0.029642 -0.038468 -0.214778 -0.037423 0.198199 -0.012980 -0.169137 0.098814 -0.038955
0.277738 -0.021436 -0.070892 0.131332 0.037274 -0.099728 -0.066161 -0.054817 -0.069313 0.004868 0.218616 -0.072060 0.170266 0.082536 -0.209355 -0.475412 -0.026436 -0.009150 0.016060 -0.027397 -0.976126 -0.221615 -0.013838 -0.066243 0.041377 -0.217285 -0.048724 -0.075939 0.010083 -0.218637 -0.051598 -0.074480 0.111008 0.099063 0.077150 0.137428 0.204784 -0.080797 -0.193730 -0.089457 0.042066 0.099071 -0.370160 0.049769 0.001171 -0.026036 -0.100338 0.032831 -0.097797 0.266482 0.031542 -0.093924 0.019074 0.119682 0.124296 0.028609 -0.304027 -0.089167 -0.060892 0.153967 0.124411 -0.063198 0.220006 0.015602 0.118658 0.635383 0.078439 -0.108578 -0.131652 -0.007113 0.149727 -0.061986 0.164467 -0.094225 -0.002124 -0.000323 -0.094021 0.057363 0.072154 0.111954 -0.067764 -0.092976 -0.112903 -0.092014 0.017468 -0.065591 -0.090705 -0.052274 -0.092833 0.001951 -0.019438 0.076773 -0.063464 0.024227 0.043905 0.039231 -0.227238 -0.004509 -0.073821 -0.008625 -0.030994 -0.024773 -0.082838 -0.069432 -0.016293 -0.071726 -0.030467 -0.173679 0.069996 -0.042118 -0.054402 -0.067173 0.907835 -0.057737 -0.083866 0.009878 -0.127451 -0.034351 0.375782 -0.100273 -0.204856 -0.077469 -0.004706 0.075546 0.078870 -0.449652 -0.072218 -0.008365
0.100894 0.005812 -0.033006 -0.216819 -0.355490 -0.012765 0.007407 -0.126648 0.517130 -0.960082 -0.119036 0.008037 -0.061224 0.026439 0.068941 -0.127613 -0.066139 -0.025955 -0.132561 -0.037828 0.750911 -0.010975 -0.078899 0.084880 0.066762 -0.021168 -2.507667 -0.097028 -0.242049 -0.124220 -0.002141 0.064967 14.856508 0.113344 -0.046734 -0.100085 -0.048498 0.077324 0.047934 -0.082643 -0.028205 0.025599 0.186600 -0.006098 -0.004160 -0.023718 -0.002475 -0.002713 -0.068501 0.106423 -0.073912 -0.079716 -0.017687 -0.001356 -0.034832 -2.839025 1.056818 0.019753 0.030268 -0.722227 0.210191 -0.087409 0.090277 -0.018955 0.034128 -0.107199 0.104052 -0.088806 -0.120857 0.011186 0.134560 0.028684 0.080739 -0.044054 0.062230 -0.102826 -0.204195 -0.520434 -0.190710 0.035418 -0.563856 0.170875 -0.122876 0.043765 0.005005 0.130256 0.122623 -0.077674 -0.034417 0.070394 -0.104962 0.078933 0.122410 0.040090 0.026586 0.096339 -1.209746 0.030225 -0.050440 -0.153882 -0.299081 0.027877 0.027261 -0.062156 2.261714 -0.005445 0.380010 -0.114439 0.056136 -0.036546 -0.024998 -0.069498 -0.223956 1.545635 0.027494 -0.125909 -0.213905 0.019975 -0.109769 -0.150140 -0.002708 0.025857 0.062187 -0.053141 0.006867 -0.017712 0.022296 0.067418
0.039864 0.014285 0.042480 -0.004527 0.021062 0.011279 -0.006414 -0.024664 0.155274 -0.061883 0.200176 0.116378 0.050982 -0.137624 -0.071035 0.016074 -0.051755 0.080566 -0.021185 0.057040 0.024273 -0.019445 0.124396 0.065118 0.070150 -0.210718 -0.264716 -0.005224 0.145331 -0.114535 -0.015073 0.006046 -0.001487 0.038993 -0.000073 -0.099281 -0.001130 0.001165 -0.018011 0.071501 -0.064076 -0.001451 -0.045369 0.032037 -0.112126 -0.050802 -0.052101 0.120473 0.070036 0.212346 0.093643 -0.087213 -0.073622 0.060499 -0.061406 -0.107142 -0.087669 -0.054348 0.010350 -0.080161 0.043095 0.162965 -0.113046 -0.053101 -0.032286 0.076462 -0.000646 0.022676 -0.142993 -0.124977 0.001197 -0.535037 0.084579 0.412623 0.293629 0.042688 0.032688 0.130846 -0.097023 -0.077762 0.014877 0.075742 0.124674 -0.077253 0.094375 0.116604 0.081865 -0.071925 0.206529 -0.041211 -0.012797 -0.033627 0.037245 -0.024007 -0.135791 0.026637 -0.044207 0.214596 -0.042501 0.171315 0.053997 0.464832 0.038050 -0.054521 0.093144 0.515832 -0.057483 -0.063080 -0.023841 -0.008007 0.071853 0.078966 -0.010483 0.472403 0.023332 0.034653 -0.087338 0.208970 -0.023456 0.080184 -0.020287 -0.048627 0.158919 -0.004227 0.005555 -0.012470 -0.046898 -0.010937
0.052425 0.401368 -0.060825 -0.016591 0.663718 0.232069 0.040583 -2.232647 -0.320213 0.103802 0.051516 0.036218 -0.002850 -0.419801 1.446503 0.892238 1.286279 -0.046081 0.011335 2.060798 0.025721 -0.295517 0.087042 -0.159058 -0.164244 0.049392 0.097504 0.073742 0.025020 -0.354347 1.602918 0.265184 0.024997 -0.057261 0.030197 -0.245032 0.838846 -0.243978 0.048206 0.218119 -0.049317 -1.270918 0.270660 0.048740 -0.013893 -0.002283 0.602449 -1.734570 0.181757 0.324420 -0.737779 -0.003151 -0.011747 -0.029480 0.091453 0.191740 -0.297016 -0.034471 -0.380810 0.239190 0.066137 0.072105 -0.041621 -0.084551 0.551753 0.034023 0.026161 -0.066679 0.393597 -1.097168 -1.093718 -3.374306 0.028513 -0.408345 0.313894 0.089618 0.201512 -2.699683 -0.653693 2.330959 0.319912 0.491193 -0.111606 0.334769 -0.000492 0.006811 0.287811 0.104711 0.522926 -0.057195 -0.237855 -0.013463 0.100226 0.004210 -0.259284 -0.524949 0.017252 0.041640 0.935438 0.803533 0.016591 -0.319607 -0.067094 0.340622 -0.049643 -0.016993 0.171712 -5.423026 -0.068415 -0.325306 0.079087 0.043342 0.292968 -0.065751 0.323318 0.044849 0.034379 -0.020104 0.741072 -0.002554 -0.058256 -1.530091 -0.064403 -0.338433 0.252771 -2.487561 0.025267 0.060539
