-0.179002 -0.064999 2.826695 -0.061362 -0.083573 -0.099473 -0.142181 -0.846405 -0.034287 0.015488 0.314716 -0.213655 -0.155294 -0.049375 -0.064457 0.158679 0.633835 0.088261 0.588375 0.016610 0.578481 0.254615 0.003577 -0.139030 -0.111119 0.490179 -0.142820 -0.435678 -0.050401 -0.034371 -0.145976 -0.160430 0.180303 0.109343 -0.038935 0.097544 0.148599 -0.347838 0.007323 0.196263 -0.375729 -0.147663 -0.062245 0.024561 -0.499861 0.133883 -0.091958 0.403883 -0.165213 0.510489
-0.114114 0.416658 -0.008222 0.011974 0.113967 -0.109687 0.011873 0.145193 0.129004 -0.811075 -0.197976 0.241008 0.183293 -0.108103 -0.324346 0.562608 0.389039 -0.047984 -0.572424 -0.712891 0.472698 0.024942 0.251532 0.081891 -0.108141 -0.095811 0.010202 0.024947 -0.161808 0.058524 0.072351 3.849382 -0.645721 -0.211829 0.050445 -0.055596 -0.091465 0.188807 -0.190907 -0.226072 0.461305 -0.004306 0.429128 -0.030672 0.276132 0.093866 0.148020 0.264917 0.049859 -0.032820
0.051147 -0.024773 1.978304 -0.234981 -0.302063 -0.038140 -0.249151 0.047362 -0.046654 1.685145 -0.423054 -0.086199 -0.091108 0.025268 -1.645097 0.053882 -0.254193 0.425526 -0.256002 -0.024044 -0.119338 1.084504 -0.280356 -0.560302 -0.067099 0.367234 -0.845634 0.276610 -1.603569 -0.151721 -0.365152 -1.055533 0.404713 0.059853 0.342522 -0.723584 -0.221599 -0.190607 2.116544 0.472907 0.016056 -0.628563 -0.533268 -0.182954 -2.240737 -0.916705 -0.325340 0.214514 -0.984369 0.204136
0.032896 -1.748303 -0.099276 0.158126 0.196088 -0.048383 0.026666 0.717897 -3.872714 -0.041940 -0.037126 0.112450 -1.001430 -0.122497 0.246689 -1.597447 -0.422285 0.233604 0.024353 0.097263 -0.043891 -1.098171 -0.525393 -0.173089 0.198065 1.363616 -0.155454 -0.106911 -1.228463 0.030226 0.074145 0.048119 0.116761 0.147904 0.118509 0.014128 0.073663 0.118543 -0.002556 0.100377 0.121553 -0.027427 -1.632252 0.072990 -1.508708 0.150752 -0.007509 0.516033 0.080549 0.129220
-0.102808 0.093289 0.020902 -0.082399 -0.077467 -0.016956 0.113677 -0.098729 -0.041254 0.124107 0.053674 0.122262 0.131177 0.107095 0.143656 -0.139659 -0.029976 -0.058577 0.083288 -0.116375 0.100774 -0.000471 0.098380 0.168657 -0.343372 0.064349 0.015373 0.162814 0.154265 0.051084 0.154517 -0.022579 0.139810 0.110593 -0.104978 -0.147305 0.014821 0.107419 -0.068547 -0.154774 -0.100082 -0.145006 -0.051971 -0.064143 -0.029313 0.015383 0.118536 -0.062671 0.202474 -0.101887
-0.030845 -0.043791 -0.354504 0.114097 0.122787 -0.020587 -0.168906 1.202283 0.207277 -0.074229 -0.063657 0.093291 0.003927 0.036297 -0.351788 -0.129320 -0.038620 -0.134804 0.039364 -0.203375 -0.247460 0.059665 -0.010994 0.116891 0.124579 -0.251535 0.052483 -0.141943 0.666429 -0.841061 0.000593 -0.117618 -0.224891 0.021918 -0.350457 0.102633 -0.001396 -0.730502 0.213094 0.116856 0.017664 -0.051689 -0.159588 -0.086900 -0.337244 -0.168545 -0.039774 -0.084686 -0.264302 -0.031259
-0.038353 0.011821 -0.097745 0.035337 0.159034 0.144576 0.092661 0.475070 0.165206 -0.005205 -0.000412 -0.076784 0.126170 -0.077652 -0.067943 0.057124 0.097571 0.042894 0.134591 -0.003206 0.139245 0.008962 0.099785 0.337191 -0.011802 -0.150244 -0.018695 -0.416097 -0.097239 0.018286 -0.002765 -0.150325 0.086613 -0.047182 -0.273995 0.291105 -0.069399 0.048092 -0.087348 0.116637 -0.139621 0.158966 -0.009352 -0.116843 0.234219 -0.013253 0.056991 0.153794 -0.144314 -0.097630
0.003522 0.669578 -0.772687 0.110594 0.027536 -0.036130 0.165571 0.220057 -0.017903 -0.582538 -0.121142 -0.173032 -0.348326 -0.257815 0.958145 -1.281710 0.588650 -0.424538 0.160897 0.046167 0.105735 -0.122110 0.147912 2.493501 -0.111933 -0.086457 0.680012 0.018638 1.021949 -0.101765 0.039600 1.086061 -0.799724 -0.267137 0.029351 0.018459 -0.277807 0.052673 -1.016956 -0.250498 0.050108 0.196086 0.034193 -0.020998 2.066630 -0.081211 -0.117071 0.170890 0.114590 0.268355
0.044679 0.026261 0.128582 0.062481 0.027315 0.097540 -0.096482 -0.045257 -0.341673 0.032278 -0.077473 -0.030441 -0.275571 0.148441 -0.014021 -0.175253 -0.156826 0.129895 -0.028404 0.006847 0.168574 0.134103 -0.094398 0.061264 0.005073 0.115013 0.020994 -0.143354 0.105956 -0.048463 -0.039059 -0.082363 0.082141 0.505370 0.116932 -0.197278 0.110253 -0.207838 -0.076129 0.000021 -0.204646 -0.165472 -0.209445 0.060079 -0.131857 -0.048773 0.027839 0.060932 -0.017584 -0.093848
0.450570 -0.441409 0.808371 0.029930 -0.028336 0.751321 -1.324608 -0.101205 -0.083840 3.345055 0.750521 0.958329 -1.906253 0.050682 2.646938 -0.315165 0.558622 -0.816805 -1.931158 3.169930 2.130161 0.589756 0.408571 0.501074 0.125406 -3.209813 0.955897 -0.004870 3.105820 -0.016475 0.089546 -5.433016 2.216223 -0.040020 0.020770 0.285015 -0.083057 0.175463 -1.815854 -0.147503 -2.715836 -0.167767 -1.739835 0.541345 -1.442148 0.140754 0.281605 -0.069529 0.037672 0.026449
-0.081730 -3.127081 0.254889 -0.172802 -0.742593 0.927027 -0.177056 -1.441974 -3.707788 -0.039949 -0.094962 0.945477 -0.436630 0.356602 0.322440 2.807312 -0.194023 -0.418589 -0.442778 -0.024946 -4.831330 0.044369 -0.468520 -1.330177 -0.175744 0.137872 -0.147808 2.249620 -0.078261 0.064662 0.121057 0.261889 -0.005612 0.812310 0.107161 0.723263 3.442782 4.348026 -0.413514 0.410908 -0.105203 0.378142 1.608628 0.193903 -0.317277 0.510314 0.072777 -0.199497 -0.055809 0.125453
-0.015369 -0.187593 0.119418 -0.079119 -0.072686 0.036928 0.067795 -0.596117 0.139034 -0.008998 -0.078102 -0.062324 0.130177 0.143649 -0.117044 -0.094302 0.094429 -0.070375 -0.088389 0.050922 -0.112926 -0.082342 0.085457 0.147462 -0.364075 -0.020897 -0.037384 0.036632 0.070256 -0.086625 0.159339 -0.027646 -0.018726 -0.019668 0.119046 -0.087860 0.074778 0.166869 -0.089136 -0.151114 0.178438 -0.011272 0.002940 0.023972 -0.125166 -0.032509 0.033545 0.035709 0.116213 -0.078540
0.101380 0.017963 1.577853 0.039483 0.375437 0.038764 0.021494 0.816827 0.071064 0.301230 -0.087269 -0.152961 0.282858 0.018981 -0.289490 -0.295250 0.529687 -0.098063 0.128787 -0.072999 -0.066482 -0.166735 0.355783 0.240443 0.131337 0.218697 -0.006546 0.113105 -0.440354 0.118372 0.012538 0.266003 -0.070358 -0.367650 0.225257 -0.005006 -0.074655 0.042941 0.134679 -0.304579 -0.000927 0.027793 0.016762 0.053335 -0.561469 0.055419 -0.174815 1.316535 0.528233 -0.063279
0.162135 0.240317 -0.047705 -0.274888 -0.036862 -0.076420 0.108604 -0.129432 0.103731 0.196822 -0.054195 0.010668 0.110781 0.177368 0.063058 0.082667 -0.084896 0.103314 -0.048143 -0.036223 -0.105921 0.260871 0.105933 0.148614 -0.266825 -0.027369 0.017657 0.463152 0.080487 -0.137897 0.117958 -0.047322 0.000666 -0.114334 0.162293 -0.039618 -0.143294 0.087242 -0.041638 0.068383 0.144960 -0.031325 -0.147696 -0.075147 -0.067903 -0.288170 0.064887 -0.140127 0.182330 -0.197574
0.122251 0.134301 -0.377955 0.003659 -0.012260 -0.101146 0.016794 -0.000469 -0.118073 0.083310 0.167276 0.123921 -0.109849 0.189500 0.298056 -0.055531 -0.188678 -0.018660 0.093691 -0.018977 0.112835 0.116285 -0.272655 -0.316362 -0.145286 0.103899 -0.081083 0.088688 -0.127758 0.070215 0.052616 -0.044362 0.018252 -0.091049 0.215874 0.074884 0.041547 -0.151525 -0.097366 0.217376 -0.458321 -0.168107 -0.082547 0.139669 -0.528409 0.090110 0.075147 -0.481198 -0.343038 -0.043703
-0.054301 0.062200 0.391383 0.120716 0.427767 0.835772 0.027166 0.234360 0.266080 0.004406 -0.048084 -0.125936 -0.009542 -0.126597 -0.785818 -0.125132 -0.026899 0.049717 0.151546 -0.209927 -0.257866 0.000890 0.657564 0.442237 0.146187 0.146612 0.137616 -0.079783 0.531583 0.088666 0.333912 0.071568 -0.120862 -0.633358 0.095469 0.011302 -0.023615 0.155602 -0.032594 -0.208798 2.796178 -0.048065 0.117028 -0.116141 0.152160 0.263597 0.073620 0.192028 1.046549 -0.022778
-0.079564 0.186092 0.066750 -0.139597 0.090770 0.064125 -0.101381 -0.115680 -0.194498 0.032397 -0.349921 -0.063260 0.011670 0.142095 0.088619 0.015352 0.107704 -0.147081 -0.058453 -0.243311 0.205006 -0.035191 -0.216930 0.096856 0.083684 0.059343 -0.085961 -0.015281 0.027403 0.079703 0.029730 -0.084893 0.022169 -0.131830 -0.036504 -0.210627 0.123742 -0.263120 -0.180756 0.045246 0.136378 -0.140720 0.063818 -0.083168 -0.003806 -0.138890 -0.066571 -0.021564 0.041548 -0.121652
0.026198 0.097283 -0.064217 0.086986 -0.104902 0.044338 -0.008614 0.141889 0.154987 -0.042935 -0.031039 0.100209 -0.065964 -0.147778 -0.002737 0.089760 0.120406 -0.052071 -0.021086 0.082598 0.034809 -0.151273 0.057941 0.078247 0.257409 -0.042657 -0.072634 -0.168124 0.139351 0.092212 -0.294985 -0.128432 -0.078102 -0.031176 -0.149262 -0.044000 0.160739 -0.391463 0.258949 0.084897 -0.107434 -0.079770 0.092487 0.179405 0.084775 -0.236961 0.061661 -0.010309 -0.638381 -0.110265
0.109223 -0.033430 -0.231211 -0.040827 0.122249 -0.090474 0.026090 -0.047585 -0.077572 0.095600 -0.107927 0.111258 -0.039039 0.145393 -0.130787 -0.148874 0.040775 0.012758 0.100386 -0.047573 -0.154311 0.026749 0.169951 0.079786 -0.202071 -0.120287 -0.099548 0.188513 0.128477 -0.063233 0.025650 -0.054474 -0.104546 -0.041727 -0.086829 -0.082961 -0.073924 0.536309 0.046208 -0.017816 0.227235 -0.081822 0.019889 0.037488 0.019231 -0.135014 0.106963 -0.160180 -0.042877 -0.078782
0.064587 0.142652 -0.054764 -0.012944 0.055734 -0.020325 -0.018107 -0.013117 -0.066881 -0.127136 -0.084633 -0.023609 0.144448 -0.069092 -0.124982 0.105413 0.006812 -0.059821 0.125918 0.001775 -0.261075 -0.280629 0.038862 0.119980 -0.034307 -0.236284 0.049119 -0.019041 0.211105 0.101931 -0.065798 0.039419 -0.062275 0.023063 0.126709 0.096980 -0.025655 -0.031679 0.106476 0.034071 0.267191 0.157901 0.063053 0.041425 0.045986 -0.109041 0.064494 -0.106564 0.064724 0.088348
-0.119418 -0.055561 0.060188 0.022322 0.116133 -0.052226 -0.049798 -0.124421 -0.039222 0.592508 -0.089100 0.009390 0.199310 -0.117253 0.217044 0.031633 0.061407 -0.175689 -0.284816 0.324413 -0.284875 -0.206460 0.396202 0.106909 0.071695 -0.285228 0.195418 -0.090104 1.386776 0.103149 0.044434 0.227088 -0.571085 -0.129397 0.055996 0.168174 -0.006498 0.216478 -0.087104 -0.149626 -0.071828 0.109143 0.184540 -0.192448 0.356430 0.219563 0.113258 0.311406 -0.084643 -0.123567
-0.243029 6.223233 -0.017522 -0.102684 2.656606 -5.073090 0.889940 -0.281541 -0.042778 1.294135 0.212980 -1.313891 1.911015 -1.119220 -0.972431 -2.211172 -1.261094 2.822508 1.274102 -0.270450 0.020829 -0.156921 -2.008011 -0.876621 -0.033794 0.064404 -0.153390 -1.559595 0.420331 0.213157 -2.253605 -5.451596 0.639545 -0.889843 2.350775 -2.458333 -5.271789 0.045620 0.046014 -10.698395 -0.084090 1.056295 0.930761 0.074593 -6.452404 -0.098601 0.973367 -0.159023 -0.835252 -0.002454
0.024897 -0.221182 0.130512 -0.142509 -0.096299 -0.051396 0.024540 -0.074967 -0.134380 0.399382 0.006941 -0.767214 -0.397607 0.166499 0.406675 0.071934 0.714426 0.041271 -0.236633 -0.026509 0.076411 0.396447 -0.331123 -0.088384 -0.542128 -0.085290 -0.200202 -0.003298 0.359617 0.007981 -0.096990 -2.814889 0.198928 0.140385 -0.352451 -0.135699 0.135044 -0.101075 -0.384289 0.308324 0.259432 -0.159839 -0.157073 -0.068900 -0.400050 0.005386 -0.055910 -0.119502 0.110107 0.080199
-0.012851 0.528497 0.027583 -0.160786 0.116414 -0.011196 0.053097 -0.079508 0.726327 -0.087157 0.067480 0.341335 0.238429 -0.075518 -0.310526 0.019147 0.148575 0.184870 -0.076304 -0.328037 -1.366793 -0.112802 0.166107 0.098619 0.032109 0.023057 -0.020960 0.073512 0.640721 0.009943 -0.119809 0.010478 -0.334110 -0.763171 -0.031232 -0.050528 -0.126195 0.242364 0.126673 -0.030383 -0.051200 0.146472 0.205077 0.046460 0.294271 0.080046 0.108175 -0.089031 0.127156 -0.012149
0.017843 0.040686 -0.113728 -0.137241 0.018950 -0.124877 -0.023832 0.155571 0.130551 0.002211 0.009671 0.030143 0.199219 -0.120715 0.142169 -0.064632 -0.022058 -0.135675 0.082007 -0.219879 -0.004873 0.032033 0.268859 0.332965 -0.129870 0.039991 0.141899 -0.107142 0.131401 -0.077658 0.187239 0.072115 0.005685 -0.125650 -0.144217 -0.021420 0.082550 0.248772 0.219292 -0.112389 0.231588 0.014614 0.219039 -0.144250 0.069368 0.106432 0.063388 0.019164 0.095438 -0.130817
-0.034678 0.536971 0.163359 0.144370 -1.038094 0.101601 -0.043323 -0.662597 3.600535 -0.553402 -0.083543 -1.400844 0.437821 -0.076319 0.683614 0.013613 -0.162412 0.972783 1.312547 0.046751 -1.235182 -0.072877 0.144590 1.058344 0.097488 -0.158749 0.243442 -0.005995 0.400818 -0.429991 0.118171 -0.073116 0.097574 -0.120160 -0.060540 0.112162 0.041498 -1.985235 -0.006096 -0.027099 0.082401 0.140593 0.358011 1.371343 -0.955511 0.249971 -0.092859 -0.328889 -0.015351 0.068358
0.124220 -0.039046 0.385875 -0.015781 -0.175627 -0.037961 -0.115496 -0.163666 -0.121874 -0.458615 0.227508 -0.084931 -0.330133 0.052869 0.317018 0.045897 -0.289262 0.067384 -0.221397 0.112729 -0.054464 0.159676 -0.306142 -0.126747 -0.082816 0.268526 -0.330879 0.506280 -0.252440 -0.106069 0.066266 -0.061522 0.070684 0.148752 -0.168376 0.459608 0.163354 -0.195638 -0.217001 0.295716 -0.043089 -0.041684 -0.302747 -0.024914 -0.903666 0.126392 -0.064257 -0.147232 0.045792 -0.044113
0.110617 -0.015502 -0.102776 -0.006746 -0.018024 0.048514 -0.110442 -0.101453 -0.024367 -0.070647 -0.026597 0.061912 -0.092224 0.023344 0.013830 -0.096657 -0.078019 0.131202 0.018993 0.196310 0.459544 -0.009031 -0.210704 -0.061868 -0.057322 0.145244 -0.059545 0.040536 -0.367069 -0.075187 -0.129695 -0.856784 0.278307 -0.060341 -0.151629 0.032104 0.090971 -0.115949 -0.003721 -0.046185 -0.253717 -0.076424 -0.105423 0.064961 -0.129671 -0.071766 0.217896 0.114947 0.042936 -0.103690
-0.071598 0.199958 -0.069678 -0.147564 -0.313182 -0.072344 0.016122 -0.070271 -0.063400 0.434604 -0.050223 0.070461 0.024519 0.273967 -0.116008 0.145846 -0.030029 -0.169510 -0.011591 -0.057057 -0.110607 0.154074 0.128634 0.140760 -0.668497 -0.107946 0.113187 0.289380 0.015062 0.020263 0.155722 0.132280 0.008107 -0.089228 0.209268 -0.036786 -0.122433 0.064217 -0.088079 -0.116730 0.105486 -0.134851 -0.072831 -0.091211 0.114356 -0.005563 0.010752 -0.152446 0.629575 -0.081802
0.044216 -0.184993 0.124266 -0.052052 0.159603 0.084046 -0.127869 -0.012196 -0.012283 -0.183326 -0.082607 0.072676 -0.037773 0.018498 -0.130317 -0.093678 -0.111719 0.051884 -0.058887 -0.038356 -0.062108 0.047919 -0.249677 -0.176925 0.312135 0.209966 -0.106814 -0.270507 0.021296 0.175351 -0.084696 -0.021354 0.055329 -0.123740 0.050066 0.074458 0.044323 -0.162133 -0.091619 0.064473 -0.026804 0.108630 -0.043777 0.055251 0.071485 -0.049052 0.112664 0.034487 -0.152275 0.057239
