0.127928 0.123424 0.792688 0.616078 0.162098 -0.186026 -0.271310 0.035194 -0.097269 -0.488065 0.231548 0.315054 0.339498 0.119708 0.118056 -0.402866 -0.076353 -0.349553 -1.491321 0.013852 0.029557 0.379784 1.307479 0.095170 -0.425761 -0.170383 -0.376795 0.158807 0.133579 -0.948279
0.181831 0.172591 0.041114 0.149561 0.432345 -0.135449 -0.084737 0.290905 0.039646 -0.038816 -0.260678 -0.059380 -0.230968 0.161595 0.482058 -0.383431 0.179514 -0.300655 0.049464 -0.012907 0.071356 0.309580 -0.024908 -0.101894 0.074154 -0.144700 -0.193818 0.111550 0.270968 -0.094699
0.433541 -3.294836 -2.493899 -0.014738 -11.561569 -0.549767 0.697244 0.384054 -0.855931 -2.155142 1.719619 -2.695172 -1.371102 0.093865 1.239376 -0.520992 5.618180 0.974482 -1.378348 2.312063 -0.191728 -2.062367 -0.042870 -0.129979 -22.014408 -0.120688 0.616385 -0.984189 -0.113200 -11.990043
-0.493617 -2.683264 -1.158676 -0.148268 6.228076 2.926745 -1.610912 -1.764780 -0.284876 -2.330843 -0.214643 0.052210 -1.343433 -0.030685 -2.647304 -13.463504 -6.368689 0.388514 2.564783 6.738102 -3.118726 0.116240 -2.197009 0.188037 2.309321 0.215996 -7.583724 -13.591036 -0.078580 0.194978
0.398393 0.028104 0.010644 0.178455 -0.461694 0.107666 0.305269 0.201515 0.052873 -0.171783 -0.169849 -0.108657 -0.358109 -0.112783 0.104073 -0.045864 -0.022779 0.267377 -0.158820 -0.109628 0.028310 0.014808 0.005298 -0.122529 0.064069 -0.118820 0.067765 0.178720 -0.215641 0.350773
0.308448 0.199486 -0.416964 -0.193775 0.656138 -0.422635 2.664248 0.117729 0.145471 -0.132554 -0.262803 -0.587683 -0.424511 0.198338 1.191667 0.630017 2.876667 0.852460 0.381302 0.236868 0.157833 0.120354 -0.065238 -1.059197 5.658967 0.159789 0.178845 -0.096315 -1.764455 0.292167
-0.111881 0.123439 -0.049718 -0.204687 -0.204646 -0.092032 0.134818 -0.045208 0.191257 -0.024984 0.034301 -0.282742 0.051304 -0.254236 -0.059373 0.062133 0.113619 0.152111 -0.204488 0.206630 -0.124989 -0.045854 -0.033794 -0.148096 -0.060101 0.189516 0.153058 0.009960 -0.197148 0.219081
0.050967 5.076205 -2.407762 -0.035199 -8.540288 -7.839690 -11.641706 1.367356 -9.519801 -0.074886 25.829374 8.428089 -10.733743 5.089978 6.541741 0.325264 1.978206 1.529998 29.887897 0.154717 0.484049 -12.987193 12.101617 0.142714 -0.580621 0.160737 -0.999280 -0.188104 -0.018715 -0.913228
-0.301036 0.178597 -1.107489 -0.326400 1.105837 3.418545 0.494035 -1.097858 0.696971 -1.189265 1.503183 2.095420 1.387083 -0.147021 -0.597079 2.568193 1.641839 0.710498 4.264255 -18.853119 1.977880 0.203301 3.683295 4.784974 23.026030 0.056090 0.066437 -11.070378 -0.304758 -1.818658
0.421698 0.019892 -0.198248 0.294097 1.499408 0.500514 1.171279 0.083757 1.606516 1.660503 -1.863349 -1.258826 -0.924546 0.110861 1.016890 5.997315 0.557852 0.200471 -0.679945 0.981644 -1.188407 -0.614299 -0.941823 -0.214742 -1.768332 -0.171678 -1.274830 10.507210 0.128125 1.823039
